################################################################################
# Neural network connection values (weights and biases).
################################################################################
# Col  Name       Description
################################################################################
# 1    connection Neural network connection value.
# 2    t          Connection type (a = weight, b = bias).
# 3    index      Index enumerating weights.
# 4    l_s        Starting point layer (end point layer for biases).
# 5    n_s        Starting point neuron in starting layer (end point neuron for biases).
# 6    l_e        End point layer.
# 7    n_e        End point neuron in end layer.
################################################################################
#                      1 2         3     4     5     6     7
#             connection t     index   l_s   n_s   l_e   n_e
############################################################
 -1.5311310731576677E+01 a         1     0     1     1     1
  5.4768443473774589E+01 a         2     0     1     1     2
 -1.4383039736743177E+00 a         3     0     1     1     3
  1.3136727654098909E+01 a         4     0     1     1     4
 -2.7594475179652271E+01 a         5     0     1     1     5
  7.1677090227578475E+00 a         6     0     1     1     6
  9.3935045941967688E-01 a         7     0     1     1     7
 -5.5367216745498510E+01 a         8     0     1     1     8
  1.5972167955161816E+00 a         9     0     1     1     9
  2.3304215362300603E+01 a        10     0     1     1    10
  9.3382916347999378E-01 a        11     0     1     1    11
 -1.9347380657323072E+01 a        12     0     1     1    12
  2.1101424725107922E+01 a        13     0     1     1    13
 -3.2974512563070997E+00 a        14     0     1     1    14
  3.4564645000195327E+01 a        15     0     1     1    15
  1.5764129689494402E+01 a        16     0     1     1    16
 -9.5033361345585343E-01 a        17     0     1     1    17
 -5.4592815614641932E-01 a        18     0     1     1    18
 -9.8181010028018623E-01 a        19     0     1     1    19
  8.6182074711165626E+01 a        20     0     1     1    20
  1.1815078495937671E+01 a        21     0     1     1    21
  1.5414782608124475E+00 a        22     0     1     1    22
  5.6957350471210866E+00 a        23     0     1     1    23
  3.3242778541762121E+01 a        24     0     1     1    24
 -1.2259136064297471E+00 a        25     0     1     1    25
  7.2480601712551040E+00 a        26     0     1     1    26
 -1.2927602521876520E+00 a        27     0     1     1    27
 -5.8930650870579742E+00 a        28     0     1     1    28
  9.8047834220433945E+00 a        29     0     1     1    29
  5.9568415916827222E+00 a        30     0     1     1    30
  1.2205385793656220E+01 a        31     0     2     1     1
  1.5369806501188265E+01 a        32     0     2     1     2
 -2.8980460042736453E+00 a        33     0     2     1     3
  3.0511606131496556E+01 a        34     0     2     1     4
  1.7755209913377147E+01 a        35     0     2     1     5
  1.1601262343814970E+01 a        36     0     2     1     6
 -1.0597475640948067E+01 a        37     0     2     1     7
 -1.5809285324338910E+01 a        38     0     2     1     8
 -6.0591152364661411E+00 a        39     0     2     1     9
  2.7449482645382042E+00 a        40     0     2     1    10
  2.1921100958108486E+00 a        41     0     2     1    11
  1.7650726848906505E+01 a        42     0     2     1    12
  1.0441832771428414E+01 a        43     0     2     1    13
  5.9938069242016363E+00 a        44     0     2     1    14
  1.4239562516461028E+00 a        45     0     2     1    15
  2.9718004837964296E+00 a        46     0     2     1    16
  1.1912555415588990E+01 a        47     0     2     1    17
 -3.3085359782237822E-01 a        48     0     2     1    18
  5.8983051209067314E+00 a        49     0     2     1    19
  3.4125957025096561E+01 a        50     0     2     1    20
 -7.6987113607595212E+00 a        51     0     2     1    21
  1.1893157195879233E+01 a        52     0     2     1    22
  1.2817210762197874E+01 a        53     0     2     1    23
  2.3176018271627754E+01 a        54     0     2     1    24
  3.0132297553975067E+00 a        55     0     2     1    25
 -4.0663295794173653E+00 a        56     0     2     1    26
  6.4653544782160779E+00 a        57     0     2     1    27
 -1.8478565535330961E+01 a        58     0     2     1    28
  2.7558571456930050E+00 a        59     0     2     1    29
  5.3259171050344589E+00 a        60     0     2     1    30
  3.5649482717657676E+01 a        61     0     3     1     1
 -1.1474138208552855E+01 a        62     0     3     1     2
 -4.1841517985963108E+00 a        63     0     3     1     3
  3.8510456361622637E+01 a        64     0     3     1     4
  4.5519516628556353E+01 a        65     0     3     1     5
  1.6584593439941234E+01 a        66     0     3     1     6
 -1.9018149130900799E+01 a        67     0     3     1     7
  1.0431959157896120E+01 a        68     0     3     1     8
  5.9670022080474494E+00 a        69     0     3     1     9
 -1.0295627958226094E+01 a        70     0     3     1    10
  2.3819176753202354E+00 a        71     0     3     1    11
  4.5074459576183187E+01 a        72     0     3     1    12
  2.3472182091417606E+00 a        73     0     3     1    13
  8.7741236436971271E+00 a        74     0     3     1    14
 -2.3014334004037263E+01 a        75     0     3     1    15
 -1.0475255443710113E+01 a        76     0     3     1    16
  1.9479537773416908E+01 a        77     0     3     1    17
 -1.0804660613429275E-01 a        78     0     3     1    18
  1.0444409680384350E+01 a        79     0     3     1    19
 -6.4125539653008170E+00 a        80     0     3     1    20
 -2.1564993836223817E+01 a        81     0     3     1    21
 -8.4785480638124273E+00 a        82     0     3     1    22
  2.1120006434303967E+01 a        83     0     3     1    23
  1.4312342886467210E+01 a        84     0     3     1    24
  2.6685308268291319E+00 a        85     0     3     1    25
 -1.3347392069158078E+01 a        86     0     3     1    26
  1.0829423941021812E+01 a        87     0     3     1    27
 -2.4709287151942242E+01 a        88     0     3     1    28
 -2.5295480858484329E+00 a        89     0     3     1    29
 -4.9380530439781847E+00 a        90     0     3     1    30
  1.7216623245965941E+01 a        91     0     4     1     1
  1.0140291416599240E+01 a        92     0     4     1     2
 -1.1189346200180367E+01 a        93     0     4     1     3
  4.4153236244201452E+01 a        94     0     4     1     4
  1.6313681440978982E+01 a        95     0     4     1     5
  3.0439088428449921E+01 a        96     0     4     1     6
 -9.8279778651929188E+00 a        97     0     4     1     7
  3.3266420543257573E+00 a        98     0     4     1     8
 -3.2914378755904934E+01 a        99     0     4     1     9
 -2.0456037107246487E+01 a       100     0     4     1    10
  9.5320056337708081E+00 a       101     0     4     1    11
  3.8410545299907653E+01 a       102     0     4     1    12
  2.7539640170909836E+00 a       103     0     4     1    13
  3.0977092960112095E+01 a       104     0     4     1    14
  6.8111371437619859E+00 a       105     0     4     1    15
 -1.5251144210204659E+01 a       106     0     4     1    16
  1.3774347144216680E+01 a       107     0     4     1    17
 -1.8040552254263738E+00 a       108     0     4     1    18
  5.6634411387148882E+00 a       109     0     4     1    19
 -3.0775884942646794E+01 a       110     0     4     1    20
 -1.0192016981587820E+01 a       111     0     4     1    21
  1.9786873005979594E+01 a       112     0     4     1    22
 -3.4052368880399082E+00 a       113     0     4     1    23
  5.8454240031320097E+00 a       114     0     4     1    24
  1.7216057317976404E+01 a       115     0     4     1    25
 -5.4677945513323740E+00 a       116     0     4     1    26
  1.1780579951998609E+01 a       117     0     4     1    27
 -2.4077117656766667E+01 a       118     0     4     1    28
 -7.8732060913746036E+00 a       119     0     4     1    29
  2.5222515056054259E+01 a       120     0     4     1    30
  1.1942977054793444E+00 a       121     0     5     1     1
  2.8675149893455345E+01 a       122     0     5     1     2
 -1.6608353947715685E+01 a       123     0     5     1     3
 -3.0464964010577788E+01 a       124     0     5     1     4
 -4.8124148469928926E+01 a       125     0     5     1     5
  3.1623763472651881E+01 a       126     0     5     1     6
  2.2042605170516737E+01 a       127     0     5     1     7
 -1.1288556677366106E+01 a       128     0     5     1     8
  5.1144867019058601E+01 a       129     0     5     1     9
 -3.9795529418788536E+00 a       130     0     5     1    10
  7.3500514465619160E-01 a       131     0     5     1    11
 -5.3429227308793479E+00 a       132     0     5     1    12
 -7.5713031642762001E+00 a       133     0     5     1    13
  9.2535314354575107E+00 a       134     0     5     1    14
  2.7216522443366504E+01 a       135     0     5     1    15
 -2.5712715975793735E+01 a       136     0     5     1    16
 -1.9966364573807844E+01 a       137     0     5     1    17
  7.0035264320646649E+00 a       138     0     5     1    18
 -1.3459957707590020E+01 a       139     0     5     1    19
 -4.9089524066680518E+01 a       140     0     5     1    20
  2.1137149229082151E+01 a       141     0     5     1    21
 -4.4342507780005533E+01 a       142     0     5     1    22
 -1.3330409331914460E+01 a       143     0     5     1    23
 -7.1920737712401843E+00 a       144     0     5     1    24
  6.1660655292379092E+00 a       145     0     5     1    25
 -1.0674895046269336E+01 a       146     0     5     1    26
  2.8833226680496300E+00 a       147     0     5     1    27
  1.6340423202201979E+01 a       148     0     5     1    28
 -1.3521937882556026E+01 a       149     0     5     1    29
 -3.8578525113806577E+01 a       150     0     5     1    30
 -1.9445995898678206E+00 a       151     0     6     1     1
 -1.5418598711108503E+01 a       152     0     6     1     2
  3.5165635761547276E+00 a       153     0     6     1     3
 -1.4701738520705916E+01 a       154     0     6     1     4
 -1.0152703215163210E+00 a       155     0     6     1     5
 -8.4726640797607562E+00 a       156     0     6     1     6
  3.4703929166251091E+00 a       157     0     6     1     7
  1.7410291613600588E+01 a       158     0     6     1     8
  1.0117379424932857E+00 a       159     0     6     1     9
 -6.2547381947258742E+00 a       160     0     6     1    10
 -1.4295138544460124E+00 a       161     0     6     1    11
 -5.0350316385682268E+00 a       162     0     6     1    12
 -8.9782501436978830E+00 a       163     0     6     1    13
 -2.5347658968241471E+00 a       164     0     6     1    14
 -8.3393784162901632E+00 a       165     0     6     1    15
 -3.8033767844482274E+00 a       166     0     6     1    16
 -3.3962492584505219E+00 a       167     0     6     1    17
  2.5500264898328334E-01 a       168     0     6     1    18
 -2.7439692848494985E+00 a       169     0     6     1    19
 -2.2992597475467996E+01 a       170     0     6     1    20
 -8.6038804615535580E-01 a       171     0     6     1    21
 -2.6789529215879173E+00 a       172     0     6     1    22
 -6.9017655613429332E+00 a       173     0     6     1    23
 -1.8094196461919577E+01 a       174     0     6     1    24
 -1.2331936939495729E+00 a       175     0     6     1    25
  1.5191228319339808E-01 a       176     0     6     1    26
 -1.9350233263589782E+00 a       177     0     6     1    27
  9.0711616430932587E+00 a       178     0     6     1    28
 -2.8290542237891851E+00 a       179     0     6     1    29
 -3.1654188197779374E+00 a       180     0     6     1    30
 -2.7657439962955863E+01 a       181     0     7     1     1
 -5.9902372580536314E+00 a       182     0     7     1     2
  2.3981274547145546E+01 a       183     0     7     1     3
 -8.6640257808114896E+01 a       184     0     7     1     4
  1.0637429891079492E+01 a       185     0     7     1     5
 -3.3145287950137146E+01 a       186     0     7     1     6
  3.8110536634087429E+00 a       187     0     7     1     7
 -2.8225287828498473E+00 a       188     0     7     1     8
 -3.2407343258050147E+01 a       189     0     7     1     9
  1.2295819819001556E+01 a       190     0     7     1    10
 -1.1081677554865429E+01 a       191     0     7     1    11
 -2.5872870616000466E+01 a       192     0     7     1    12
  7.9018174090762043E+00 a       193     0     7     1    13
 -1.3762024630881132E+01 a       194     0     7     1    14
 -2.5249301726883203E+01 a       195     0     7     1    15
  1.3530274612272958E+01 a       196     0     7     1    16
 -1.4201988969404898E+01 a       197     0     7     1    17
  6.2440774905637921E+00 a       198     0     7     1    18
 -1.0581773973470958E+00 a       199     0     7     1    19
  7.6531268014088494E-01 a       200     0     7     1    20
  1.1220370385173744E+01 a       201     0     7     1    21
  2.6936241320586163E+01 a       202     0     7     1    22
  2.5572465237694040E+01 a       203     0     7     1    23
 -4.3717902455560544E+00 a       204     0     7     1    24
 -1.8058737518019324E+01 a       205     0     7     1    25
  9.7178724935343941E-01 a       206     0     7     1    26
 -6.0023617249489911E+00 a       207     0     7     1    27
  3.0127439857676661E+00 a       208     0     7     1    28
 -7.4098398804770955E+00 a       209     0     7     1    29
  2.2727631155553077E+01 a       210     0     7     1    30
 -1.3848001205218809E+01 a       211     0     8     1     1
 -1.8153583954709909E+01 a       212     0     8     1     2
  5.7138513759890479E+00 a       213     0     8     1     3
 -2.7224531877216911E+01 a       214     0     8     1     4
 -8.4286848941260715E+00 a       215     0     8     1     5
 -1.7177412835249335E+01 a       216     0     8     1     6
  9.0334661994955567E+00 a       217     0     8     1     7
  1.4306646423259982E+01 a       218     0     8     1     8
  2.6845679669924385E+00 a       219     0     8     1     9
  1.1881596687373341E+00 a       220     0     8     1    10
 -3.3625028087234718E+00 a       221     0     8     1    11
 -1.9441581768287058E+01 a       222     0     8     1    12
 -8.8407672941101723E+00 a       223     0     8     1    13
 -8.3497605216223363E+00 a       224     0     8     1    14
 -5.8028966817403989E+00 a       225     0     8     1    15
  3.1812740184769757E+00 a       226     0     8     1    16
 -9.8002453357808825E+00 a       227     0     8     1    17
  4.9980442916437806E-01 a       228     0     8     1    18
 -4.0614263776025794E+00 a       229     0     8     1    19
 -2.4462854565961319E+01 a       230     0     8     1    20
  5.4030160590991541E+00 a       231     0     8     1    21
 -2.0694330460647108E+00 a       232     0     8     1    22
 -7.4046401371595172E+00 a       233     0     8     1    23
 -1.6110756797384429E+01 a       234     0     8     1    24
 -4.4605313276235421E+00 a       235     0     8     1    25
  4.5956071195188226E+00 a       236     0     8     1    26
 -6.8752760477399226E+00 a       237     0     8     1    27
  1.9630820205201843E+01 a       238     0     8     1    28
  1.1195002515942829E+00 a       239     0     8     1    29
 -3.7049889439979444E+00 a       240     0     8     1    30
  6.0321883006802679E+00 a       241     0     9     1     1
 -1.2504509434954953E+01 a       242     0     9     1     2
 -9.5985307995708311E+00 a       243     0     9     1     3
  2.6861630527361694E+01 a       244     0     9     1     4
 -8.9919326001394175E+00 a       245     0     9     1     5
 -4.8338893120781962E-01 a       246     0     9     1     6
  2.2499372460361919E+00 a       247     0     9     1     7
  2.6789482779883826E+01 a       248     0     9     1     8
  7.7978607610533714E+00 a       249     0     9     1     9
  4.3960838456492484E+00 a       250     0     9     1    10
  4.5910993155627955E-01 a       251     0     9     1    11
 -4.0409960424163627E+00 a       252     0     9     1    12
 -1.4603421389448490E+00 a       253     0     9     1    13
  2.6632382487059525E+00 a       254     0     9     1    14
  6.5186943840288532E+00 a       255     0     9     1    15
  2.2121363676337338E+00 a       256     0     9     1    16
  8.8149521740758772E+00 a       257     0     9     1    17
 -9.9077768758321110E+00 a       258     0     9     1    18
 -1.1554665558300962E-01 a       259     0     9     1    19
  1.0769219494587816E+01 a       260     0     9     1    20
 -3.5066170995397350E+00 a       261     0     9     1    21
 -4.9177030909632604E+00 a       262     0     9     1    22
  1.7121758958091846E-01 a       263     0     9     1    23
  1.4086649786580865E+00 a       264     0     9     1    24
  1.1793741770163090E+01 a       265     0     9     1    25
  2.3070495343655097E+00 a       266     0     9     1    26
 -2.1590725191029261E+00 a       267     0     9     1    27
  1.2443927293744723E+00 a       268     0     9     1    28
  2.2599263068118920E+00 a       269     0     9     1    29
 -4.4375593159653173E+00 a       270     0     9     1    30
  1.1151501959964308E-01 a       271     0    10     1     1
  1.1952088324459662E+00 a       272     0    10     1     2
  6.7780711475945499E-01 a       273     0    10     1     3
 -1.9415722609765276E+00 a       274     0    10     1     4
  6.5448954072295307E-01 a       275     0    10     1     5
  3.3069384340554418E-02 a       276     0    10     1     6
 -5.9170533140621795E-01 a       277     0    10     1     7
 -2.2216037315269768E+00 a       278     0    10     1     8
 -2.7901642846416030E-01 a       279     0    10     1     9
 -6.0018461626343667E-01 a       280     0    10     1    10
  3.2977996738393675E-02 a       281     0    10     1    11
  1.3265383229711161E+00 a       282     0    10     1    12
 -8.0955027444763392E-02 a       283     0    10     1    13
 -5.5199226813337299E-01 a       284     0    10     1    14
 -6.3101053465214807E-01 a       285     0    10     1    15
 -1.6898756752017410E-01 a       286     0    10     1    16
  1.2579720618334297E-01 a       287     0    10     1    17
  6.4173108553188019E-01 a       288     0    10     1    18
 -8.7937826336507624E-02 a       289     0    10     1    19
 -6.1034261529551581E-01 a       290     0    10     1    20
  7.1925479203808526E-02 a       291     0    10     1    21
  1.5714592380542020E-01 a       292     0    10     1    22
 -2.2856512425184430E-01 a       293     0    10     1    23
  5.0784326249502532E-01 a       294     0    10     1    24
 -1.2327676851755218E+00 a       295     0    10     1    25
 -4.6865368726503587E-01 a       296     0    10     1    26
  2.0277155353867590E-01 a       297     0    10     1    27
  7.6971698981938008E-02 a       298     0    10     1    28
  7.5444772028052220E-01 a       299     0    10     1    29
  1.1413073842733706E-01 a       300     0    10     1    30
 -1.3883766665738285E+01 a       301     0    11     1     1
 -2.9014693083293320E+01 a       302     0    11     1     2
  7.9504222603593409E+00 a       303     0    11     1     3
 -1.7247426002845049E+01 a       304     0    11     1     4
 -5.5429662317274371E+00 a       305     0    11     1     5
 -2.5913258049374992E+01 a       306     0    11     1     6
  4.1674875443547705E+00 a       307     0    11     1     7
  2.1158059137930142E+01 a       308     0    11     1     8
 -4.5277820570920224E-01 a       309     0    11     1     9
  1.3786592076681481E+00 a       310     0    11     1    10
 -1.6315893057181945E+00 a       311     0    11     1    11
 -2.2978641056914249E+01 a       312     0    11     1    12
 -1.1035287467805599E+01 a       313     0    11     1    13
 -1.3662078710993374E+01 a       314     0    11     1    14
 -1.0058177995972947E+01 a       315     0    11     1    15
  1.0186559735772260E+01 a       316     0    11     1    16
 -6.5422317561266343E+00 a       317     0    11     1    17
 -1.4918210165788119E+00 a       318     0    11     1    18
 -1.4789256348609405E+00 a       319     0    11     1    19
 -2.9127996800157612E+00 a       320     0    11     1    20
  2.0714744486917072E+00 a       321     0    11     1    21
  1.7003257178076849E+00 a       322     0    11     1    22
 -1.1900475416511906E+01 a       323     0    11     1    23
 -2.0746897438694340E+01 a       324     0    11     1    24
 -8.4453810395822373E+00 a       325     0    11     1    25
  1.0523717702041482E+01 a       326     0    11     1    26
 -9.3152762327562506E+00 a       327     0    11     1    27
  1.9275142071927622E+01 a       328     0    11     1    28
  5.3655534615334650E+00 a       329     0    11     1    29
 -1.9598135033363080E+00 a       330     0    11     1    30
 -4.4747430958894174E+00 a       331     0    12     1     1
 -2.3073415398411690E+01 a       332     0    12     1     2
  6.0033452207994795E+00 a       333     0    12     1     3
  1.8763187715337448E+01 a       334     0    12     1     4
  8.0216912967472229E+00 a       335     0    12     1     5
 -1.7099371324757030E+01 a       336     0    12     1     6
 -1.1787876887965949E+00 a       337     0    12     1     7
  9.6107487961133859E+00 a       338     0    12     1     8
  1.0596672844569370E+00 a       339     0    12     1     9
 -2.0146281950741476E+00 a       340     0    12     1    10
  2.5212152140972375E+00 a       341     0    12     1    11
 -8.2555093226188632E+00 a       342     0    12     1    12
 -1.0456345317562427E+01 a       343     0    12     1    13
 -1.0902862629999094E+01 a       344     0    12     1    14
 -4.0093757457139612E+00 a       345     0    12     1    15
  1.0761455010538274E+01 a       346     0    12     1    16
 -1.2070198569082344E+00 a       347     0    12     1    17
 -9.6078433450243583E-01 a       348     0    12     1    18
  6.3970377945982539E+00 a       349     0    12     1    19
  6.3325451950566203E+00 a       350     0    12     1    20
 -5.2785373868928982E+00 a       351     0    12     1    21
  5.3970589762520182E-01 a       352     0    12     1    22
 -2.2615070875555908E+01 a       353     0    12     1    23
 -1.2924485613475381E+01 a       354     0    12     1    24
 -8.3486359591935617E+00 a       355     0    12     1    25
  9.8866375367933603E+00 a       356     0    12     1    26
 -8.0731139780550478E+00 a       357     0    12     1    27
  1.0498211310927683E+01 a       358     0    12     1    28
  1.4607725292677422E+01 a       359     0    12     1    29
 -2.9910670251316787E+00 a       360     0    12     1    30
 -7.5003305539988852E-01 a       361     0    13     1     1
 -1.7137319928041295E-02 a       362     0    13     1     2
  1.6730282442799040E+00 a       363     0    13     1     3
  2.8280822875086309E+00 a       364     0    13     1     4
  2.8887687675437701E+00 a       365     0    13     1     5
 -1.2538436473279386E+00 a       366     0    13     1     6
 -1.9023758043071970E+00 a       367     0    13     1     7
 -5.8514718239900132E+00 a       368     0    13     1     8
 -2.1524302070463425E-01 a       369     0    13     1     9
 -2.3815135389861450E+00 a       370     0    13     1    10
  1.2782001890990109E+00 a       371     0    13     1    11
  1.1247386868827709E+00 a       372     0    13     1    12
 -2.7938857963010193E+00 a       373     0    13     1    13
 -2.2055767659521783E+00 a       374     0    13     1    14
 -1.6266371941032325E+00 a       375     0    13     1    15
  5.1444043909718606E-01 a       376     0    13     1    16
 -1.3757975789101340E+00 a       377     0    13     1    17
  2.3226121239464566E+00 a       378     0    13     1    18
  1.6055521702077760E+00 a       379     0    13     1    19
 -6.2991727226348149E-01 a       380     0    13     1    20
 -1.9457382661189713E+00 a       381     0    13     1    21
  2.2782263144294246E-01 a       382     0    13     1    22
 -5.8495873589995702E+00 a       383     0    13     1    23
 -2.3122814337723900E+00 a       384     0    13     1    24
 -3.3498344590986786E+00 a       385     0    13     1    25
  9.4918744859006698E-01 a       386     0    13     1    26
 -4.5479825511885918E-01 a       387     0    13     1    27
  8.5833869475305113E-01 a       388     0    13     1    28
  2.6540228027679023E+00 a       389     0    13     1    29
 -2.6968649187352117E-01 a       390     0    13     1    30
 -3.8990716041213170E-04 a       391     0    14     1     1
 -6.2386565305201598E-02 a       392     0    14     1     2
  3.8270146010610651E-01 a       393     0    14     1     3
  1.5912762296050762E+00 a       394     0    14     1     4
  1.1531479977817805E+00 a       395     0    14     1     5
  3.9334112358738837E-01 a       396     0    14     1     6
  4.1708203366249010E-02 a       397     0    14     1     7
 -8.2602810633601442E-01 a       398     0    14     1     8
 -7.8374471736370091E-02 a       399     0    14     1     9
 -3.7284912511575097E-01 a       400     0    14     1    10
  3.5456359202552801E-02 a       401     0    14     1    11
  3.0343174036635673E-01 a       402     0    14     1    12
  3.2796953250422278E-01 a       403     0    14     1    13
 -1.0608567873946487E-01 a       404     0    14     1    14
  2.5262863144623871E-01 a       405     0    14     1    15
  4.0358835632233236E-01 a       406     0    14     1    16
 -5.3616080442165948E-01 a       407     0    14     1    17
  4.1776203674911522E-01 a       408     0    14     1    18
  3.3123011827507137E-01 a       409     0    14     1    19
 -1.1998334772182655E-01 a       410     0    14     1    20
 -4.2027251279831236E-02 a       411     0    14     1    21
  4.3762373110393833E-03 a       412     0    14     1    22
 -9.2411112092869674E-01 a       413     0    14     1    23
 -6.7344992580852270E-01 a       414     0    14     1    24
 -6.7836234588927860E-02 a       415     0    14     1    25
  5.8288290104385621E-01 a       416     0    14     1    26
  2.0894652602842659E-01 a       417     0    14     1    27
 -6.5764416080057911E-02 a       418     0    14     1    28
  2.2681021606745250E-01 a       419     0    14     1    29
  4.3404359762931582E-02 a       420     0    14     1    30
  9.9652748849830584E+00 a       421     0    15     1     1
  8.1811366429815742E+00 a       422     0    15     1     2
  3.0954926483428260E+01 a       423     0    15     1     3
  7.3990377299071879E+00 a       424     0    15     1     4
 -1.2400157614477012E+01 a       425     0    15     1     5
  8.0473661008653128E+00 a       426     0    15     1     6
 -3.2983081666810953E+01 a       427     0    15     1     7
 -2.5778750316519552E+01 a       428     0    15     1     8
 -3.5839894208156240E+00 a       429     0    15     1     9
 -2.7441672268203156E+01 a       430     0    15     1    10
 -7.4482931710078351E+00 a       431     0    15     1    11
 -2.9704063864125313E+01 a       432     0    15     1    12
 -2.6270269646871856E+01 a       433     0    15     1    13
 -2.2352341292724105E+01 a       434     0    15     1    14
  1.3360576972603376E+01 a       435     0    15     1    15
 -2.4154477028148218E+01 a       436     0    15     1    16
  3.7438353148329689E+01 a       437     0    15     1    17
 -2.4274419129323466E+01 a       438     0    15     1    18
 -1.0435776204558995E+00 a       439     0    15     1    19
 -5.2330497664130133E+00 a       440     0    15     1    20
  2.7617319949180263E+01 a       441     0    15     1    21
  3.9244205172237892E+00 a       442     0    15     1    22
 -9.9266599629866779E+00 a       443     0    15     1    23
  1.7675468175110513E+01 a       444     0    15     1    24
  1.2396751998591728E+01 a       445     0    15     1    25
  3.4552436140617800E+01 a       446     0    15     1    26
  1.6775133133732623E-01 a       447     0    15     1    27
 -7.1782135100272022E+00 a       448     0    15     1    28
 -1.7157337614597598E-01 a       449     0    15     1    29
  7.7630944154180845E+00 a       450     0    15     1    30
  1.9499989161094682E+01 a       451     0    16     1     1
 -1.2709394992697177E+01 a       452     0    16     1     2
 -3.9194511491376844E+01 a       453     0    16     1     3
 -1.5688792934366818E+01 a       454     0    16     1     4
 -2.1217489855896169E+01 a       455     0    16     1     5
  4.3287913012051881E+01 a       456     0    16     1     6
  2.8634626563356025E-01 a       457     0    16     1     7
 -4.3110325994290392E+01 a       458     0    16     1     8
  2.4066184740795116E+01 a       459     0    16     1     9
  9.3548881827271941E+00 a       460     0    16     1    10
  1.3364895563166783E+00 a       461     0    16     1    11
 -6.9718904687388159E+00 a       462     0    16     1    12
  3.2301846000510643E+01 a       463     0    16     1    13
  1.2532535823839988E+01 a       464     0    16     1    14
 -5.2329168284676282E+00 a       465     0    16     1    15
 -1.0693686770571416E+01 a       466     0    16     1    16
 -2.3941249325702952E+01 a       467     0    16     1    17
  2.1437709850657040E+01 a       468     0    16     1    18
 -1.9214602525205748E+01 a       469     0    16     1    19
  1.2303957600028392E+01 a       470     0    16     1    20
  8.0891603554512699E+00 a       471     0    16     1    21
 -2.3341494575827664E+00 a       472     0    16     1    22
 -2.5827069039953606E+01 a       473     0    16     1    23
  2.7333928743340490E+01 a       474     0    16     1    24
 -7.3591082186681351E+00 a       475     0    16     1    25
  9.9910981356752977E+00 a       476     0    16     1    26
 -1.6754732889411265E+01 a       477     0    16     1    27
 -4.5054389285112883E+01 a       478     0    16     1    28
 -8.5405172262535967E+00 a       479     0    16     1    29
  1.1523740912283332E+01 a       480     0    16     1    30
  1.1894868076468072E+01 a       481     0    17     1     1
 -3.6237549689378845E+01 a       482     0    17     1     2
 -5.1126634082704978E+00 a       483     0    17     1     3
  2.7936233536897632E+01 a       484     0    17     1     4
  2.5451961299717080E+01 a       485     0    17     1     5
 -1.8986142948113534E+00 a       486     0    17     1     6
 -2.0438303670388334E+00 a       487     0    17     1     7
  2.1854677306160937E+01 a       488     0    17     1     8
  6.4374746380679415E+00 a       489     0    17     1     9
 -5.1013773063420462E+00 a       490     0    17     1    10
  2.4720472272391323E+00 a       491     0    17     1    11
 -1.8077161480400481E+01 a       492     0    17     1    12
  2.8983170221086421E+00 a       493     0    17     1    13
  1.7730340079147158E+01 a       494     0    17     1    14
 -2.2544638468267845E+01 a       495     0    17     1    15
  8.8318691010082819E+00 a       496     0    17     1    16
  4.9570252457735791E+00 a       497     0    17     1    17
  9.0115797526224988E+00 a       498     0    17     1    18
  6.6103175082554344E+00 a       499     0    17     1    19
  3.3105179874657345E+01 a       500     0    17     1    20
 -9.0618133769168576E+00 a       501     0    17     1    21
  1.4518092484587442E+01 a       502     0    17     1    22
  5.5827892297715689E+00 a       503     0    17     1    23
  1.1805814959066563E+00 a       504     0    17     1    24
  9.5508288197539937E+00 a       505     0    17     1    25
  5.8487090122840444E+00 a       506     0    17     1    26
  1.9267132194618457E+00 a       507     0    17     1    27
 -2.8105774058197721E+01 a       508     0    17     1    28
 -3.7028108582630033E+00 a       509     0    17     1    29
  4.8500021472940915E+00 a       510     0    17     1    30
 -3.7563829842186685E+01 a       511     0    18     1     1
 -1.2210952907348194E+01 a       512     0    18     1     2
 -1.9763316285161654E+01 a       513     0    18     1     3
  1.7708471939493716E+01 a       514     0    18     1     4
  9.4358431903158451E+00 a       515     0    18     1     5
  2.4247455662397986E+01 a       516     0    18     1     6
  2.7742214682069988E+00 a       517     0    18     1     7
 -3.2861431508223816E+01 a       518     0    18     1     8
 -4.3725173653897073E+01 a       519     0    18     1     9
 -3.5663188876395902E+00 a       520     0    18     1    10
  9.2191343891023028E+00 a       521     0    18     1    11
  1.2852371393916386E+01 a       522     0    18     1    12
  2.4158949197530923E+01 a       523     0    18     1    13
  2.2400585562179447E+01 a       524     0    18     1    14
  5.6121303519729622E+01 a       525     0    18     1    15
 -9.3331828675165855E+00 a       526     0    18     1    16
  3.0010961686699495E+01 a       527     0    18     1    17
 -3.5716144643853326E+01 a       528     0    18     1    18
  2.0383008935382446E+01 a       529     0    18     1    19
 -3.8358890911662307E+01 a       530     0    18     1    20
  1.2915754359432199E+01 a       531     0    18     1    21
  2.5375089546454486E+01 a       532     0    18     1    22
  3.1901163425126665E+01 a       533     0    18     1    23
  2.6925472008332410E+01 a       534     0    18     1    24
  1.5088544621259452E+01 a       535     0    18     1    25
  3.0533205492347147E+01 a       536     0    18     1    26
  1.6452372707511049E+01 a       537     0    18     1    27
  1.0271729626801326E+01 a       538     0    18     1    28
 -9.6569052021303179E+00 a       539     0    18     1    29
  3.3929404471472004E+01 a       540     0    18     1    30
  3.3496498984780616E+00 a       541     0    19     1     1
  5.1357584819190354E+00 a       542     0    19     1     2
 -8.3199074994533433E+00 a       543     0    19     1     3
  2.4882135731628466E+01 a       544     0    19     1     4
 -1.9039693565112700E+01 a       545     0    19     1     5
  4.1672877662694825E+00 a       546     0    19     1     6
 -2.9330326785956608E+01 a       547     0    19     1     7
 -1.9078369663916224E+01 a       548     0    19     1     8
  1.2869431624743031E+00 a       549     0    19     1     9
 -9.0988248091624939E+00 a       550     0    19     1    10
  4.2329789903938817E+00 a       551     0    19     1    11
 -2.0729270056797979E+00 a       552     0    19     1    12
  1.2711652724308204E+01 a       553     0    19     1    13
  1.6970756893138869E+01 a       554     0    19     1    14
  1.6564932286574958E+01 a       555     0    19     1    15
  6.8392094657066957E+00 a       556     0    19     1    16
 -6.5239178557045134E+00 a       557     0    19     1    17
  9.7129431060641636E-01 a       558     0    19     1    18
 -9.7348220331075890E+00 a       559     0    19     1    19
 -1.2059444784552102E+01 a       560     0    19     1    20
  1.0178573220028051E+01 a       561     0    19     1    21
 -1.8103986430543482E+00 a       562     0    19     1    22
  8.4625236829127157E+00 a       563     0    19     1    23
  3.0075488882370458E+01 a       564     0    19     1    24
  1.1197212037510806E+01 a       565     0    19     1    25
 -8.6856101024511823E+00 a       566     0    19     1    26
  1.7575694689749368E+00 a       567     0    19     1    27
  4.5854016456251587E+00 a       568     0    19     1    28
 -3.8900725014326736E+00 a       569     0    19     1    29
  4.8055715690983334E+00 a       570     0    19     1    30
 -6.0688756352656377E+00 a       571     0    20     1     1
  3.4667914832992057E+00 a       572     0    20     1     2
  7.7794429136157159E+00 a       573     0    20     1     3
 -1.4585057432754155E+01 a       574     0    20     1     4
  2.5214170133043694E+01 a       575     0    20     1     5
 -1.0114712223684224E+01 a       576     0    20     1     6
 -2.0582171368421520E+01 a       577     0    20     1     7
  3.3710854853758391E+01 a       578     0    20     1     8
  2.6022707240755782E+01 a       579     0    20     1     9
 -5.6826822867196372E+00 a       580     0    20     1    10
 -1.1757312919076057E+01 a       581     0    20     1    11
  1.5314481354539385E+01 a       582     0    20     1    12
 -1.1800997887269112E+01 a       583     0    20     1    13
 -3.3898881559882450E+00 a       584     0    20     1    14
  4.0462953979289322E+00 a       585     0    20     1    15
 -2.2616882626528967E+00 a       586     0    20     1    16
 -3.1767649361964305E+00 a       587     0    20     1    17
  5.0778883935606327E+00 a       588     0    20     1    18
 -1.6305906840847584E+01 a       589     0    20     1    19
 -8.0406755716956297E+01 a       590     0    20     1    20
 -1.0763307364270597E+01 a       591     0    20     1    21
 -1.8713803968918047E+01 a       592     0    20     1    22
  1.0418081485572422E+01 a       593     0    20     1    23
 -2.6138806759642144E+01 a       594     0    20     1    24
 -4.0590935864914101E+01 a       595     0    20     1    25
 -1.0704301776380435E+01 a       596     0    20     1    26
  6.2134237106457189E+00 a       597     0    20     1    27
 -1.4690556497794091E+01 a       598     0    20     1    28
  1.2128160822741304E+01 a       599     0    20     1    29
 -2.6211703608127689E+01 a       600     0    20     1    30
 -1.4363956076957320E+01 a       601     0    21     1     1
  1.3645362153773929E+01 a       602     0    21     1     2
 -1.7098053799026243E+01 a       603     0    21     1     3
 -2.6062233575303690E+01 a       604     0    21     1     4
  1.5566627365485331E+01 a       605     0    21     1     5
 -1.0564486071797297E+01 a       606     0    21     1     6
  3.3262946341518514E+01 a       607     0    21     1     7
  1.3859720515773873E+01 a       608     0    21     1     8
 -4.0950889015124377E+00 a       609     0    21     1     9
  2.3100667585483034E+01 a       610     0    21     1    10
  1.1732606457476544E+01 a       611     0    21     1    11
  4.1869035438415146E+01 a       612     0    21     1    12
 -2.7913012941081115E+00 a       613     0    21     1    13
  4.3443881098488042E+00 a       614     0    21     1    14
 -2.2652061824837631E+01 a       615     0    21     1    15
  1.7576169818844608E+01 a       616     0    21     1    16
  9.8463839992555091E-01 a       617     0    21     1    17
  7.7576443333667280E+00 a       618     0    21     1    18
  4.9498879253524208E+00 a       619     0    21     1    19
  4.5342538014803520E+00 a       620     0    21     1    20
 -6.5044896382088799E+00 a       621     0    21     1    21
 -4.9284687445919131E+00 a       622     0    21     1    22
  1.6143699553615420E+01 a       623     0    21     1    23
 -2.9058758398358346E+01 a       624     0    21     1    24
 -8.1517167058962325E+00 a       625     0    21     1    25
 -3.9983663342158195E+01 a       626     0    21     1    26
 -2.2686420211681586E+00 a       627     0    21     1    27
  2.5095331430365452E+01 a       628     0    21     1    28
 -2.6738534996004844E+00 a       629     0    21     1    29
 -1.1250982425127894E+01 a       630     0    21     1    30
  4.8850143250838984E+00 a       631     0    22     1     1
 -1.0445475249921316E+01 a       632     0    22     1     2
 -8.0345511909957634E-01 a       633     0    22     1     3
 -7.4255814906366711E+00 a       634     0    22     1     4
  1.7720620409825045E+01 a       635     0    22     1     5
 -2.4659999945807517E+01 a       636     0    22     1     6
  2.4735990506608662E+01 a       637     0    22     1     7
  2.3003269313538105E+01 a       638     0    22     1     8
 -8.2404802672287367E+00 a       639     0    22     1     9
  8.0278713650821256E+00 a       640     0    22     1    10
  2.4334882066695780E+00 a       641     0    22     1    11
  1.2967237708496903E+01 a       642     0    22     1    12
  4.5423054828259577E+00 a       643     0    22     1    13
 -5.7878822902104750E+00 a       644     0    22     1    14
 -3.3802087688664137E+01 a       645     0    22     1    15
  1.1008773922487528E+01 a       646     0    22     1    16
 -3.2361189709448460E+01 a       647     0    22     1    17
  1.9663320239237642E+01 a       648     0    22     1    18
 -3.6047740945402280E+00 a       649     0    22     1    19
  1.7940619469664004E+01 a       650     0    22     1    20
 -1.8323285501965795E+01 a       651     0    22     1    21
  1.1451994122883415E+01 a       652     0    22     1    22
 -1.8398953874590696E+01 a       653     0    22     1    23
 -1.2523727178596252E+01 a       654     0    22     1    24
 -9.6819722560638155E+00 a       655     0    22     1    25
 -3.3704142175201753E+01 a       656     0    22     1    26
  1.1675026189337990E+01 a       657     0    22     1    27
  1.4175353362510243E+00 a       658     0    22     1    28
  6.5444642303062226E+00 a       659     0    22     1    29
 -2.9251399364878775E+01 a       660     0    22     1    30
 -2.6632799699786624E+01 a       661     0    23     1     1
  3.2119371342395283E+01 a       662     0    23     1     2
  4.5431221322396160E+00 a       663     0    23     1     3
 -5.0759293665800271E+01 a       664     0    23     1     4
 -1.7772441771104177E+01 a       665     0    23     1     5
  2.1337368007802540E+00 a       666     0    23     1     6
  3.0811622717912975E+01 a       667     0    23     1     7
 -1.1916275597819427E+01 a       668     0    23     1     8
 -1.3134315553775259E+01 a       669     0    23     1     9
  1.0699400575056348E+01 a       670     0    23     1    10
  3.0525095005873730E+00 a       671     0    23     1    11
  3.3800833771852105E+01 a       672     0    23     1    12
  4.6426375379721341E+00 a       673     0    23     1    13
 -8.1494894059965279E+00 a       674     0    23     1    14
  2.0119202920654736E+01 a       675     0    23     1    15
 -9.2153740667944959E+00 a       676     0    23     1    16
 -1.9616465137187713E+01 a       677     0    23     1    17
 -3.2485317413368970E+00 a       678     0    23     1    18
 -2.5788979189541337E+00 a       679     0    23     1    19
 -3.5642420595468202E+01 a       680     0    23     1    20
  3.1014688626141176E+00 a       681     0    23     1    21
 -3.3742472839358989E+01 a       682     0    23     1    22
 -2.0827104274984469E+00 a       683     0    23     1    23
 -1.7238557713056306E+01 a       684     0    23     1    24
 -1.3254667839348826E+01 a       685     0    23     1    25
 -8.0012742717687022E+00 a       686     0    23     1    26
 -1.4842754502930255E+01 a       687     0    23     1    27
  1.6449767982999138E+01 a       688     0    23     1    28
 -8.7927971601359323E-01 a       689     0    23     1    29
 -1.1569639990121908E+01 a       690     0    23     1    30
  3.2392895843361551E+01 a       691     0    24     1     1
 -1.9362875973191311E+01 a       692     0    24     1     2
  2.8747507247194555E+01 a       693     0    24     1     3
  3.4825132645880091E-01 a       694     0    24     1     4
  5.9732766981984460E+00 a       695     0    24     1     5
 -2.1985647115935965E+01 a       696     0    24     1     6
 -4.7144540182934591E+00 a       697     0    24     1     7
  2.8868973777982728E+01 a       698     0    24     1     8
  6.5854583697015585E+01 a       699     0    24     1     9
  1.1486259530812402E+01 a       700     0    24     1    10
  4.5628167211781312E+00 a       701     0    24     1    11
 -4.9403710774855005E+00 a       702     0    24     1    12
 -1.6390118007800528E+01 a       703     0    24     1    13
 -3.0027965870817177E+01 a       704     0    24     1    14
 -3.0759825885700725E+01 a       705     0    24     1    15
  4.4626146911450251E+00 a       706     0    24     1    16
 -2.4242806706155777E+00 a       707     0    24     1    17
  1.9203209763827276E+00 a       708     0    24     1    18
  6.2498562325444205E+00 a       709     0    24     1    19
  2.8361092665187201E+01 a       710     0    24     1    20
 -2.3623895599695732E+00 a       711     0    24     1    21
 -5.9547963623144419E+01 a       712     0    24     1    22
  2.2720481052870385E+00 a       713     0    24     1    23
 -4.0676476875308936E+00 a       714     0    24     1    24
  1.1046735831342177E+01 a       715     0    24     1    25
 -1.8529954317806286E+01 a       716     0    24     1    26
 -2.3695546361099503E+01 a       717     0    24     1    27
  2.8468090349542170E+01 a       718     0    24     1    28
  1.3397529378214172E+00 a       719     0    24     1    29
 -6.7737058577026872E+01 a       720     0    24     1    30
 -1.1184920247221694E+01 a       721     0    25     1     1
  3.1875116606128961E-01 a       722     0    25     1     2
  1.3512750359874875E+01 a       723     0    25     1     3
 -3.2006278327044676E+01 a       724     0    25     1     4
  3.6732192968501977E+01 a       725     0    25     1     5
 -3.5981290389225933E+00 a       726     0    25     1     6
  5.8115212631742217E+01 a       727     0    25     1     7
  9.6780761795908994E+00 a       728     0    25     1     8
 -5.9456262429835594E-01 a       729     0    25     1     9
  1.0100171944498486E+01 a       730     0    25     1    10
 -5.3706441635815381E+00 a       731     0    25     1    11
  1.0818839672980083E+01 a       732     0    25     1    12
 -2.2138519614599890E+01 a       733     0    25     1    13
 -2.1097292933966642E+01 a       734     0    25     1    14
 -4.2369122756007044E+01 a       735     0    25     1    15
 -7.6594124980380540E+00 a       736     0    25     1    16
  1.8329223113822231E+01 a       737     0    25     1    17
 -1.1287666705404520E+01 a       738     0    25     1    18
  2.0249954464826153E+01 a       739     0    25     1    19
  2.3950372743261418E+01 a       740     0    25     1    20
 -1.6227479966722449E+01 a       741     0    25     1    21
  5.5068755718060718E+00 a       742     0    25     1    22
 -1.8938086534564743E+01 a       743     0    25     1    23
 -4.8149793568817586E+01 a       744     0    25     1    24
 -1.3331751844744030E+01 a       745     0    25     1    25
  2.1201497858045464E+01 a       746     0    25     1    26
 -6.0560585634318818E+00 a       747     0    25     1    27
 -1.3107657333458553E+00 a       748     0    25     1    28
  4.5198765236287093E+00 a       749     0    25     1    29
 -9.9920733857342210E+00 a       750     0    25     1    30
  2.4196867483048397E+01 a       751     0    26     1     1
 -6.4220020756513927E+00 a       752     0    26     1     2
  8.3446039581927423E+00 a       753     0    26     1     3
  1.5005192661262329E+01 a       754     0    26     1     4
 -1.3587200096207365E+01 a       755     0    26     1     5
  2.6585637957261055E+00 a       756     0    26     1     6
  4.6749256969175804E+01 a       757     0    26     1     7
 -2.9488897656122969E+01 a       758     0    26     1     8
 -5.4500878834354772E+01 a       759     0    26     1     9
 -2.1694457473184281E+00 a       760     0    26     1    10
  9.1247380827527600E+00 a       761     0    26     1    11
 -1.7666330864081278E+01 a       762     0    26     1    12
 -9.5348616149040333E-01 a       763     0    26     1    13
 -8.9566719424645473E+00 a       764     0    26     1    14
 -3.0784938911649697E+01 a       765     0    26     1    15
  9.2241669563412232E-01 a       766     0    26     1    16
 -7.3339675610714261E+00 a       767     0    26     1    17
  1.1266516304260591E+01 a       768     0    26     1    18
  1.5761370044388237E+01 a       769     0    26     1    19
  8.5577660289394714E+01 a       770     0    26     1    20
  4.1605026017519418E+00 a       771     0    26     1    21
  3.8252394266998891E+01 a       772     0    26     1    22
 -1.5856111248213724E+01 a       773     0    26     1    23
  5.2646362008341384E+01 a       774     0    26     1    24
  6.7876607602010779E+01 a       775     0    26     1    25
 -4.9626999394432163E+00 a       776     0    26     1    26
 -1.6277913036431581E+01 a       777     0    26     1    27
  2.9858276589484877E+01 a       778     0    26     1    28
 -2.6853711426163036E+00 a       779     0    26     1    29
  5.1292401859746832E+01 a       780     0    26     1    30
 -7.0879852374936494E+00 a       781     0    27     1     1
  6.1711273558274193E+00 a       782     0    27     1     2
 -1.3373842399129440E+01 a       783     0    27     1     3
  7.7199938737522595E+00 a       784     0    27     1     4
 -8.2118489221837692E+00 a       785     0    27     1     5
 -1.2152306878047051E+01 a       786     0    27     1     6
 -3.1949542162788185E+00 a       787     0    27     1     7
  3.1826939034456739E+01 a       788     0    27     1     8
  2.8927508825293504E+01 a       789     0    27     1     9
  1.0859432098673750E+01 a       790     0    27     1    10
 -1.7314409770449148E+00 a       791     0    27     1    11
  1.4539337427019735E+01 a       792     0    27     1    12
  2.7455847218691854E+01 a       793     0    27     1    13
  2.6031051111586041E+01 a       794     0    27     1    14
  9.6176910558044710E+00 a       795     0    27     1    15
  2.1140458603287357E+01 a       796     0    27     1    16
 -1.7845363360952103E+01 a       797     0    27     1    17
  1.4573227020359203E+01 a       798     0    27     1    18
  4.7302584137485129E+00 a       799     0    27     1    19
 -3.3415758881272373E+00 a       800     0    27     1    20
 -1.5619664827193477E+01 a       801     0    27     1    21
 -1.9405745641780307E+01 a       802     0    27     1    22
  1.4162699552709752E+01 a       803     0    27     1    23
 -2.3126853166199783E+00 a       804     0    27     1    24
  7.9959938463737190E-01 a       805     0    27     1    25
 -6.8129502976696044E+00 a       806     0    27     1    26
 -5.8387952832843375E+00 a       807     0    27     1    27
  1.1199175504129913E+01 a       808     0    27     1    28
 -1.8520277141348216E+00 a       809     0    27     1    29
  3.7844175098149497E+00 a       810     0    27     1    30
 -2.3488560702776581E+01 a       811     0    28     1     1
  2.2674460845315060E+01 a       812     0    28     1     2
  2.3407117552572217E+01 a       813     0    28     1     3
  2.8344507086040299E+01 a       814     0    28     1     4
  1.0508765727194918E+01 a       815     0    28     1     5
 -4.3820268642277405E+01 a       816     0    28     1     6
 -7.3912145765157318E+00 a       817     0    28     1     7
  3.9299090693235904E+01 a       818     0    28     1     8
 -5.5978272839049119E+01 a       819     0    28     1     9
 -3.2300462545555433E+01 a       820     0    28     1    10
 -1.3353366929794287E+01 a       821     0    28     1    11
 -1.4007811683445640E+01 a       822     0    28     1    12
 -1.5385759317009757E+01 a       823     0    28     1    13
  9.2932545446501464E+00 a       824     0    28     1    14
  3.1264210334694088E+01 a       825     0    28     1    15
  1.7783430031420114E+01 a       826     0    28     1    16
 -1.6333422192928310E+01 a       827     0    28     1    17
 -7.3407457336616950E+00 a       828     0    28     1    18
  7.9819772442274797E+00 a       829     0    28     1    19
 -3.1923755792170297E+01 a       830     0    28     1    20
 -1.3312372734450538E+01 a       831     0    28     1    21
  1.4655179392154771E+01 a       832     0    28     1    22
 -4.3486508598277263E-01 a       833     0    28     1    23
 -4.1604709346878302E+01 a       834     0    28     1    24
 -2.0795753141521907E+01 a       835     0    28     1    25
 -7.4199996824304773E+00 a       836     0    28     1    26
  2.1971988813417060E+01 a       837     0    28     1    27
 -4.3094582117923768E+00 a       838     0    28     1    28
  1.7422760453249186E+01 a       839     0    28     1    29
  3.3758924433607298E+01 a       840     0    28     1    30
  2.3406795694300900E+01 a       841     0    29     1     1
  1.6325297613694548E+01 a       842     0    29     1     2
  2.6746812710376111E+00 a       843     0    29     1     3
  1.6931505597157599E+01 a       844     0    29     1     4
 -4.2426994483037753E+01 a       845     0    29     1     5
  3.1659479532895261E+00 a       846     0    29     1     6
 -5.3048192628949600E+01 a       847     0    29     1     7
 -2.2807795916691653E+01 a       848     0    29     1     8
  7.8868631677252887E+00 a       849     0    29     1     9
 -1.9189324218802482E+00 a       850     0    29     1    10
 -1.2345936177682862E+01 a       851     0    29     1    11
 -1.2954427872120940E+01 a       852     0    29     1    12
 -6.8564265350753866E+00 a       853     0    29     1    13
 -1.7366736047009937E+01 a       854     0    29     1    14
  3.3128834168495807E+01 a       855     0    29     1    15
 -1.1445278965053332E+00 a       856     0    29     1    16
 -9.7096383994069946E+00 a       857     0    29     1    17
 -8.4780049229594603E+00 a       858     0    29     1    18
 -9.9572249368568926E+00 a       859     0    29     1    19
 -1.8082681408063731E+01 a       860     0    29     1    20
  8.5641012093117759E+00 a       861     0    29     1    21
  3.3104818666373205E+01 a       862     0    29     1    22
 -5.8878197508838097E+00 a       863     0    29     1    23
  3.4091729834699073E+01 a       864     0    29     1    24
 -3.2800764613529615E-01 a       865     0    29     1    25
 -1.0437969799882236E+01 a       866     0    29     1    26
  3.2400147268122446E+01 a       867     0    29     1    27
  2.6616448228646398E+01 a       868     0    29     1    28
 -1.7786459123788083E+00 a       869     0    29     1    29
  9.3319012933287393E+00 a       870     0    29     1    30
  7.8935449792729422E+00 a       871     0    30     1     1
  1.9058902175351360E+01 a       872     0    30     1     2
  2.7997015298284797E+01 a       873     0    30     1     3
 -2.4012392112405546E+01 a       874     0    30     1     4
 -1.9139679611496568E+01 a       875     0    30     1     5
 -2.5735943405133423E+01 a       876     0    30     1     6
 -1.6548462738563657E+01 a       877     0    30     1     7
  3.9222682701287447E+01 a       878     0    30     1     8
 -1.8881597256459376E+01 a       879     0    30     1     9
 -1.7357313455592283E+00 a       880     0    30     1    10
 -1.7987208039181390E+01 a       881     0    30     1    11
 -1.5515148350710326E+01 a       882     0    30     1    12
 -3.9853235150154781E+01 a       883     0    30     1    13
 -1.6695425049049689E+01 a       884     0    30     1    14
 -2.4619526751452440E+01 a       885     0    30     1    15
  2.0435098786850030E+01 a       886     0    30     1    16
 -6.9288725947775474E+00 a       887     0    30     1    17
  2.1940783315160672E+01 a       888     0    30     1    18
 -9.4953523196301504E+00 a       889     0    30     1    19
  1.6112645422151743E+01 a       890     0    30     1    20
 -6.5571297028719968E+00 a       891     0    30     1    21
  3.1154062958126865E+01 a       892     0    30     1    22
 -1.3793621156676915E+01 a       893     0    30     1    23
 -6.7208744289122748E+01 a       894     0    30     1    24
 -3.7356702083630395E+01 a       895     0    30     1    25
 -9.0371465216863882E+00 a       896     0    30     1    26
 -9.4156001083748803E-02 a       897     0    30     1    27
 -8.2069448328097767E+00 a       898     0    30     1    28
  4.2119375694943839E+00 a       899     0    30     1    29
  3.9699715568165544E+01 a       900     0    30     1    30
  1.5450284099415038E+01 a       901     0    31     1     1
 -8.3036909123375402E+00 a       902     0    31     1     2
  5.3496265459214483E+00 a       903     0    31     1     3
 -6.0089496171038119E+00 a       904     0    31     1     4
 -9.0532916135444985E+00 a       905     0    31     1     5
 -5.1670535685001546E+00 a       906     0    31     1     6
 -2.1760260462373111E+01 a       907     0    31     1     7
  2.9893696952158368E+01 a       908     0    31     1     8
 -5.2813042938849497E+00 a       909     0    31     1     9
  6.4572465200728191E+00 a       910     0    31     1    10
 -6.9774950960943283E+00 a       911     0    31     1    11
 -1.9122066384068550E+01 a       912     0    31     1    12
 -2.7873703846383231E+00 a       913     0    31     1    13
 -1.5513752309183687E+01 a       914     0    31     1    14
  2.3167110586211496E+01 a       915     0    31     1    15
 -2.0085981763849411E+01 a       916     0    31     1    16
 -2.6192124505938068E+00 a       917     0    31     1    17
  2.0161525699508871E+01 a       918     0    31     1    18
 -8.4848908982971274E+00 a       919     0    31     1    19
 -1.4735748813313727E+00 a       920     0    31     1    20
  3.1159928195157067E+00 a       921     0    31     1    21
 -8.2754694834819986E+00 a       922     0    31     1    22
  1.3041811618413877E+01 a       923     0    31     1    23
 -7.0354603374686988E+00 a       924     0    31     1    24
 -1.7507133081473459E+01 a       925     0    31     1    25
 -2.0321608693028971E+01 a       926     0    31     1    26
  8.3422001490827000E+00 a       927     0    31     1    27
 -8.1836096922760184E+00 a       928     0    31     1    28
  6.8527955057251344E-01 a       929     0    31     1    29
  4.5145025581863427E+00 a       930     0    31     1    30
 -2.8880969005090570E+01 a       931     0    32     1     1
  1.7188112031664406E+01 a       932     0    32     1     2
 -3.5036128241625377E+01 a       933     0    32     1     3
  3.2012803136090726E+00 a       934     0    32     1     4
 -4.9806281318646484E+01 a       935     0    32     1     5
  4.9835493953185317E+00 a       936     0    32     1     6
 -3.4383273265869619E+01 a       937     0    32     1     7
 -1.9603004617774371E+01 a       938     0    32     1     8
  3.9462202625867540E+01 a       939     0    32     1     9
  1.9268742687191221E+01 a       940     0    32     1    10
  3.6462521703455910E+00 a       941     0    32     1    11
 -6.5885810470505328E+00 a       942     0    32     1    12
  1.4564000165574425E+01 a       943     0    32     1    13
  2.0789455643388919E+01 a       944     0    32     1    14
  2.4848679298388685E+01 a       945     0    32     1    15
  7.2698463592658928E+00 a       946     0    32     1    16
  1.6688797511094958E+01 a       947     0    32     1    17
 -1.9851521637799308E+01 a       948     0    32     1    18
  2.7469173273792107E+00 a       949     0    32     1    19
  2.6848157375953505E+01 a       950     0    32     1    20
  1.4592257428449049E+01 a       951     0    32     1    21
 -2.4291307361895740E+01 a       952     0    32     1    22
  2.5739206310241558E+00 a       953     0    32     1    23
 -3.6065390888352482E+01 a       954     0    32     1    24
 -1.9029419039038704E+01 a       955     0    32     1    25
  2.9118221226061252E+01 a       956     0    32     1    26
  1.7794020250498274E+01 a       957     0    32     1    27
 -2.3193056155376244E+01 a       958     0    32     1    28
 -1.6102735649975749E+01 a       959     0    32     1    29
 -3.2512909173237375E+01 a       960     0    32     1    30
  1.7122296036406681E+01 a       961     0    33     1     1
 -3.3536804855163133E+01 a       962     0    33     1     2
  1.2439484273149061E+01 a       963     0    33     1     3
 -7.1344685473585185E+00 a       964     0    33     1     4
 -6.3360334965065519E+00 a       965     0    33     1     5
  1.2389871935942598E+01 a       966     0    33     1     6
  1.5332830920570094E+01 a       967     0    33     1     7
 -2.0751089128651184E+01 a       968     0    33     1     8
 -2.9428747720781733E+01 a       969     0    33     1     9
  8.0440588763554874E+00 a       970     0    33     1    10
 -2.2670590524197971E+00 a       971     0    33     1    11
 -2.9242338826634683E+01 a       972     0    33     1    12
  2.2354201338456402E+01 a       973     0    33     1    13
 -3.1817933019054383E+01 a       974     0    33     1    14
  5.9589660150534629E-01 a       975     0    33     1    15
 -2.9186096876028952E+01 a       976     0    33     1    16
  8.9975521468557549E+00 a       977     0    33     1    17
 -2.1591278554767759E+00 a       978     0    33     1    18
 -9.4306454525761882E+00 a       979     0    33     1    19
  2.5088307285326266E+01 a       980     0    33     1    20
 -6.1291661964578719E+00 a       981     0    33     1    21
  5.0996602815590933E+01 a       982     0    33     1    22
 -9.4245779706754398E+00 a       983     0    33     1    23
  4.1412968803676819E+01 a       984     0    33     1    24
  2.1445468078190839E+01 a       985     0    33     1    25
  4.3977205826371737E+01 a       986     0    33     1    26
  1.0948536964035842E+01 a       987     0    33     1    27
 -1.3279472949674114E+01 a       988     0    33     1    28
 -1.3629570792282273E+00 a       989     0    33     1    29
  8.1752942955343464E+00 a       990     0    33     1    30
  1.4174210106000164E+01 a       991     0    34     1     1
 -5.1590665623041367E+00 a       992     0    34     1     2
  4.1944262964433809E+00 a       993     0    34     1     3
  2.6724982634618041E+01 a       994     0    34     1     4
  8.3797251409556370E+00 a       995     0    34     1     5
  2.4280219776565971E+01 a       996     0    34     1     6
 -1.7985331134084518E+01 a       997     0    34     1     7
 -4.6281382644647898E+01 a       998     0    34     1     8
  4.5645218210183529E+01 a       999     0    34     1     9
 -5.3391735462745862E+00 a      1000     0    34     1    10
  1.1628618221207609E+00 a      1001     0    34     1    11
 -3.2692656371587297E+01 a      1002     0    34     1    12
 -1.7005532415439834E+01 a      1003     0    34     1    13
 -2.0368933985855691E+01 a      1004     0    34     1    14
  2.7979457139529604E+01 a      1005     0    34     1    15
 -2.8008843387416142E+01 a      1006     0    34     1    16
  3.1514825130340039E+01 a      1007     0    34     1    17
 -3.4514672531225067E+01 a      1008     0    34     1    18
  3.1983507649046992E+00 a      1009     0    34     1    19
 -2.3030173205427140E+01 a      1010     0    34     1    20
  1.3592072251211114E+01 a      1011     0    34     1    21
 -5.7612136566861409E+01 a      1012     0    34     1    22
  2.8170225137173890E+01 a      1013     0    34     1    23
  4.3666449523638889E+01 a      1014     0    34     1    24
  2.9391672652933117E+01 a      1015     0    34     1    25
  1.6977872168502916E+01 a      1016     0    34     1    26
 -2.6583820757322975E+01 a      1017     0    34     1    27
  1.3148016420509379E+00 a      1018     0    34     1    28
 -2.9854410568221224E+00 a      1019     0    34     1    29
 -3.9151804699239037E+01 a      1020     0    34     1    30
 -1.1815816898475434E+01 a      1021     0    35     1     1
 -2.8454908726261319E+01 a      1022     0    35     1     2
 -1.2671092871449314E+01 a      1023     0    35     1     3
  2.3157786245388973E+01 a      1024     0    35     1     4
  6.6971058154255019E+01 a      1025     0    35     1     5
 -3.2315211412934097E+00 a      1026     0    35     1     6
  3.6490316117997146E+01 a      1027     0    35     1     7
  1.9328895951114596E+01 a      1028     0    35     1     8
 -8.5211525760667184E-01 a      1029     0    35     1     9
 -8.2610377942714996E-01 a      1030     0    35     1    10
  7.8125907029268680E+00 a      1031     0    35     1    11
 -1.7770478180546462E+01 a      1032     0    35     1    12
 -2.5847761033405670E+00 a      1033     0    35     1    13
  1.4169431015182921E+01 a      1034     0    35     1    14
 -5.3480460434748217E+01 a      1035     0    35     1    15
  5.5658326035299490E+00 a      1036     0    35     1    16
  3.8687198480342943E+01 a      1037     0    35     1    17
 -1.6036238944752248E+00 a      1038     0    35     1    18
  5.9758751090412146E+00 a      1039     0    35     1    19
  3.4819373629894720E+01 a      1040     0    35     1    20
 -1.1238359607818570E+01 a      1041     0    35     1    21
 -2.2161194755750795E+01 a      1042     0    35     1    22
 -1.8811871848089392E+00 a      1043     0    35     1    23
 -2.6464914240238997E+01 a      1044     0    35     1    24
  7.5830359914604459E+00 a      1045     0    35     1    25
  2.4978830159324357E+01 a      1046     0    35     1    26
 -3.1732729638998649E+01 a      1047     0    35     1    27
 -3.6646680733450069E+01 a      1048     0    35     1    28
  1.5855970444337320E+01 a      1049     0    35     1    29
 -3.4665891462577516E+00 a      1050     0    35     1    30
 -1.9725403317400065E+01 a      1051     0    36     1     1
  2.0259024825200253E+01 a      1052     0    36     1     2
 -3.6674567414178668E+01 a      1053     0    36     1     3
 -9.3323291176553731E+00 a      1054     0    36     1     4
 -1.8546215823290588E+01 a      1055     0    36     1     5
  4.2159788394568487E+01 a      1056     0    36     1     6
  1.5547233721644483E+01 a      1057     0    36     1     7
 -4.0140762033941620E+01 a      1058     0    36     1     8
  2.7778975392032113E+00 a      1059     0    36     1     9
  9.1846165659182333E+00 a      1060     0    36     1    10
  4.9840702852591239E+00 a      1061     0    36     1    11
  2.1877733616182876E+01 a      1062     0    36     1    12
  2.4080678209684987E+01 a      1063     0    36     1    13
  2.9012273982468926E+01 a      1064     0    36     1    14
 -1.3964974085683236E+01 a      1065     0    36     1    15
 -2.6052712345343476E+01 a      1066     0    36     1    16
  2.1257881718649106E+01 a      1067     0    36     1    17
  2.3215126117152067E+00 a      1068     0    36     1    18
 -8.4080323201185063E+00 a      1069     0    36     1    19
 -8.9901268481704513E+00 a      1070     0    36     1    20
  6.2717683143438521E+00 a      1071     0    36     1    21
  1.4782776612212826E+01 a      1072     0    36     1    22
 -8.1113374896452211E+00 a      1073     0    36     1    23
  4.5503281560976511E+01 a      1074     0    36     1    24
  3.4350410442838786E+01 a      1075     0    36     1    25
  2.1876988448512634E+01 a      1076     0    36     1    26
  1.2077326880847298E+01 a      1077     0    36     1    27
 -2.5397257853989350E+00 a      1078     0    36     1    28
 -1.6755916219617610E+01 a      1079     0    36     1    29
  2.0159456669388001E+00 a      1080     0    36     1    30
 -1.2916310663557326E+01 a      1081     0    37     1     1
  1.1644755287441315E+01 a      1082     0    37     1     2
 -2.0927662760049628E+01 a      1083     0    37     1     3
  3.5400194376387333E+00 a      1084     0    37     1     4
 -2.1969748751755002E+01 a      1085     0    37     1     5
  6.9271110491188246E+00 a      1086     0    37     1     6
 -2.5591089664114698E+01 a      1087     0    37     1     7
 -6.6317329592391125E+00 a      1088     0    37     1     8
  1.0262253625131086E+01 a      1089     0    37     1     9
 -6.7160674348659706E+00 a      1090     0    37     1    10
  1.6613555747113409E+01 a      1091     0    37     1    11
  4.6638368310917020E+00 a      1092     0    37     1    12
  2.2709895165777382E+01 a      1093     0    37     1    13
  2.9699586249800152E+01 a      1094     0    37     1    14
  3.2597769413739705E+01 a      1095     0    37     1    15
  1.4147824652289339E+01 a      1096     0    37     1    16
 -2.6276647817164836E+01 a      1097     0    37     1    17
  1.7638137532600262E+00 a      1098     0    37     1    18
 -1.0648425049542873E+01 a      1099     0    37     1    19
 -2.3765645163935542E+01 a      1100     0    37     1    20
  1.4633595014466032E+01 a      1101     0    37     1    21
  1.0757447237744437E+01 a      1102     0    37     1    22
  3.6101656171317575E+00 a      1103     0    37     1    23
  3.7168987341051050E+01 a      1104     0    37     1    24
  1.8858402947325125E+01 a      1105     0    37     1    25
  1.9920207614499317E+00 a      1106     0    37     1    26
 -5.9748752840422537E+00 a      1107     0    37     1    27
 -1.5525136502383858E+00 a      1108     0    37     1    28
 -2.3816245495137243E+00 a      1109     0    37     1    29
  3.0135575745393099E+00 a      1110     0    37     1    30
  1.4268936182401848E+01 a      1111     0    38     1     1
 -6.3195215352971541E+00 a      1112     0    38     1     2
  2.2871654213494942E+01 a      1113     0    38     1     3
 -3.6436606890036289E+00 a      1114     0    38     1     4
  5.3584127657077453E+01 a      1115     0    38     1     5
  3.9767417939849019E+00 a      1116     0    38     1     6
  8.4248684888021028E+00 a      1117     0    38     1     7
  2.0946719017182613E+01 a      1118     0    38     1     8
 -1.2899816426948616E+01 a      1119     0    38     1     9
 -1.7284102566961860E+01 a      1120     0    38     1    10
  2.5005038226571613E-01 a      1121     0    38     1    11
  1.5408275315213039E+01 a      1122     0    38     1    12
 -2.6387632861387673E+00 a      1123     0    38     1    13
 -8.0430646492957205E+00 a      1124     0    38     1    14
  9.8769595684505056E+00 a      1125     0    38     1    15
 -7.1921056471165548E+00 a      1126     0    38     1    16
 -8.6486067561029341E+00 a      1127     0    38     1    17
  5.8931893823340671E+00 a      1128     0    38     1    18
 -1.2994225400222264E+01 a      1129     0    38     1    19
 -4.2946515950232303E+01 a      1130     0    38     1    20
 -1.3657555150871190E+01 a      1131     0    38     1    21
  5.3774808714736624E+00 a      1132     0    38     1    22
  7.7059858160065771E+00 a      1133     0    38     1    23
  1.4504346608603084E+01 a      1134     0    38     1    24
 -1.1648099330230096E+01 a      1135     0    38     1    25
 -2.0441765690534297E+01 a      1136     0    38     1    26
 -7.2626473018162034E+00 a      1137     0    38     1    27
  6.6952919089765661E+00 a      1138     0    38     1    28
  1.7863345038956574E+01 a      1139     0    38     1    29
  8.7652966512225667E+00 a      1140     0    38     1    30
 -1.4580707906520132E+00 a      1141     0    39     1     1
  2.6380439644377258E+01 a      1142     0    39     1     2
 -8.1132038868465113E+00 a      1143     0    39     1     3
 -1.0365218821604703E+01 a      1144     0    39     1     4
 -1.7341135312835704E+01 a      1145     0    39     1     5
 -3.5276207250690623E+00 a      1146     0    39     1     6
 -3.4973395109860572E+00 a      1147     0    39     1     7
  3.4655394709729785E+00 a      1148     0    39     1     8
  7.4715951788578829E+00 a      1149     0    39     1     9
 -1.9809973977946175E+01 a      1150     0    39     1    10
 -2.4444915758397179E+00 a      1151     0    39     1    11
  7.1412475496318777E+00 a      1152     0    39     1    12
 -6.1178674580571335E-01 a      1153     0    39     1    13
  1.4415206306711882E+01 a      1154     0    39     1    14
 -8.0927863350370917E+00 a      1155     0    39     1    15
  2.1859555393527255E+00 a      1156     0    39     1    16
 -1.8203897009965200E+01 a      1157     0    39     1    17
  5.9995638951348456E+00 a      1158     0    39     1    18
  4.2059652843263684E-02 a      1159     0    39     1    19
 -1.3671791157478660E+01 a      1160     0    39     1    20
  1.7849299678556402E+01 a      1161     0    39     1    21
 -4.6404466877833904E+01 a      1162     0    39     1    22
 -2.7571513848979610E+01 a      1163     0    39     1    23
 -4.3708133323234968E+01 a      1164     0    39     1    24
 -1.7524195387504683E+01 a      1165     0    39     1    25
 -1.8323504138748394E+01 a      1166     0    39     1    26
  1.1091626007099595E+01 a      1167     0    39     1    27
  9.9135692878118427E+00 a      1168     0    39     1    28
 -5.1941106436730085E+00 a      1169     0    39     1    29
 -8.2552294853583952E+00 a      1170     0    39     1    30
 -2.2846231085251684E+01 a      1171     0    40     1     1
 -1.8997682038794139E+01 a      1172     0    40     1     2
 -1.2121560807817673E+00 a      1173     0    40     1     3
 -9.4342361750095289E+00 a      1174     0    40     1     4
  1.1077343836033227E+01 a      1175     0    40     1     5
  1.2223153877577386E+00 a      1176     0    40     1     6
 -2.6713190184324311E+01 a      1177     0    40     1     7
  2.0373017285291493E+00 a      1178     0    40     1     8
 -1.2974941896372965E+00 a      1179     0    40     1     9
  2.3682961368022138E+01 a      1180     0    40     1    10
 -4.6416066211099452E+00 a      1181     0    40     1    11
  2.5395748851854151E+01 a      1182     0    40     1    12
 -3.2683070978394390E+01 a      1183     0    40     1    13
  1.0172431248357112E+01 a      1184     0    40     1    14
 -3.0314093696783303E+01 a      1185     0    40     1    15
  1.7498557474928518E+01 a      1186     0    40     1    16
  1.5372790659023378E+01 a      1187     0    40     1    17
  1.3257316214732700E+01 a      1188     0    40     1    18
 -1.7552793422353286E+00 a      1189     0    40     1    19
  9.2733045760078063E+00 a      1190     0    40     1    20
 -1.3591003010005693E+00 a      1191     0    40     1    21
  4.7514114498144856E+01 a      1192     0    40     1    22
  1.2586652441684661E+01 a      1193     0    40     1    23
 -2.3008740756149308E+01 a      1194     0    40     1    24
 -2.5223147465368406E+01 a      1195     0    40     1    25
 -2.1537206636911666E+01 a      1196     0    40     1    26
 -4.6859114970939091E+00 a      1197     0    40     1    27
  1.4532609034147045E+01 a      1198     0    40     1    28
 -1.7379204208592249E+01 a      1199     0    40     1    29
  2.3334813985382421E+01 a      1200     0    40     1    30
  3.9874197099922148E+00 a      1201     0    41     1     1
  2.0307702341935968E+01 a      1202     0    41     1     2
  1.3923783046537688E+01 a      1203     0    41     1     3
 -2.0644864091489257E+01 a      1204     0    41     1     4
 -3.4685904089448059E+01 a      1205     0    41     1     5
  3.0274888219253597E+00 a      1206     0    41     1     6
 -1.5878440039375665E+01 a      1207     0    41     1     7
 -6.0167687924978406E+00 a      1208     0    41     1     8
 -1.0455676111052516E+00 a      1209     0    41     1     9
 -1.8314756671877668E+00 a      1210     0    41     1    10
 -1.2833910038752459E+00 a      1211     0    41     1    11
  2.3899851877905050E+01 a      1212     0    41     1    12
  1.4600377811274423E+00 a      1213     0    41     1    13
 -4.0447295287701976E+00 a      1214     0    41     1    14
  2.6855729414556539E+01 a      1215     0    41     1    15
 -3.5823659919955828E-02 a      1216     0    41     1    16
 -2.5391328301253981E+01 a      1217     0    41     1    17
  8.5758940423908250E+00 a      1218     0    41     1    18
 -3.3280365790682265E-01 a      1219     0    41     1    19
 -1.5931756116444012E+01 a      1220     0    41     1    20
  3.8070368286447578E+00 a      1221     0    41     1    21
  1.1637758318137243E+01 a      1222     0    41     1    22
  8.9775453503600158E+00 a      1223     0    41     1    23
  9.7676224856432352E+00 a      1224     0    41     1    24
 -6.6021508296873952E+00 a      1225     0    41     1    25
 -2.4943041135385027E+01 a      1226     0    41     1    26
  1.4424528876863917E+01 a      1227     0    41     1    27
  2.3467226947258663E+01 a      1228     0    41     1    28
 -1.1787716537777106E+01 a      1229     0    41     1    29
  5.7064606075636987E-02 a      1230     0    41     1    30
  1.9513638840620676E+01 a      1231     0    42     1     1
 -1.0234847986568475E+01 a      1232     0    42     1     2
  8.1606599076483786E+00 a      1233     0    42     1     3
  1.0605311024923878E+01 a      1234     0    42     1     4
  2.1635184598886735E+01 a      1235     0    42     1     5
 -1.4067219528454022E+01 a      1236     0    42     1     6
  1.0638397097785159E+01 a      1237     0    42     1     7
  1.8978138677916810E+01 a      1238     0    42     1     8
 -7.6536987186747014E+00 a      1239     0    42     1     9
 -1.2206071798879593E+01 a      1240     0    42     1    10
  1.1119320078508718E+01 a      1241     0    42     1    11
  7.3213973332852689E+00 a      1242     0    42     1    12
  2.2334424682207640E+01 a      1243     0    42     1    13
 -5.5120953094594087E+00 a      1244     0    42     1    14
  2.5493449777967324E+01 a      1245     0    42     1    15
  1.3608367266873152E+01 a      1246     0    42     1    16
 -2.2828946618597207E+01 a      1247     0    42     1    17
 -4.1505559383938300E+00 a      1248     0    42     1    18
  3.9842105514013464E+00 a      1249     0    42     1    19
  9.9885188226088584E+00 a      1250     0    42     1    20
 -3.8518879755909996E+00 a      1251     0    42     1    21
 -1.4651346626583122E+01 a      1252     0    42     1    22
  7.1347783449931246E-01 a      1253     0    42     1    23
 -3.1029725193542617E+00 a      1254     0    42     1    24
 -1.0706990790606413E+01 a      1255     0    42     1    25
 -1.0763193483490749E+01 a      1256     0    42     1    26
  3.6767194800966357E-01 a      1257     0    42     1    27
 -3.2718645376502771E+00 a      1258     0    42     1    28
  2.0950624986145272E+01 a      1259     0    42     1    29
 -4.7224613517878478E+00 a      1260     0    42     1    30
  1.0328071468774162E+01 a      1261     0    43     1     1
 -6.0891595844384661E+00 a      1262     0    43     1     2
  1.0279392522356652E+01 a      1263     0    43     1     3
  1.7745758775897684E+01 a      1264     0    43     1     4
  1.3484110309632921E+01 a      1265     0    43     1     5
  2.6370823689425520E+00 a      1266     0    43     1     6
  2.4477175622282431E+01 a      1267     0    43     1     7
 -3.3775398112367853E+01 a      1268     0    43     1     8
 -9.2329873119208408E+00 a      1269     0    43     1     9
 -3.1080550431566620E+00 a      1270     0    43     1    10
 -7.8520414869870621E+00 a      1271     0    43     1    11
  2.3474171627889913E+01 a      1272     0    43     1    12
 -1.0861630481480717E+01 a      1273     0    43     1    13
 -1.2795410034863210E+01 a      1274     0    43     1    14
 -4.1260083591391748E+01 a      1275     0    43     1    15
  3.1916694699727984E+01 a      1276     0    43     1    16
  1.7057718013632062E+01 a      1277     0    43     1    17
 -2.6958268114495212E+01 a      1278     0    43     1    18
  1.9834300413654681E+01 a      1279     0    43     1    19
  1.6985290693025402E+01 a      1280     0    43     1    20
 -2.2912499606629012E+01 a      1281     0    43     1    21
 -1.1350226365415523E+01 a      1282     0    43     1    22
 -1.0193576007206278E+01 a      1283     0    43     1    23
 -1.1655056814738303E-01 a      1284     0    43     1    24
  1.9708508637076228E+01 a      1285     0    43     1    25
  1.8599542949195133E+01 a      1286     0    43     1    26
  4.0345840875153929E+00 a      1287     0    43     1    27
  1.0167896782926189E+01 a      1288     0    43     1    28
  9.6876398784454789E+00 a      1289     0    43     1    29
 -1.9649294640243145E+00 a      1290     0    43     1    30
 -3.2926813698658788E+00 a      1291     0    44     1     1
 -4.0624781286136376E+00 a      1292     0    44     1     2
 -4.7155935385546437E+00 a      1293     0    44     1     3
 -5.8618932890484388E-01 a      1294     0    44     1     4
 -1.7418861055927138E+01 a      1295     0    44     1     5
 -4.2152546168145593E+00 a      1296     0    44     1     6
  4.0746571297010697E-01 a      1297     0    44     1     7
 -4.2672849904788350E+00 a      1298     0    44     1     8
  1.7220069847463606E+00 a      1299     0    44     1     9
  4.3524419463416182E+00 a      1300     0    44     1    10
 -2.3968069492319279E+00 a      1301     0    44     1    11
 -7.2227503781021776E+00 a      1302     0    44     1    12
 -1.2813886333287863E+00 a      1303     0    44     1    13
 -5.6995124957264698E-01 a      1304     0    44     1    14
 -9.4072791455339750E+00 a      1305     0    44     1    15
  1.8663566956695845E+00 a      1306     0    44     1    16
  9.0145513337788818E-01 a      1307     0    44     1    17
 -4.6743829800480813E-01 a      1308     0    44     1    18
  8.0462108391061768E+00 a      1309     0    44     1    19
  1.2096672270510062E+01 a      1310     0    44     1    20
  4.9915883575680828E+00 a      1311     0    44     1    21
 -4.5836390567418489E-01 a      1312     0    44     1    22
 -4.3043024794159521E+00 a      1313     0    44     1    23
 -3.5003825804273574E+00 a      1314     0    44     1    24
  4.7205667022321061E+00 a      1315     0    44     1    25
  5.7375854288329124E+00 a      1316     0    44     1    26
  3.5169178266787199E-02 a      1317     0    44     1    27
 -6.6731231959573512E-01 a      1318     0    44     1    28
 -7.5348098784850892E+00 a      1319     0    44     1    29
 -1.8671747936634273E+00 a      1320     0    44     1    30
 -8.1032218607460145E+00 a      1321     0    45     1     1
 -4.2747780712554615E+00 a      1322     0    45     1     2
  1.5219561395436831E+01 a      1323     0    45     1     3
  7.5555227539596981E+00 a      1324     0    45     1     4
  2.6838855906222900E+01 a      1325     0    45     1     5
  8.1333619419929870E-01 a      1326     0    45     1     6
 -6.7342735150099464E-01 a      1327     0    45     1     7
  2.6487035006308832E+00 a      1328     0    45     1     8
  2.8237565902938115E+00 a      1329     0    45     1     9
 -1.2558980453164821E+01 a      1330     0    45     1    10
 -1.6840719667358794E+01 a      1331     0    45     1    11
 -1.1521152670105264E+01 a      1332     0    45     1    12
 -1.3204061968192264E+01 a      1333     0    45     1    13
 -6.4976728296540358E+00 a      1334     0    45     1    14
  2.5971348891591308E+00 a      1335     0    45     1    15
  1.5835125967620920E+01 a      1336     0    45     1    16
  1.1729670681116366E+00 a      1337     0    45     1    17
 -5.8090047010407435E+00 a      1338     0    45     1    18
  1.7076377666235675E+01 a      1339     0    45     1    19
 -1.6156930819533443E+01 a      1340     0    45     1    20
 -9.9370227093626584E-01 a      1341     0    45     1    21
  1.7765531903032599E+01 a      1342     0    45     1    22
  1.0734433302100635E+01 a      1343     0    45     1    23
  1.2428677515708047E+01 a      1344     0    45     1    24
 -8.8908425508831286E+00 a      1345     0    45     1    25
  1.0065703047550530E+01 a      1346     0    45     1    26
 -1.9167784893670333E+01 a      1347     0    45     1    27
 -4.3608614422653682E+00 a      1348     0    45     1    28
  2.7603804880477878E+01 a      1349     0    45     1    29
 -5.1207624647331729E-01 a      1350     0    45     1    30
  2.1041851801281418E+01 a      1351     0    46     1     1
  4.5796706495091160E+00 a      1352     0    46     1     2
 -1.5693164518700844E+01 a      1353     0    46     1     3
  8.1725348084307363E+00 a      1354     0    46     1     4
 -2.5588778371594568E+01 a      1355     0    46     1     5
 -1.1069835013008598E+00 a      1356     0    46     1     6
  1.8825101697588348E+01 a      1357     0    46     1     7
  9.2753454391210184E+00 a      1358     0    46     1     8
 -6.5431166955465008E+00 a      1359     0    46     1     9
  4.8777047814409018E+00 a      1360     0    46     1    10
  3.3407818818522152E+01 a      1361     0    46     1    11
  1.4935201234094562E+01 a      1362     0    46     1    12
  2.7266827957044569E+01 a      1363     0    46     1    13
  5.8446531836802951E+00 a      1364     0    46     1    14
  1.2824160377566685E+01 a      1365     0    46     1    15
 -8.2627644757218661E+00 a      1366     0    46     1    16
 -3.2175171724600995E+00 a      1367     0    46     1    17
 -6.2668868484838613E+00 a      1368     0    46     1    18
 -1.7702416966879404E+01 a      1369     0    46     1    19
  1.3718224295616816E+01 a      1370     0    46     1    20
 -8.3002450467612636E+00 a      1371     0    46     1    21
 -1.6417410902236277E+01 a      1372     0    46     1    22
 -2.1332224927090730E+00 a      1373     0    46     1    23
  1.5291444494061670E+01 a      1374     0    46     1    24
  2.8951400923548679E+01 a      1375     0    46     1    25
  3.3270099084405008E-01 a      1376     0    46     1    26
  1.7715734703441655E+01 a      1377     0    46     1    27
 -1.1701584529161307E+01 a      1378     0    46     1    28
 -2.6405058728620232E+00 a      1379     0    46     1    29
 -1.9282499578341408E+00 a      1380     0    46     1    30
 -4.2685292618349996E-01 a      1381     0    47     1     1
 -1.0983249295968385E+01 a      1382     0    47     1     2
 -7.0071833534900039E+00 a      1383     0    47     1     3
  9.1120768742064566E+00 a      1384     0    47     1     4
  6.9137029124048794E+00 a      1385     0    47     1     5
 -2.0991829012007188E+00 a      1386     0    47     1     6
  1.3748266533236333E+00 a      1387     0    47     1     7
 -4.6440122567394866E+00 a      1388     0    47     1     8
  3.5248643510943353E-02 a      1389     0    47     1     9
  1.0967481006344881E-02 a      1390     0    47     1    10
  3.3404807353209667E+00 a      1391     0    47     1    11
 -7.9088117777554432E+00 a      1392     0    47     1    12
 -2.7956089135462975E-01 a      1393     0    47     1    13
  5.4760026134252815E-01 a      1394     0    47     1    14
 -3.4629384648597847E+00 a      1395     0    47     1    15
 -3.2392789578833043E+00 a      1396     0    47     1    16
  5.8090309795310455E+00 a      1397     0    47     1    17
 -3.8811367871869638E+00 a      1398     0    47     1    18
 -1.3065469471166877E+00 a      1399     0    47     1    19
  4.7575371989431119E+00 a      1400     0    47     1    20
 -4.8686777368517503E-01 a      1401     0    47     1    21
 -3.2764366709962047E+00 a      1402     0    47     1    22
 -4.0875644093926864E+00 a      1403     0    47     1    23
 -1.5716494245236026E+00 a      1404     0    47     1    24
  3.5772805393338958E+00 a      1405     0    47     1    25
  1.0174780537263082E+01 a      1406     0    47     1    26
 -1.1210169157864873E+00 a      1407     0    47     1    27
 -7.9611388559254648E+00 a      1408     0    47     1    28
 -1.5916146835298146E+00 a      1409     0    47     1    29
  8.0876851250564241E-01 a      1410     0    47     1    30
 -1.0881060264271799E+01 a      1411     0    48     1     1
  4.9465800263726329E+00 a      1412     0    48     1     2
  4.8568365653996146E+00 a      1413     0    48     1     3
 -1.0341463414272935E+01 a      1414     0    48     1     4
 -8.4890991388954173E+00 a      1415     0    48     1     5
 -3.1772856341791589E-01 a      1416     0    48     1     6
 -2.1176930324277898E+00 a      1417     0    48     1     7
 -5.3351526667313642E+00 a      1418     0    48     1     8
  3.0268801361509254E+00 a      1419     0    48     1     9
  2.1662940820120737E+00 a      1420     0    48     1    10
 -1.7335297476330773E+01 a      1421     0    48     1    11
 -1.7653755609663904E+01 a      1422     0    48     1    12
 -1.3104383795344338E+01 a      1423     0    48     1    13
 -4.8357451329652861E+00 a      1424     0    48     1    14
 -1.2176683511495645E+01 a      1425     0    48     1    15
 -2.9336426414831913E+00 a      1426     0    48     1    16
  3.3523613530489955E+00 a      1427     0    48     1    17
  3.5159631018667321E+00 a      1428     0    48     1    18
  7.7407785043490458E+00 a      1429     0    48     1    19
 -5.7650356481206693E+00 a      1430     0    48     1    20
  3.1420129362033755E+00 a      1431     0    48     1    21
  3.7473878472931794E+00 a      1432     0    48     1    22
 -2.5471765265929376E+00 a      1433     0    48     1    23
 -5.2708282496130918E+00 a      1434     0    48     1    24
 -2.5196534611016994E+00 a      1435     0    48     1    25
  8.3738223905836389E+00 a      1436     0    48     1    26
 -5.7105404178480539E+00 a      1437     0    48     1    27
  2.4726640881129915E+00 a      1438     0    48     1    28
 -3.9005598745061030E+00 a      1439     0    48     1    29
 -1.3786440325366296E+00 a      1440     0    48     1    30
 -7.8733819022871430E+00 a      1441     0    49     1     1
  2.8276520533431038E-02 a      1442     0    49     1     2
  6.0541062113155624E+00 a      1443     0    49     1     3
 -1.3773320006933071E+01 a      1444     0    49     1     4
  4.2323301223829306E+00 a      1445     0    49     1     5
 -1.0973347943792481E+01 a      1446     0    49     1     6
 -8.5077936599318538E-01 a      1447     0    49     1     7
  3.5384938777078879E+01 a      1448     0    49     1     8
  5.2398546015380010E+00 a      1449     0    49     1     9
  3.8543573011353511E+00 a      1450     0    49     1    10
 -4.4688766034439391E+00 a      1451     0    49     1    11
 -3.1155316394877211E+01 a      1452     0    49     1    12
  3.6300768246856943E+00 a      1453     0    49     1    13
  4.6807401424600474E+00 a      1454     0    49     1    14
  9.1528491619526982E+00 a      1455     0    49     1    15
 -3.2421650523105960E+01 a      1456     0    49     1    16
  8.8506593109050335E+00 a      1457     0    49     1    17
  2.0853679981581521E+01 a      1458     0    49     1    18
 -1.5925428128420934E+01 a      1459     0    49     1    19
 -7.4254578735578773E+00 a      1460     0    49     1    20
  1.4878012720908227E+01 a      1461     0    49     1    21
  6.7390666977993510E+00 a      1462     0    49     1    22
  3.5596051037356069E-01 a      1463     0    49     1    23
 -1.9247965682854680E+01 a      1464     0    49     1    24
 -2.6813584866707444E+01 a      1465     0    49     1    25
 -1.7863212360197942E+01 a      1466     0    49     1    26
 -3.4337537441468720E+00 a      1467     0    49     1    27
 -5.1389223053952957E+00 a      1468     0    49     1    28
 -7.5967839915442719E+00 a      1469     0    49     1    29
 -1.6465568600749643E+00 a      1470     0    49     1    30
  4.7426553407966698E-01 a      1471     0    50     1     1
  1.8195080417605760E+00 a      1472     0    50     1     2
  5.2071365809653447E-01 a      1473     0    50     1     3
  9.1328602111427581E-01 a      1474     0    50     1     4
  3.7173467700923464E+00 a      1475     0    50     1     5
  3.3914788499002713E-01 a      1476     0    50     1     6
 -1.3506523937365138E+00 a      1477     0    50     1     7
  2.0745344006700128E-01 a      1478     0    50     1     8
  1.3638467383883368E-01 a      1479     0    50     1     9
 -5.9798026191878462E-01 a      1480     0    50     1    10
  1.2591480586296082E+00 a      1481     0    50     1    11
  1.6936050058673886E+00 a      1482     0    50     1    12
 -2.5161104556397063E-01 a      1483     0    50     1    13
  4.3240160124680510E-01 a      1484     0    50     1    14
  2.7323646755540607E+00 a      1485     0    50     1    15
 -4.4090272023939531E-01 a      1486     0    50     1    16
  6.3302972742448047E-02 a      1487     0    50     1    17
  4.3122897570911667E-01 a      1488     0    50     1    18
 -3.7240090502969427E+00 a      1489     0    50     1    19
 -2.7327823896425172E+00 a      1490     0    50     1    20
 -1.1831091664693034E+00 a      1491     0    50     1    21
 -2.6281750191319418E-02 a      1492     0    50     1    22
  1.1809899124030128E+00 a      1493     0    50     1    23
  9.0284422003960763E-01 a      1494     0    50     1    24
 -7.3799995507357319E-01 a      1495     0    50     1    25
 -1.7027330384516823E+00 a      1496     0    50     1    26
  5.8887341070844024E-01 a      1497     0    50     1    27
 -6.8286607021293064E-02 a      1498     0    50     1    28
  1.3150388038047220E+00 a      1499     0    50     1    29
  5.3223371836910749E-01 a      1500     0    50     1    30
  5.2409508914903498E+00 a      1501     0    51     1     1
 -1.8038951887505068E+01 a      1502     0    51     1     2
 -1.2521759966253027E+01 a      1503     0    51     1     3
  1.0905521506340170E+01 a      1504     0    51     1     4
 -8.9721506419557926E+00 a      1505     0    51     1     5
 -2.9363132549890265E+00 a      1506     0    51     1     6
  2.5660585487441021E+00 a      1507     0    51     1     7
  3.5134793545599923E+00 a      1508     0    51     1     8
  1.4474040934650678E-01 a      1509     0    51     1     9
  1.3459187551051023E+01 a      1510     0    51     1    10
  5.6900176245133540E+00 a      1511     0    51     1    11
  1.2689383250659279E+01 a      1512     0    51     1    12
  5.9671993026899335E+00 a      1513     0    51     1    13
  7.8389834288606597E+00 a      1514     0    51     1    14
  3.2236750077727283E+00 a      1515     0    51     1    15
 -1.0865111266967718E+01 a      1516     0    51     1    16
  8.0970630322133310E+00 a      1517     0    51     1    17
 -4.0504041452313535E+00 a      1518     0    51     1    18
  7.1719409153100169E-02 a      1519     0    51     1    19
  1.2405048375581366E+01 a      1520     0    51     1    20
 -3.1773577816057639E+00 a      1521     0    51     1    21
 -1.8249695110162338E+00 a      1522     0    51     1    22
  6.0790344152862170E+00 a      1523     0    51     1    23
 -3.7445556389407177E+00 a      1524     0    51     1    24
  6.7480686464654376E+00 a      1525     0    51     1    25
 -3.6877827777280703E+00 a      1526     0    51     1    26
  1.0430978194776936E+01 a      1527     0    51     1    27
 -6.7114985129271576E-01 a      1528     0    51     1    28
 -1.1562649675870224E+01 a      1529     0    51     1    29
  2.0804225299778629E+00 a      1530     0    51     1    30
 -9.1872223367264727E+00 a      1531     0    52     1     1
  1.9636757393374449E+01 a      1532     0    52     1     2
  1.5081274193675659E+01 a      1533     0    52     1     3
 -1.9909204423048266E+01 a      1534     0    52     1     4
  1.1550561986346809E+01 a      1535     0    52     1     5
  3.6999519842600281E+00 a      1536     0    52     1     6
 -6.6509445452972074E+00 a      1537     0    52     1     7
 -4.9281950800016352E+00 a      1538     0    52     1     8
 -5.6747364317343796E-01 a      1539     0    52     1     9
 -6.3352897536614599E+00 a      1540     0    52     1    10
 -1.0204594447546802E+01 a      1541     0    52     1    11
 -1.8235112528770220E+01 a      1542     0    52     1    12
 -9.5751555026857478E+00 a      1543     0    52     1    13
 -1.1575292165255892E+01 a      1544     0    52     1    14
 -6.2477737373754278E+00 a      1545     0    52     1    15
  9.2363680556560652E+00 a      1546     0    52     1    16
 -5.4051093901408240E+00 a      1547     0    52     1    17
  1.0203494334601601E+01 a      1548     0    52     1    18
 -3.7084998577810699E+00 a      1549     0    52     1    19
 -7.3311868755239518E+00 a      1550     0    52     1    20
  3.4626077666593642E+00 a      1551     0    52     1    21
  1.3957739353503000E+00 a      1552     0    52     1    22
 -1.0478154617997211E+01 a      1553     0    52     1    23
 -1.5011658931724225E+00 a      1554     0    52     1    24
 -1.3454870831782513E+01 a      1555     0    52     1    25
  1.6964036387059920E+00 a      1556     0    52     1    26
 -1.2450310433412195E+01 a      1557     0    52     1    27
  4.6268572652135225E+00 a      1558     0    52     1    28
  4.3676679582470568E+00 a      1559     0    52     1    29
 -2.9455890897244896E+00 a      1560     0    52     1    30
 -6.8872556260566997E-01 a      1561     0    53     1     1
  7.8196996701977968E+00 a      1562     0    53     1     2
  3.9379748111093273E+00 a      1563     0    53     1     3
 -4.6467992770801398E+00 a      1564     0    53     1     4
 -5.8277306238973192E-01 a      1565     0    53     1     5
  1.6658790107801322E+00 a      1566     0    53     1     6
  1.0401252285115010E+00 a      1567     0    53     1     7
  4.0612825525533154E+00 a      1568     0    53     1     8
 -1.1369853608925941E-01 a      1569     0    53     1     9
 -5.9891649919496602E-02 a      1570     0    53     1    10
 -2.2579908797433097E+00 a      1571     0    53     1    11
 -1.3008875067986021E+00 a      1572     0    53     1    12
 -1.9316039005888230E-01 a      1573     0    53     1    13
 -6.3928899823455099E-01 a      1574     0    53     1    14
 -2.1767388308793717E-01 a      1575     0    53     1    15
  3.2659243700210752E+00 a      1576     0    53     1    16
 -1.9988613045921524E+00 a      1577     0    53     1    17
  1.9453182080935336E+00 a      1578     0    53     1    18
 -3.3384395260479521E-01 a      1579     0    53     1    19
 -2.7827618240742473E+00 a      1580     0    53     1    20
  6.0152882066356950E-01 a      1581     0    53     1    21
  5.8995957047411385E-01 a      1582     0    53     1    22
 -1.0937995432031446E-01 a      1583     0    53     1    23
  9.0693289787669967E-02 a      1584     0    53     1    24
 -1.1420284644556700E+00 a      1585     0    53     1    25
 -2.3905611751748750E+00 a      1586     0    53     1    26
 -1.3432274405171258E+00 a      1587     0    53     1    27
  2.2813125063928235E+00 a      1588     0    53     1    28
  2.9407916837298638E+00 a      1589     0    53     1    29
 -6.7122915894899682E-01 a      1590     0    53     1    30
  3.9575655110856998E+00 a      1591     0    54     1     1
 -6.1168137586959155E+00 a      1592     0    54     1     2
 -4.7039671828418390E+00 a      1593     0    54     1     3
  9.4041546919314492E+00 a      1594     0    54     1     4
  2.9942565592986736E+00 a      1595     0    54     1     5
 -8.4191872245557339E-02 a      1596     0    54     1     6
 -1.3168964894703092E-01 a      1597     0    54     1     7
  1.2202527609623295E-01 a      1598     0    54     1     8
  4.8804051461635184E-01 a      1599     0    54     1     9
 -4.3996371492462671E-01 a      1600     0    54     1    10
  5.1932182208129234E+00 a      1601     0    54     1    11
  9.8506118541040237E+00 a      1602     0    54     1    12
  4.5728743189828496E+00 a      1603     0    54     1    13
  4.7414390526240808E+00 a      1604     0    54     1    14
  3.8491209435442593E+00 a      1605     0    54     1    15
 -4.5025703170395266E+00 a      1606     0    54     1    16
  6.6148252153474751E-01 a      1607     0    54     1    17
 -3.0401722688003270E+00 a      1608     0    54     1    18
 -4.9345749279101203E-01 a      1609     0    54     1    19
  2.0790693800993623E+00 a      1610     0    54     1    20
 -1.3047666249127725E+00 a      1611     0    54     1    21
 -1.7615378631947706E-01 a      1612     0    54     1    22
  3.9388277458583736E+00 a      1613     0    54     1    23
 -4.0158035439754108E-01 a      1614     0    54     1    24
  2.2437924822678967E+00 a      1615     0    54     1    25
 -1.1744512330494168E+00 a      1616     0    54     1    26
  3.8981367791416091E+00 a      1617     0    54     1    27
 -1.7724450963638053E-01 a      1618     0    54     1    28
 -2.7714959341938377E+00 a      1619     0    54     1    29
  1.4848432400409179E+00 a      1620     0    54     1    30
  3.9672745102636773E+00 a      1621     0    55     1     1
 -5.6695500153725380E+00 a      1622     0    55     1     2
 -7.6340484776812332E+00 a      1623     0    55     1     3
