################################################################################
# Neural network connection values (weights and biases).
################################################################################
# Col  Name       Description
################################################################################
# 1    connection Neural network connection value.
# 2    t          Connection type (a = weight, b = bias).
# 3    index      Index enumerating weights.
# 4    l_s        Starting point layer (end point layer for biases).
# 5    n_s        Starting point neuron in starting layer (end point neuron for biases).
# 6    l_e        End point layer.
# 7    n_e        End point neuron in end layer.
################################################################################
#                      1 2         3     4     5     6     7
#             connection t     index   l_s   n_s   l_e   n_e
############################################################
 -1.0053987773366995E+02 a         1     0     1     1     1
 -9.9767451099868207E+00 a         2     0     1     1     2
 -2.7115614237880830E+01 a         3     0     1     1     3
  3.1559346606035579E+01 a         4     0     1     1     4
 -9.8989033200475411E+00 a         5     0     1     1     5
 -7.7638955512900818E+00 a         6     0     1     1     6
 -4.5370436997653520E+00 a         7     0     1     1     7
  1.5478351912631668E+01 a         8     0     1     1     8
  4.2649122051501934E+01 a         9     0     1     1     9
  9.0308167547916867E+00 a        10     0     1     1    10
 -1.0620312710485895E+02 a        11     0     1     1    11
  1.2311441579439288E+01 a        12     0     1     1    12
 -4.3795568246366855E+01 a        13     0     1     1    13
  1.0083515548616762E+00 a        14     0     1     1    14
  2.9319190443371301E+01 a        15     0     1     1    15
 -4.5808468750016210E+01 a        16     0     1     1    16
  1.7113546027452770E+01 a        17     0     1     1    17
 -4.4921379568316240E+01 a        18     0     1     1    18
  6.4711060567639986E+00 a        19     0     1     1    19
 -3.0030123867768857E+01 a        20     0     1     1    20
 -2.0610412925543450E+01 a        21     0     1     1    21
  4.1514475774255040E+00 a        22     0     1     1    22
  2.9715476620607846E+00 a        23     0     1     1    23
 -1.5456615128982559E+01 a        24     0     1     1    24
  1.1711123591581227E+01 a        25     0     1     1    25
  4.5754301679680305E+00 a        26     0     1     1    26
 -7.3294417014309001E+00 a        27     0     1     1    27
 -3.7201339868597483E+00 a        28     0     1     1    28
 -6.6826508529527349E+00 a        29     0     1     1    29
  2.7108321421667348E+01 a        30     0     1     1    30
 -3.2234446271216193E+01 a        31     0     2     1     1
  9.4552712009540052E-01 a        32     0     2     1     2
 -9.4024526052779898E+00 a        33     0     2     1     3
 -3.5900767541611867E+00 a        34     0     2     1     4
  1.2404657269972457E+00 a        35     0     2     1     5
  5.5831781407286698E+00 a        36     0     2     1     6
 -4.0405382810678248E+00 a        37     0     2     1     7
  1.8306602957021547E+00 a        38     0     2     1     8
  1.0005708238475972E+01 a        39     0     2     1     9
 -4.0469072876575458E+00 a        40     0     2     1    10
 -1.9266893123774405E+01 a        41     0     2     1    11
 -2.0903489787000815E+00 a        42     0     2     1    12
 -9.8782608147997095E+00 a        43     0     2     1    13
 -1.2882073081575280E+00 a        44     0     2     1    14
  1.6408172056402535E+00 a        45     0     2     1    15
 -1.1024227951793378E+01 a        46     0     2     1    16
 -8.0265177098051907E+00 a        47     0     2     1    17
 -2.7565260123720975E+01 a        48     0     2     1    18
 -1.2223869837138452E+01 a        49     0     2     1    19
  3.8975084223175012E+00 a        50     0     2     1    20
 -8.9301614672845293E+00 a        51     0     2     1    21
  4.6797476860668619E+00 a        52     0     2     1    22
  1.0095586526572683E+01 a        53     0     2     1    23
  1.6768870443217644E+01 a        54     0     2     1    24
 -1.2420560043827710E+01 a        55     0     2     1    25
  5.8838907324178882E+00 a        56     0     2     1    26
 -1.2229197363947328E+01 a        57     0     2     1    27
 -1.2697609557290479E+01 a        58     0     2     1    28
 -2.8012491259888632E+00 a        59     0     2     1    29
  1.1614134200432591E+01 a        60     0     2     1    30
  1.7604528117065897E+01 a        61     0     3     1     1
  1.2030554374459683E+00 a        62     0     3     1     2
  6.8138402833288056E+00 a        63     0     3     1     3
 -3.5261326329668421E+01 a        64     0     3     1     4
  1.0650589793994182E+01 a        65     0     3     1     5
  1.7103467745208519E+01 a        66     0     3     1     6
 -7.2554471418280269E+00 a        67     0     3     1     7
 -8.0244330647697169E+00 a        68     0     3     1     8
 -1.9577390081941161E+01 a        69     0     3     1     9
 -1.7569401869942460E+01 a        70     0     3     1    10
  4.3892007065566723E+01 a        71     0     3     1    11
 -1.2097355335960257E+01 a        72     0     3     1    12
  1.7527201981539470E+01 a        73     0     3     1    13
 -5.6225740997285367E+00 a        74     0     3     1    14
 -1.4664756205560732E+01 a        75     0     3     1    15
  1.3331377581128560E+01 a        76     0     3     1    16
 -2.8019241141675302E+01 a        77     0     3     1    17
 -2.2271101117664017E+01 a        78     0     3     1    18
 -2.7379257762664224E+01 a        79     0     3     1    19
  3.1408756031474518E+01 a        80     0     3     1    20
  6.5190870281291191E-01 a        81     0     3     1    21
  1.2889587621153153E+01 a        82     0     3     1    22
  1.7333958680905759E+01 a        83     0     3     1    23
  4.4097605115993545E+01 a        84     0     3     1    24
 -2.7140506074628668E+01 a        85     0     3     1    25
  4.3076843851939692E+00 a        86     0     3     1    26
 -1.7996552285149900E+01 a        87     0     3     1    27
 -2.9426444195379123E+01 a        88     0     3     1    28
 -5.6277419071191348E-01 a        89     0     3     1    29
  3.1123895010281353E+00 a        90     0     3     1    30
  2.6437308898986199E+01 a        91     0     4     1     1
  2.5732809600497720E+01 a        92     0     4     1     2
  2.0599320312554063E+01 a        93     0     4     1     3
 -5.8834063941047944E+01 a        94     0     4     1     4
  3.3716560518421246E+00 a        95     0     4     1     5
  1.9776556330492042E+01 a        96     0     4     1     6
  4.2085806100984477E+00 a        97     0     4     1     7
 -2.3994226109304645E+01 a        98     0     4     1     8
 -1.7567120497870416E+01 a        99     0     4     1     9
 -2.6296272056002710E+01 a       100     0     4     1    10
  3.7294833763137127E+01 a       101     0     4     1    11
 -5.2279859133232218E+00 a       102     0     4     1    12
  2.4663817340206617E+01 a       103     0     4     1    13
 -1.1100201352785954E+01 a       104     0     4     1    14
 -3.2819587898361569E+01 a       105     0     4     1    15
  1.8790063152780743E+01 a       106     0     4     1    16
 -3.4615652168572531E+01 a       107     0     4     1    17
  1.9048871787004127E+00 a       108     0     4     1    18
 -6.9419376729701527E+00 a       109     0     4     1    19
  3.7324345473998719E+01 a       110     0     4     1    20
  1.0661634799083413E+00 a       111     0     4     1    21
 -1.4971574808615504E+01 a       112     0     4     1    22
  9.1940961903454337E+00 a       113     0     4     1    23
  5.0327654893427741E+01 a       114     0     4     1    24
 -3.1830912977968335E+01 a       115     0     4     1    25
 -1.3614079427962185E+01 a       116     0     4     1    26
 -1.7459985951965194E+01 a       117     0     4     1    27
  8.3773818858385667E+00 a       118     0     4     1    28
  2.9653609424621186E+00 a       119     0     4     1    29
  7.4118174345737859E+00 a       120     0     4     1    30
  2.1607825365023270E+01 a       121     0     5     1     1
 -8.1805723844802216E+00 a       122     0     5     1     2
  1.6686533897638903E+01 a       123     0     5     1     3
 -4.4378449707315582E+01 a       124     0     5     1     4
  3.9461275034475524E-01 a       125     0     5     1     5
  1.4513831421128490E+01 a       126     0     5     1     6
  1.0392544026251734E+01 a       127     0     5     1     7
 -2.0072187704348146E+01 a       128     0     5     1     8
  8.3592139580146991E+00 a       129     0     5     1     9
 -1.9121955384515392E+01 a       130     0     5     1    10
 -7.3969072627001564E+00 a       131     0     5     1    11
  7.5757353553898890E+00 a       132     0     5     1    12
  1.3074534127820961E+01 a       133     0     5     1    13
 -1.3632560295696466E+01 a       134     0     5     1    14
 -2.0734825669112801E+01 a       135     0     5     1    15
  1.4551791711984292E+01 a       136     0     5     1    16
 -1.8794248317141317E+01 a       137     0     5     1    17
  2.5561926106063460E+01 a       138     0     5     1    18
  3.7010063162044048E+01 a       139     0     5     1    19
  2.4952897265343807E+01 a       140     0     5     1    20
  6.0154743353477143E+00 a       141     0     5     1    21
 -3.3120480223389237E+01 a       142     0     5     1    22
 -8.1326749832603173E+00 a       143     0     5     1    23
  1.7904441153986578E+01 a       144     0     5     1    24
 -1.0029007076772402E+01 a       145     0     5     1    25
 -2.3230055520486609E+01 a       146     0     5     1    26
 -5.9625209712724123E+00 a       147     0     5     1    27
  3.4153423680580865E+01 a       148     0     5     1    28
  5.6831442699509807E-02 a       149     0     5     1    29
  8.0559576602482927E+00 a       150     0     5     1    30
  3.2438928698021513E+01 a       151     0     6     1     1
  2.0744170809885962E+00 a       152     0     6     1     2
  6.9489082392525860E+00 a       153     0     6     1     3
 -1.1673421987326034E+01 a       154     0     6     1     4
  1.5059595545355471E+00 a       155     0     6     1     5
  8.0696270412692683E-01 a       156     0     6     1     6
  4.3391022527445822E+00 a       157     0     6     1     7
 -5.4422126472933599E+00 a       158     0     6     1     8
 -1.3166612683437503E+01 a       159     0     6     1     9
 -2.4335304694119611E-01 a       160     0     6     1    10
  2.6844795175485668E+01 a       161     0     6     1    11
 -2.3643024240607327E+00 a       162     0     6     1    12
  9.0578642886602232E+00 a       163     0     6     1    13
 -2.8713284790984419E+00 a       164     0     6     1    14
 -7.7136948314615568E+00 a       165     0     6     1    15
  1.5185913902231118E+01 a       166     0     6     1    16
  2.6300162306181529E+00 a       167     0     6     1    17
  1.6777750062770597E+01 a       168     0     6     1    18
  4.7248259151762566E+00 a       169     0     6     1    19
  6.3561356311363451E+00 a       170     0     6     1    20
  6.6578696931794408E+00 a       171     0     6     1    21
 -5.0024660652512098E+00 a       172     0     6     1    22
 -4.3943161719866355E+00 a       173     0     6     1    23
 -4.9755846021120318E+00 a       174     0     6     1    24
  3.8652600344868002E+00 a       175     0     6     1    25
 -3.6311844768410841E+00 a       176     0     6     1    26
  4.3912789905593064E+00 a       177     0     6     1    27
  8.4761542487899195E+00 a       178     0     6     1    28
  2.8611582275336120E+00 a       179     0     6     1    29
 -1.1677437146888344E+01 a       180     0     6     1    30
  2.8462634328427391E+01 a       181     0     7     1     1
 -1.6512170193282943E-01 a       182     0     7     1     2
 -1.2394848004009566E+01 a       183     0     7     1     3
  3.3583882785370314E+01 a       184     0     7     1     4
 -2.4128185667982800E+00 a       185     0     7     1     5
  1.1511062370191972E+01 a       186     0     7     1     6
 -1.7302701553641850E+01 a       187     0     7     1     7
  2.6168630867102721E+01 a       188     0     7     1     8
  2.4898516831865969E+01 a       189     0     7     1     9
  1.6949240623334390E+01 a       190     0     7     1    10
 -1.9909804170976578E+01 a       191     0     7     1    11
  6.4775813463846017E+00 a       192     0     7     1    12
 -1.5758013383513703E+01 a       193     0     7     1    13
  1.1182534265647469E+01 a       194     0     7     1    14
  1.2214430213664400E+01 a       195     0     7     1    15
  1.2230596001020883E+01 a       196     0     7     1    16
  2.0728770813078608E+01 a       197     0     7     1    17
 -5.8946495024146639E+00 a       198     0     7     1    18
 -1.2796100856395126E+01 a       199     0     7     1    19
 -4.1844455247974333E-01 a       200     0     7     1    20
  2.1923271607184525E+01 a       201     0     7     1    21
  1.7514238199081479E+01 a       202     0     7     1    22
  1.3084302097348159E+00 a       203     0     7     1    23
 -4.9418772892802814E+01 a       204     0     7     1    24
  2.5561729652981979E+00 a       205     0     7     1    25
  1.2954330940207603E+01 a       206     0     7     1    26
  1.3614784176300882E+01 a       207     0     7     1    27
 -1.8462253161407538E+01 a       208     0     7     1    28
 -2.6623588660307900E+00 a       209     0     7     1    29
 -9.3469371844666327E+00 a       210     0     7     1    30
  2.9967844918795166E+01 a       211     0     8     1     1
 -4.7170517544202024E+00 a       212     0     8     1     2
  2.9851325760002922E-01 a       213     0     8     1     3
  3.9952089076460723E+01 a       214     0     8     1     4
 -2.2062765800091038E+00 a       215     0     8     1     5
 -1.2260191610581296E+01 a       216     0     8     1     6
  2.6400644217042761E+00 a       217     0     8     1     7
  8.5373562180501494E+00 a       218     0     8     1     8
 -2.6087393194581487E+00 a       219     0     8     1     9
  1.7881725126481165E+01 a       220     0     8     1    10
  1.7617989332116775E+01 a       221     0     8     1    11
  3.3467671933536245E+00 a       222     0     8     1    12
  4.5531503306761767E+00 a       223     0     8     1    13
  8.5343530589816723E+00 a       224     0     8     1    14
  9.5356800547548257E+00 a       225     0     8     1    15
  8.3762683177662201E+00 a       226     0     8     1    16
  2.7255944480230443E+01 a       227     0     8     1    17
  3.2075670463287061E+01 a       228     0     8     1    18
  9.7423505239192369E+00 a       229     0     8     1    19
 -1.9778342282637929E+01 a       230     0     8     1    20
  9.4062429360220499E+00 a       231     0     8     1    21
  3.4314619021981199E+00 a       232     0     8     1    22
 -1.2853032473135709E+01 a       233     0     8     1    23
 -3.9873645874492951E+01 a       234     0     8     1    24
  2.2812006972485943E+01 a       235     0     8     1    25
  3.0537354865945958E+00 a       236     0     8     1    26
  2.1551868620034526E+01 a       237     0     8     1    27
  9.7587392010099752E+00 a       238     0     8     1    28
  2.6600618945334644E+00 a       239     0     8     1    29
 -2.0618430993974059E+01 a       240     0     8     1    30
 -1.1552416377816378E+01 a       241     0     9     1     1
  2.2196494396862390E+00 a       242     0     9     1     2
  3.8006249420677118E+00 a       243     0     9     1     3
  5.0359214748676051E-01 a       244     0     9     1     4
  4.0654750073117025E+00 a       245     0     9     1     5
  2.9829873154710955E+00 a       246     0     9     1     6
  5.0200157041766214E-01 a       247     0     9     1     7
  5.5388021948895521E+00 a       248     0     9     1     8
  8.1466775283992447E+00 a       249     0     9     1     9
  1.7323183101216670E+00 a       250     0     9     1    10
 -1.3849537153757076E+01 a       251     0     9     1    11
 -2.6173756854315746E+00 a       252     0     9     1    12
  1.7507743858583835E+00 a       253     0     9     1    13
 -4.4246784594381889E+00 a       254     0     9     1    14
 -4.4253110152830413E+00 a       255     0     9     1    15
  4.3410000699908764E+00 a       256     0     9     1    16
 -6.6781018445737477E+00 a       257     0     9     1    17
  5.0700094286420745E+00 a       258     0     9     1    18
  1.1788386456585196E+00 a       259     0     9     1    19
  5.4373121955211356E+00 a       260     0     9     1    20
 -6.3120527510061775E-01 a       261     0     9     1    21
 -2.2553833477027738E+00 a       262     0     9     1    22
 -1.3150378826222966E+00 a       263     0     9     1    23
  1.2985663247184892E+01 a       264     0     9     1    24
 -3.8954752778017911E+00 a       265     0     9     1    25
  3.9269359996563864E+00 a       266     0     9     1    26
 -9.1708227870000698E+00 a       267     0     9     1    27
  3.5277290122787379E+00 a       268     0     9     1    28
  9.2180486904780501E-01 a       269     0     9     1    29
 -3.5360383299910331E-01 a       270     0     9     1    30
  2.7306730947302711E+00 a       271     0    10     1     1
 -6.9650670772631496E-01 a       272     0    10     1     2
 -1.5579014953483628E-01 a       273     0    10     1     3
 -1.6447217127234967E-01 a       274     0    10     1     4
 -9.8305451456966686E-01 a       275     0    10     1     5
 -3.6659716002248195E+00 a       276     0    10     1     6
  7.5659359575993590E-01 a       277     0    10     1     7
 -2.1775260393447433E+00 a       278     0    10     1     8
 -2.3053865180086142E+00 a       279     0    10     1     9
 -8.2755991452796795E-01 a       280     0    10     1    10
  5.9193298244188490E+00 a       281     0    10     1    11
  4.3439999326334272E-01 a       282     0    10     1    12
 -1.6161199411179716E+00 a       283     0    10     1    13
  1.2278120835159829E+00 a       284     0    10     1    14
  8.4846571529530157E-01 a       285     0    10     1    15
 -2.7554380046541325E+00 a       286     0    10     1    16
  2.0406037340933962E+00 a       287     0    10     1    17
 -2.6731156517763646E+00 a       288     0    10     1    18
 -4.3135158485530286E-03 a       289     0    10     1    19
 -2.8008082196256088E+00 a       290     0    10     1    20
 -2.8472849299991138E-01 a       291     0    10     1    21
  2.2630652976870441E-01 a       292     0    10     1    22
 -3.1961501677014065E-01 a       293     0    10     1    23
 -2.0573973428652241E+00 a       294     0    10     1    24
  1.7545196275294797E+00 a       295     0    10     1    25
 -1.6261842291173856E+00 a       296     0    10     1    26
  2.1120584827806308E+00 a       297     0    10     1    27
 -2.5107727039027822E-01 a       298     0    10     1    28
 -1.2566011596129958E-03 a       299     0    10     1    29
 -1.5410547944936670E-01 a       300     0    10     1    30
 -7.1790157259919773E+00 a       301     0    11     1     1
 -6.3268328890563179E+00 a       302     0    11     1     2
 -5.4334429009920013E+00 a       303     0    11     1     3
  4.6764846374440410E+01 a       304     0    11     1     4
 -2.7910292797756946E+00 a       305     0    11     1     5
 -3.7578002251819363E+01 a       306     0    11     1     6
  1.9002417382415446E+00 a       307     0    11     1     7
  1.0237545663217329E+01 a       308     0    11     1     8
 -1.8444555780002609E+01 a       309     0    11     1     9
  2.5397197972984774E+01 a       310     0    11     1    10
  1.3085211452155844E+01 a       311     0    11     1    11
 -2.9007472079387417E+00 a       312     0    11     1    12
 -2.3529993048357807E+00 a       313     0    11     1    13
  9.5974007848732228E+00 a       314     0    11     1    14
  2.0402222389877714E+01 a       315     0    11     1    15
 -1.0004430515218614E+01 a       316     0    11     1    16
  2.5727659290445335E+01 a       317     0    11     1    17
  1.8045914541662469E+01 a       318     0    11     1    18
  1.1704336836570959E+00 a       319     0    11     1    19
 -3.9291103425426030E+01 a       320     0    11     1    20
 -1.2589016530785915E+00 a       321     0    11     1    21
  1.1541197218044806E+01 a       322     0    11     1    22
 -1.0707023641430442E+01 a       323     0    11     1    23
 -3.3720286781710925E+01 a       324     0    11     1    24
  3.3262775078705054E+01 a       325     0    11     1    25
  8.6758465558382092E+00 a       326     0    11     1    26
  2.1206057298903165E+01 a       327     0    11     1    27
  1.4879262728176161E+00 a       328     0    11     1    28
  3.1002385636877938E+00 a       329     0    11     1    29
 -1.9300721697292261E+01 a       330     0    11     1    30
 -5.8267769000319154E+00 a       331     0    12     1     1
 -3.2095990973038959E+00 a       332     0    12     1     2
 -1.3257501026356868E+00 a       333     0    12     1     3
  9.7663836049015984E+00 a       334     0    12     1     4
 -3.6398022678544892E+00 a       335     0    12     1     5
 -1.1881702717830040E+01 a       336     0    12     1     6
  9.1466431261130854E+00 a       337     0    12     1     7
 -1.1062717564859851E+01 a       338     0    12     1     8
 -2.2004110241889759E+01 a       339     0    12     1     9
  3.4612352185653688E+00 a       340     0    12     1    10
  2.3584457811138680E+01 a       341     0    12     1    11
 -1.2476931771436542E-01 a       342     0    12     1    12
 -2.1067660054607882E+00 a       343     0    12     1    13
  2.6543489542512524E+00 a       344     0    12     1    14
  1.2013375804352478E+01 a       345     0    12     1    15
 -1.8460228015320542E+01 a       346     0    12     1    16
  8.7590580119308932E+00 a       347     0    12     1    17
  1.7094668191804663E+00 a       348     0    12     1    18
  4.3614148544034731E-01 a       349     0    12     1    19
 -2.1732069947399065E+01 a       350     0    12     1    20
 -1.4307140316773607E+01 a       351     0    12     1    21
  2.2732989376376884E+00 a       352     0    12     1    22
 -1.5612813789083799E+00 a       353     0    12     1    23
 -3.5346439953574533E+00 a       354     0    12     1    24
  1.5479365735709607E+01 a       355     0    12     1    25
  3.4092334980308181E-01 a       356     0    12     1    26
  1.2350642076768001E+01 a       357     0    12     1    27
 -3.0795115190821265E-01 a       358     0    12     1    28
  3.2632196471213369E-02 a       359     0    12     1    29
 -2.5108780509821602E+00 a       360     0    12     1    30
  1.2257528253487835E+00 a       361     0    13     1     1
 -2.8890905679459888E-01 a       362     0    13     1     2
  1.2005289123735237E+00 a       363     0    13     1     3
  6.2076153020525204E-01 a       364     0    13     1     4
 -1.6587501912903668E-01 a       365     0    13     1     5
 -6.5052456518161001E+00 a       366     0    13     1     6
  1.1406730447511475E+00 a       367     0    13     1     7
 -6.4709232416596774E-01 a       368     0    13     1     8
  4.7304679239534758E-01 a       369     0    13     1     9
 -5.0287712105884774E-01 a       370     0    13     1    10
  4.7960121574692707E+00 a       371     0    13     1    11
  4.5171065068991456E-01 a       372     0    13     1    12
 -2.7174740653637466E+00 a       373     0    13     1    13
  8.5973432316252485E-01 a       374     0    13     1    14
 -6.8356382417704184E-02 a       375     0    13     1    15
 -3.3363047915244484E+00 a       376     0    13     1    16
  1.6434924559423989E+00 a       377     0    13     1    17
 -3.5706308020835582E+00 a       378     0    13     1    18
  9.1560446548874408E-02 a       379     0    13     1    19
 -2.5615122480158634E+00 a       380     0    13     1    20
 -6.8793652548751583E-02 a       381     0    13     1    21
 -3.0158455721615512E-01 a       382     0    13     1    22
 -1.3335260512178289E+00 a       383     0    13     1    23
  6.1679659306721944E-02 a       384     0    13     1    24
  1.9834949040041254E+00 a       385     0    13     1    25
 -1.3812260215821386E+00 a       386     0    13     1    26
  6.1924572599746852E-01 a       387     0    13     1    27
  2.5180002324687251E-01 a       388     0    13     1    28
 -3.1234211816902339E-02 a       389     0    13     1    29
 -1.3147363490510797E-01 a       390     0    13     1    30
 -3.4835010365824554E-01 a       391     0    14     1     1
  5.8058426050851528E-02 a       392     0    14     1     2
 -4.6366269158535833E-01 a       393     0    14     1     3
 -2.3593350944310504E-01 a       394     0    14     1     4
 -1.2191565048337513E-01 a       395     0    14     1     5
  4.0547117319384923E-01 a       396     0    14     1     6
 -6.7627699042801651E-02 a       397     0    14     1     7
 -4.1056164592273764E-02 a       398     0    14     1     8
 -1.4653433421056894E-01 a       399     0    14     1     9
  2.7191213865396920E-02 a       400     0    14     1    10
 -8.1343499501133378E-03 a       401     0    14     1    11
  2.9109790480155212E-01 a       402     0    14     1    12
  2.0716920835074876E-01 a       403     0    14     1    13
 -2.8242126660572098E-01 a       404     0    14     1    14
  1.7517626057845459E-01 a       405     0    14     1    15
 -1.9240299667358568E-01 a       406     0    14     1    16
 -1.1163348998359721E-01 a       407     0    14     1    17
 -1.6030038541863834E-01 a       408     0    14     1    18
 -7.3259565121208875E-02 a       409     0    14     1    19
  2.7718361042100137E-01 a       410     0    14     1    20
  2.4064742014116383E-01 a       411     0    14     1    21
 -1.2236420888200204E-01 a       412     0    14     1    22
  3.4337591531138648E-02 a       413     0    14     1    23
 -2.5362757047303169E-01 a       414     0    14     1    24
  1.9904864290079574E-01 a       415     0    14     1    25
 -4.2270620875059234E-01 a       416     0    14     1    26
  1.4355826146484507E-01 a       417     0    14     1    27
 -1.2933353171721018E-01 a       418     0    14     1    28
 -4.9331372086511657E-02 a       419     0    14     1    29
  1.4917612439120068E-01 a       420     0    14     1    30
  2.0971290210874511E+00 a       421     0    15     1     1
 -4.5321944253846631E+00 a       422     0    15     1     2
 -7.8381281428528879E+01 a       423     0    15     1     3
 -5.1767707981257249E+00 a       424     0    15     1     4
 -2.3507927268349036E+01 a       425     0    15     1     5
  5.5474685207149385E+01 a       426     0    15     1     6
 -1.4314546933551217E+01 a       427     0    15     1     7
  1.2189951047794931E+01 a       428     0    15     1     8
 -1.0553677583867331E+02 a       429     0    15     1     9
  1.3791873400053726E+01 a       430     0    15     1    10
  2.7743252573355111E+01 a       431     0    15     1    11
  1.5397531975622398E+01 a       432     0    15     1    12
 -2.3387122427396228E+01 a       433     0    15     1    13
 -6.2306486579268324E+01 a       434     0    15     1    14
  1.2669729969547333E+01 a       435     0    15     1    15
 -3.4700799319261293E+01 a       436     0    15     1    16
 -2.7660840938205656E+01 a       437     0    15     1    17
 -2.1857299275496345E+01 a       438     0    15     1    18
 -7.2201569997304311E+00 a       439     0    15     1    19
 -1.8298339172523509E+01 a       440     0    15     1    20
 -6.4302892744130304E+01 a       441     0    15     1    21
  2.2954385872519887E+00 a       442     0    15     1    22
 -3.0405744724677675E+01 a       443     0    15     1    23
  1.9463086929721531E+01 a       444     0    15     1    24
 -2.1032718783103775E+01 a       445     0    15     1    25
 -4.4558887976289022E+01 a       446     0    15     1    26
 -6.9241953343068952E+00 a       447     0    15     1    27
 -2.2943742179667300E+01 a       448     0    15     1    28
 -2.0724483934692337E+01 a       449     0    15     1    29
  3.2960341336215627E+01 a       450     0    15     1    30
  2.7002077589720408E+01 a       451     0    16     1     1
  9.7393606389591501E+00 a       452     0    16     1     2
 -3.8105429519182941E+01 a       453     0    16     1     3
  1.9584307979477565E+01 a       454     0    16     1     4
  1.4470879374061870E+01 a       455     0    16     1     5
  2.0910782200058318E+01 a       456     0    16     1     6
  1.9670457183416744E+01 a       457     0    16     1     7
  1.2963863397456377E+01 a       458     0    16     1     8
  9.0003144626341776E+00 a       459     0    16     1     9
  8.0696284110745768E+00 a       460     0    16     1    10
 -2.7091582328581772E+01 a       461     0    16     1    11
 -9.5167087960414722E+00 a       462     0    16     1    12
 -2.5087301192342967E+01 a       463     0    16     1    13
  4.3937370562259552E+01 a       464     0    16     1    14
 -4.3144786490460120E+01 a       465     0    16     1    15
 -7.8700319623480990E+00 a       466     0    16     1    16
  1.9011193265372981E+01 a       467     0    16     1    17
  6.7317037943216079E+01 a       468     0    16     1    18
  1.6973873731919472E+01 a       469     0    16     1    19
  2.8695157622827320E+01 a       470     0    16     1    20
  5.8052362579938922E+01 a       471     0    16     1    21
 -2.5340038323262874E+01 a       472     0    16     1    22
  5.9641733447232141E+00 a       473     0    16     1    23
 -3.1879735049909449E+01 a       474     0    16     1    24
  2.9552069575799248E+01 a       475     0    16     1    25
  9.2147793866604366E-01 a       476     0    16     1    26
 -5.3600330036122230E+01 a       477     0    16     1    27
  1.1896098326400377E+01 a       478     0    16     1    28
 -8.9808604985970347E-02 a       479     0    16     1    29
  6.3553965340339742E+00 a       480     0    16     1    30
  1.3152704463444802E+01 a       481     0    17     1     1
 -3.8206302683891797E+00 a       482     0    17     1     2
 -4.5960210421423412E+01 a       483     0    17     1     3
 -8.4490814292816352E-01 a       484     0    17     1     4
  7.7835566435226813E+00 a       485     0    17     1     5
  1.2717768988526656E+01 a       486     0    17     1     6
 -1.6180530486836584E+01 a       487     0    17     1     7
 -4.1449037130754194E+00 a       488     0    17     1     8
  2.2930351165243213E+01 a       489     0    17     1     9
 -1.0270677094400011E+01 a       490     0    17     1    10
 -1.7772088417878113E+01 a       491     0    17     1    11
 -9.7505248718796906E+00 a       492     0    17     1    12
  2.2471126840831023E+01 a       493     0    17     1    13
 -8.6080302322243014E+00 a       494     0    17     1    14
 -1.7566983533447992E+01 a       495     0    17     1    15
  4.7294505294203217E+00 a       496     0    17     1    16
  2.6573304790193205E+01 a       497     0    17     1    17
  1.3737086018027171E+01 a       498     0    17     1    18
  1.4222315780140727E+01 a       499     0    17     1    19
  2.1136914020061135E+00 a       500     0    17     1    20
  2.4153593876997896E+01 a       501     0    17     1    21
  1.2419895067643868E+01 a       502     0    17     1    22
  2.6867413353380091E+01 a       503     0    17     1    23
  3.2769427832238267E+00 a       504     0    17     1    24
 -1.1392768585662634E+00 a       505     0    17     1    25
  1.1672365811662578E+01 a       506     0    17     1    26
 -2.2776130763558740E+01 a       507     0    17     1    27
  2.1937768912801062E+01 a       508     0    17     1    28
 -2.2053742296495980E+00 a       509     0    17     1    29
  2.5805490482721570E+01 a       510     0    17     1    30
  1.3319637942485240E+01 a       511     0    18     1     1
  2.8319014403909071E-01 a       512     0    18     1     2
  2.0501191822453055E+01 a       513     0    18     1     3
  3.3014834081360704E+01 a       514     0    18     1     4
  1.3959252045558211E+01 a       515     0    18     1     5
  2.6831907389857594E+00 a       516     0    18     1     6
  2.8276116098462062E+01 a       517     0    18     1     7
 -2.0342296657897236E+01 a       518     0    18     1     8
  4.3224979764772357E+01 a       519     0    18     1     9
  3.4843343862350769E+00 a       520     0    18     1    10
  4.8743875285997467E+00 a       521     0    18     1    11
 -6.0441781961258609E+00 a       522     0    18     1    12
  2.5965416610601313E+01 a       523     0    18     1    13
 -3.7845079449086484E+01 a       524     0    18     1    14
 -2.9436169084762117E+01 a       525     0    18     1    15
  2.0504857199873605E+01 a       526     0    18     1    16
 -2.5800741057020922E+01 a       527     0    18     1    17
  5.0563724063897396E+01 a       528     0    18     1    18
 -3.1916077280324995E+00 a       529     0    18     1    19
 -1.5734882176038331E+01 a       530     0    18     1    20
 -6.0107410010729813E-02 a       531     0    18     1    21
  2.6714392095610453E+01 a       532     0    18     1    22
  9.7855308268121348E+00 a       533     0    18     1    23
  6.0450027220229593E+01 a       534     0    18     1    24
 -4.1375456691092822E+01 a       535     0    18     1    25
  1.4515291189159655E+01 a       536     0    18     1    26
  5.5528114244013793E+01 a       537     0    18     1    27
  2.4040302510498545E+01 a       538     0    18     1    28
 -4.7097860530229196E+00 a       539     0    18     1    29
  3.7229397392930942E+01 a       540     0    18     1    30
  1.4642455394587532E+01 a       541     0    19     1     1
  4.1771355911655661E-01 a       542     0    19     1     2
  1.4835356520859553E+00 a       543     0    19     1     3
  1.8855750577285939E+01 a       544     0    19     1     4
 -9.9050324593970906E-01 a       545     0    19     1     5
  2.2550724076909468E+01 a       546     0    19     1     6
  1.0173811405311412E+01 a       547     0    19     1     7
 -1.7752237880435928E+00 a       548     0    19     1     8
 -2.5480233484786027E+01 a       549     0    19     1     9
  9.4272821367186699E-01 a       550     0    19     1    10
  6.1166202795131825E+00 a       551     0    19     1    11
  1.9344825926746709E+00 a       552     0    19     1    12
 -1.7574346272374353E+01 a       553     0    19     1    13
 -5.0595823811898278E+01 a       554     0    19     1    14
 -1.4469089851619376E+01 a       555     0    19     1    15
 -1.9240146865110322E+01 a       556     0    19     1    16
 -1.1410078948338311E+01 a       557     0    19     1    17
 -6.9913870974435914E+00 a       558     0    19     1    18
  1.7894238787786219E+00 a       559     0    19     1    19
 -1.1481816668790467E+01 a       560     0    19     1    20
  3.0683110362304969E+01 a       561     0    19     1    21
  2.5015754321800589E+01 a       562     0    19     1    22
 -1.0259451674157110E+00 a       563     0    19     1    23
  1.9028872497990424E+01 a       564     0    19     1    24
 -1.2976792527442639E+01 a       565     0    19     1    25
 -1.2544566115616695E+01 a       566     0    19     1    26
 -1.2437797369854131E+01 a       567     0    19     1    27
  1.6829480243401933E+00 a       568     0    19     1    28
 -2.6927560778819895E+00 a       569     0    19     1    29
  1.8190402129911745E-01 a       570     0    19     1    30
  2.3740654346607286E+01 a       571     0    20     1     1
  6.0119097241258084E+00 a       572     0    20     1     2
  2.3515191634520114E+01 a       573     0    20     1     3
  4.2911857314205491E+01 a       574     0    20     1     4
  8.6369719109496190E-01 a       575     0    20     1     5
  2.1172255449059016E+00 a       576     0    20     1     6
  1.3889064069349507E+01 a       577     0    20     1     7
 -8.2350073196476856E+00 a       578     0    20     1     8
 -7.7225741871428859E+00 a       579     0    20     1     9
  1.4183383871301176E+01 a       580     0    20     1    10
  3.6432574199553407E+01 a       581     0    20     1    11
 -9.3553902088078917E+00 a       582     0    20     1    12
  4.6151446222888367E+01 a       583     0    20     1    13
 -2.5012677478015792E+01 a       584     0    20     1    14
 -2.5181252081543839E+01 a       585     0    20     1    15
 -1.0361707925337940E+01 a       586     0    20     1    16
  2.8378270285755992E+01 a       587     0    20     1    17
 -1.1651495128742908E+01 a       588     0    20     1    18
 -4.3524623779712757E-01 a       589     0    20     1    19
  1.2421716161811428E+01 a       590     0    20     1    20
  5.4926221211642520E+01 a       591     0    20     1    21
 -3.4969659289844355E+00 a       592     0    20     1    22
 -3.8825525473533586E+00 a       593     0    20     1    23
 -2.8391762959710857E+01 a       594     0    20     1    24
  2.9237001536755032E+00 a       595     0    20     1    25
  1.0857801231192942E+01 a       596     0    20     1    26
  1.6912311106521358E+01 a       597     0    20     1    27
  5.0012550522070232E+00 a       598     0    20     1    28
  8.7285126332872185E+00 a       599     0    20     1    29
 -2.0091697228032601E+01 a       600     0    20     1    30
 -2.2136404472047996E+01 a       601     0    21     1     1
 -1.2628927321727877E+01 a       602     0    21     1     2
  8.1119097731593769E+01 a       603     0    21     1     3
 -3.7657227375593147E+00 a       604     0    21     1     4
  2.5782148741976762E+01 a       605     0    21     1     5
 -3.4208142115926471E+01 a       606     0    21     1     6
  1.6099099817197636E+01 a       607     0    21     1     7
 -7.7126362274903650E+00 a       608     0    21     1     8
  8.3255191291008799E+01 a       609     0    21     1     9
 -1.2050959452862358E+01 a       610     0    21     1    10
 -3.7446508816237618E+01 a       611     0    21     1    11
 -3.1620650780341815E+00 a       612     0    21     1    12
 -2.0649681257189425E+01 a       613     0    21     1    13
  4.9331853882081340E+01 a       614     0    21     1    14
  1.4896638618935144E+01 a       615     0    21     1    15
  1.9237153628304895E+01 a       616     0    21     1    16
 -6.1719367430802319E-01 a       617     0    21     1    17
 -2.9468972931457582E+01 a       618     0    21     1    18
  1.0775267918259175E+01 a       619     0    21     1    19
  1.9862009485732070E+01 a       620     0    21     1    20
  1.4976263638777542E+01 a       621     0    21     1    21
 -2.3925818324806811E+00 a       622     0    21     1    22
  1.3934857080112284E+01 a       623     0    21     1    23
 -7.0123572546930948E+00 a       624     0    21     1    24
  1.6082993773123221E+01 a       625     0    21     1    25
  3.3136236092105946E+01 a       626     0    21     1    26
  1.7991773137630670E+01 a       627     0    21     1    27
  6.5578182830891434E+00 a       628     0    21     1    28
  2.5579712208682857E+01 a       629     0    21     1    29
 -3.8884196396477677E+01 a       630     0    21     1    30
 -3.3145994950236479E-01 a       631     0    22     1     1
  2.6185003187411553E+00 a       632     0    22     1     2
  2.0150667405008274E+01 a       633     0    22     1     3
 -2.0825566884409284E+01 a       634     0    22     1     4
 -1.0211841758071236E+01 a       635     0    22     1     5
 -4.7994781025973147E+01 a       636     0    22     1     6
 -1.4635863664409687E+01 a       637     0    22     1     7
  1.3529605875921416E+01 a       638     0    22     1     8
  2.2100349228181081E+01 a       639     0    22     1     9
  1.9596697518774018E+01 a       640     0    22     1    10
 -1.6144777757729063E+00 a       641     0    22     1    11
 -1.0774963509653050E+01 a       642     0    22     1    12
  1.6358348082485556E+01 a       643     0    22     1    13
  3.9441638644468043E+01 a       644     0    22     1    14
  5.4835882943527118E+01 a       645     0    22     1    15
 -1.6409821630902616E+01 a       646     0    22     1    16
  1.1997386462674978E+01 a       647     0    22     1    17
 -8.9864176854478028E+00 a       648     0    22     1    18
 -9.4819686484862287E-01 a       649     0    22     1    19
  1.9178791166798661E+01 a       650     0    22     1    20
  1.4117365636305881E+00 a       651     0    22     1    21
 -1.3779459183989951E+01 a       652     0    22     1    22
  8.4082830821754595E-01 a       653     0    22     1    23
 -4.9751327230362570E+01 a       654     0    22     1    24
  1.7459992373171573E+01 a       655     0    22     1    25
  5.7832650107475017E+00 a       656     0    22     1    26
  1.0554039807773590E+01 a       657     0    22     1    27
 -1.0490247555043702E+01 a       658     0    22     1    28
 -2.3904882628454778E+00 a       659     0    22     1    29
 -4.7907415277298995E+01 a       660     0    22     1    30
 -2.8045754652951562E+01 a       661     0    23     1     1
  9.4867833627979294E+00 a       662     0    23     1     2
  6.6552205098155568E+01 a       663     0    23     1     3
  4.3035718564433509E+01 a       664     0    23     1     4
 -1.1653077505406959E+01 a       665     0    23     1     5
  1.9915117409353172E+01 a       666     0    23     1     6
  9.2572105852598039E+00 a       667     0    23     1     7
  6.7681216376581466E+00 a       668     0    23     1     8
 -1.8318234231149443E+01 a       669     0    23     1     9
  1.2692839186768823E+00 a       670     0    23     1    10
  7.2941897599228893E+00 a       671     0    23     1    11
  2.4863637384213824E+01 a       672     0    23     1    12
 -1.0137985324342052E+01 a       673     0    23     1    13
  2.5237256146658861E+01 a       674     0    23     1    14
  2.5127681053697437E+01 a       675     0    23     1    15
  3.1451111237112670E+01 a       676     0    23     1    16
 -1.1241656543790523E+01 a       677     0    23     1    17
 -3.0821561103468081E-01 a       678     0    23     1    18
 -3.1234189734202609E+01 a       679     0    23     1    19
 -2.7982671823020279E+01 a       680     0    23     1    20
 -3.6066325403467573E+01 a       681     0    23     1    21
 -3.7303428665655545E+01 a       682     0    23     1    22
 -3.8732314796390000E+01 a       683     0    23     1    23
 -1.9048772328274833E+01 a       684     0    23     1    24
  1.3917087107659013E+01 a       685     0    23     1    25
 -9.9916202819236943E+00 a       686     0    23     1    26
  1.3156427212310611E+01 a       687     0    23     1    27
 -3.8265115200196043E+01 a       688     0    23     1    28
  1.0441753009749617E+01 a       689     0    23     1    29
 -4.6840733409535702E+01 a       690     0    23     1    30
 -1.2552872964678427E+01 a       691     0    24     1     1
  2.0201416596436497E+00 a       692     0    24     1     2
  4.0309230663906327E+01 a       693     0    24     1     3
 -2.5760421841244380E+01 a       694     0    24     1     4
 -2.9969053883645550E+01 a       695     0    24     1     5
 -3.0445755203797376E+01 a       696     0    24     1     6
 -2.9038226310452959E+01 a       697     0    24     1     7
  1.4130176493279252E+00 a       698     0    24     1     8
 -2.5573497501744001E+01 a       699     0    24     1     9
 -1.1338045682206122E+01 a       700     0    24     1    10
  1.8804166117960781E+00 a       701     0    24     1    11
 -8.9282405960023610E+00 a       702     0    24     1    12
  1.9514472569698825E+01 a       703     0    24     1    13
 -4.9885513591288628E+00 a       704     0    24     1    14
  3.7720437091226103E+01 a       705     0    24     1    15
 -4.0447433162361959E+00 a       706     0    24     1    16
 -1.5931538807071085E+01 a       707     0    24     1    17
 -7.4313181106987514E+01 a       708     0    24     1    18
 -1.6703692539578576E+01 a       709     0    24     1    19
 -2.2987805579287564E+01 a       710     0    24     1    20
 -4.2971191033502159E+01 a       711     0    24     1    21
  9.5427540654330070E+00 a       712     0    24     1    22
  1.1995750415691960E+01 a       713     0    24     1    23
  2.5300383067599114E-01 a       714     0    24     1    24
 -5.7035686508355372E+00 a       715     0    24     1    25
  1.3866753642265950E+01 a       716     0    24     1    26
 -9.0806768585928541E+00 a       717     0    24     1    27
 -2.7057956460845482E+01 a       718     0    24     1    28
  2.5129241543701216E+01 a       719     0    24     1    29
 -2.9165017767072879E+01 a       720     0    24     1    30
 -2.8657725669517781E+01 a       721     0    25     1     1
 -6.5089082392074626E-01 a       722     0    25     1     2
 -6.8347770939332788E+00 a       723     0    25     1     3
 -3.6255721287301817E+01 a       724     0    25     1     4
  1.6164401167024369E+00 a       725     0    25     1     5
 -1.8245220763064040E+01 a       726     0    25     1     6
 -1.6578822967391375E+01 a       727     0    25     1     7
  5.8828466028774686E+00 a       728     0    25     1     8
  5.4390755235386294E+01 a       729     0    25     1     9
  2.1639407830877984E+00 a       730     0    25     1    10
 -1.0039679350408905E+01 a       731     0    25     1    11
 -7.6932715102711775E+00 a       732     0    25     1    12
  3.6707189011638107E+01 a       733     0    25     1    13
  8.6391369566166404E+01 a       734     0    25     1    14
  4.0689831706329237E+01 a       735     0    25     1    15
  3.2215271264993781E+01 a       736     0    25     1    16
  1.0452873956072420E+01 a       737     0    25     1    17
  1.7748131566132766E+01 a       738     0    25     1    18
 -3.0453322413838722E+00 a       739     0    25     1    19
  1.9533745301929166E+01 a       740     0    25     1    20
 -5.8479344380542649E+01 a       741     0    25     1    21
 -4.5121708884945960E+01 a       742     0    25     1    22
 -6.8157127510600227E-02 a       743     0    25     1    23
 -3.3010737145967290E+01 a       744     0    25     1    24
  2.7356456148493891E+01 a       745     0    25     1    25
  2.3390982392377850E+01 a       746     0    25     1    26
  2.9411021029085163E+01 a       747     0    25     1    27
 -3.4124277550587634E-01 a       748     0    25     1    28
  5.1063425378117939E+00 a       749     0    25     1    29
 -3.3478402801549825E+00 a       750     0    25     1    30
 -2.5727265650153885E+01 a       751     0    26     1     1
 -1.4603872607337722E+01 a       752     0    26     1     2
 -2.8963747652859901E+01 a       753     0    26     1     3
 -5.7121178751522564E+01 a       754     0    26     1     4
 -6.6049875619157676E+00 a       755     0    26     1     5
 -1.3609067914362642E+01 a       756     0    26     1     6
 -4.6057082281998547E+01 a       757     0    26     1     7
  2.2266284053954133E-01 a       758     0    26     1     8
 -5.9633247429883181E+00 a       759     0    26     1     9
 -2.7573935073930240E+01 a       760     0    26     1    10
 -4.1596722924116577E+01 a       761     0    26     1    11
  1.4158678135244607E+01 a       762     0    26     1    12
 -2.5257009382736662E+01 a       763     0    26     1    13
  5.7253519011260373E+01 a       764     0    26     1    14
  6.0717887212879610E+01 a       765     0    26     1    15
 -3.1116903567634280E+00 a       766     0    26     1    16
 -1.9131005923189878E+01 a       767     0    26     1    17
 -5.9049487285910924E+00 a       768     0    26     1    18
 -1.5178163440074399E+00 a       769     0    26     1    19
 -5.8675496569785690E-01 a       770     0    26     1    20
 -1.0342183560976277E+02 a       771     0    26     1    21
  1.4891089348219900E+01 a       772     0    26     1    22
 -1.2877385633802683E+00 a       773     0    26     1    23
  1.2379045926109848E+01 a       774     0    26     1    24
 -4.1646633537909522E-01 a       775     0    26     1    25
 -3.0562935135826372E+01 a       776     0    26     1    26
 -1.5349527944172950E+01 a       777     0    26     1    27
 -2.3970089867340736E+01 a       778     0    26     1    28
 -1.8381479320835080E+01 a       779     0    26     1    29
  3.9091453103920304E+00 a       780     0    26     1    30
 -1.1551250411042442E+01 a       781     0    27     1     1
  3.1802155226158902E+01 a       782     0    27     1     2
  3.0918528855723999E+01 a       783     0    27     1     3
 -3.4219974842783152E+01 a       784     0    27     1     4
  9.9177545374858145E+00 a       785     0    27     1     5
 -2.5495779604725396E+01 a       786     0    27     1     6
  1.3314710041601781E+01 a       787     0    27     1     7
 -2.3395424254314836E+01 a       788     0    27     1     8
  9.0601334431019424E+01 a       789     0    27     1     9
 -4.9155655556065049E+01 a       790     0    27     1    10
 -7.8176735923999443E+00 a       791     0    27     1    11
 -7.0836144107076029E+00 a       792     0    27     1    12
  1.0621747104536203E+01 a       793     0    27     1    13
  4.8587344288021384E+01 a       794     0    27     1    14
 -4.8730352515458073E+01 a       795     0    27     1    15
  2.2308325294570817E+01 a       796     0    27     1    16
  2.4743178494130909E+01 a       797     0    27     1    17
  1.6782663158508338E+01 a       798     0    27     1    18
 -1.2292238489785140E+01 a       799     0    27     1    19
  3.2308927222325394E+01 a       800     0    27     1    20
  5.9603321062132167E+01 a       801     0    27     1    21
  7.8255228196730249E+00 a       802     0    27     1    22
  2.0932392648810037E+01 a       803     0    27     1    23
  7.8100143767737418E+00 a       804     0    27     1    24
  7.6303944846183684E+00 a       805     0    27     1    25
  3.2911601053706100E+01 a       806     0    27     1    26
  9.1637085714899946E+00 a       807     0    27     1    27
  4.3929678144665452E+01 a       808     0    27     1    28
  1.4458781812710759E+01 a       809     0    27     1    29
  2.0063905937155976E+01 a       810     0    27     1    30
 -9.4811300284116697E+00 a       811     0    28     1     1
 -3.4185164858145596E+00 a       812     0    28     1     2
 -1.5416286926665004E+01 a       813     0    28     1     3
 -2.0248977916867705E+01 a       814     0    28     1     4
 -1.2952182853283425E+01 a       815     0    28     1     5
 -1.4879963617944366E+01 a       816     0    28     1     6
 -2.3342493362568934E+01 a       817     0    28     1     7
 -2.4674829406352656E+00 a       818     0    28     1     8
 -3.6871045285917397E+01 a       819     0    28     1     9
  2.6773391379301955E+01 a       820     0    28     1    10
  6.0546685643938829E+01 a       821     0    28     1    11
  9.5420213367072506E+00 a       822     0    28     1    12
  3.2754192182459256E+01 a       823     0    28     1    13
 -4.4575931688545865E+01 a       824     0    28     1    14
  3.0803713838624653E+01 a       825     0    28     1    15
 -1.8472416796512334E+01 a       826     0    28     1    16
  1.1609868539306071E+01 a       827     0    28     1    17
  1.4685931507620397E+01 a       828     0    28     1    18
 -1.3142175130576158E+01 a       829     0    28     1    19
 -5.2946260556614044E+00 a       830     0    28     1    20
 -8.5021739090139583E+00 a       831     0    28     1    21
  1.3621515492084782E+01 a       832     0    28     1    22
 -3.1010842503670787E+01 a       833     0    28     1    23
 -2.6109699300775855E+00 a       834     0    28     1    24
 -1.7852425946538602E+01 a       835     0    28     1    25
 -3.0894746004775616E+01 a       836     0    28     1    26
  6.9296193915934367E+01 a       837     0    28     1    27
 -6.3398000803564010E+00 a       838     0    28     1    28
 -3.9203462421973200E+01 a       839     0    28     1    29
  1.5647757298342071E+01 a       840     0    28     1    30
  1.8171671029046994E+01 a       841     0    29     1     1
 -7.9756868007108350E+00 a       842     0    29     1     2
 -5.9780979038731648E+00 a       843     0    29     1     3
 -6.1793197452332421E+01 a       844     0    29     1     4
  4.3819345367764324E+00 a       845     0    29     1     5
 -4.7208994604002008E+01 a       846     0    29     1     6
  2.5776776438671490E+01 a       847     0    29     1     7
 -1.1004226180967989E+00 a       848     0    29     1     8
 -1.8674324109333934E+01 a       849     0    29     1     9
  1.1660950644577149E+01 a       850     0    29     1    10
  3.6573104787352044E+01 a       851     0    29     1    11
 -2.1295637721869525E+01 a       852     0    29     1    12
 -1.7735004479276608E+01 a       853     0    29     1    13
 -2.1635281190068518E+01 a       854     0    29     1    14
 -1.0241600773798300E+01 a       855     0    29     1    15
 -3.9792777288881140E+01 a       856     0    29     1    16
 -3.3272816023796899E+01 a       857     0    29     1    17
 -1.4421839122519755E+01 a       858     0    29     1    18
  2.4923317595421643E+01 a       859     0    29     1    19
  3.1953062247695069E+01 a       860     0    29     1    20
  2.4312416079439487E+01 a       861     0    29     1    21
  2.3028291220825206E+01 a       862     0    29     1    22
  1.3341627594317158E+01 a       863     0    29     1    23
  1.5850412672859774E+01 a       864     0    29     1    24
 -2.2762465794937405E+01 a       865     0    29     1    25
 -3.8726574434328485E+00 a       866     0    29     1    26
  3.0787821273389849E+01 a       867     0    29     1    27
  2.2147482566522090E+01 a       868     0    29     1    28
 -1.2835345134051700E+01 a       869     0    29     1    29
  1.9435496348153187E+01 a       870     0    29     1    30
 -2.6299923233665623E+01 a       871     0    30     1     1
 -2.5935805410582589E+01 a       872     0    30     1     2
 -2.8572668827246699E+00 a       873     0    30     1     3
 -5.1431535037066451E+00 a       874     0    30     1     4
  1.0686974155999492E+01 a       875     0    30     1     5
  1.2055621060369029E+01 a       876     0    30     1     6
 -2.4629321893147704E+01 a       877     0    30     1     7
 -1.4511199737266620E+00 a       878     0    30     1     8
 -7.1928400941217646E+01 a       879     0    30     1     9
 -1.8609998926583032E+01 a       880     0    30     1    10
  7.9745271392096457E+00 a       881     0    30     1    11
  1.6010938038150996E+01 a       882     0    30     1    12
 -1.1386812838604213E+01 a       883     0    30     1    13
 -3.4018472655005439E+01 a       884     0    30     1    14
 -3.2615038894326389E+01 a       885     0    30     1    15
 -8.6555832742671743E+00 a       886     0    30     1    16
  8.9266845206540850E+00 a       887     0    30     1    17
 -4.4480298568858892E+01 a       888     0    30     1    18
  1.7024610351898044E+01 a       889     0    30     1    19
 -2.2022224434732824E+01 a       890     0    30     1    20
  8.8086880044353375E+00 a       891     0    30     1    21
 -1.5644711464000016E+01 a       892     0    30     1    22
 -1.4025771766093770E+01 a       893     0    30     1    23
 -1.3204509965366597E+01 a       894     0    30     1    24
  2.4060497040530983E+01 a       895     0    30     1    25
 -1.6999227733763000E+01 a       896     0    30     1    26
 -3.9215425719218374E+01 a       897     0    30     1    27
 -1.2391260436197072E+01 a       898     0    30     1    28
 -3.5167146958076251E-01 a       899     0    30     1    29
  1.6366869839808619E+01 a       900     0    30     1    30
  2.2486590503847747E+01 a       901     0    31     1     1
  3.7565308722125407E-01 a       902     0    31     1     2
  1.2937230125973558E+00 a       903     0    31     1     3
  1.9752244068670375E+01 a       904     0    31     1     4
 -6.4864404159782307E-01 a       905     0    31     1     5
 -5.7049254355211465E-01 a       906     0    31     1     6
  7.1413430593763003E+00 a       907     0    31     1     7
 -5.1150255361572219E+00 a       908     0    31     1     8
 -3.7504439620495525E+01 a       909     0    31     1     9
 -5.9295789218829951E+00 a       910     0    31     1    10
  2.2332801156949595E+00 a       911     0    31     1    11
  1.0328508041882742E+01 a       912     0    31     1    12
 -3.0456861481583342E+01 a       913     0    31     1    13
 -4.4548420857745754E+01 a       914     0    31     1    14
 -4.0227709143248049E+01 a       915     0    31     1    15
 -8.8941817690313698E+00 a       916     0    31     1    16
  7.7617873999012277E+00 a       917     0    31     1    17
 -1.7769590864923778E+01 a       918     0    31     1    18
  1.5126032849553801E+00 a       919     0    31     1    19
 -3.8801217869938847E+00 a       920     0    31     1    20
  3.7393394560205110E+01 a       921     0    31     1    21
  3.0955278112240226E+01 a       922     0    31     1    22
  8.1092705509314311E-01 a       923     0    31     1    23
  1.7075263578445501E+01 a       924     0    31     1    24
 -1.8743117400705859E+01 a       925     0    31     1    25
 -1.5041510652499921E+01 a       926     0    31     1    26
 -2.7038116709171486E+01 a       927     0    31     1    27
 -3.5707523000271739E+00 a       928     0    31     1    28
 -3.3805362019380034E+00 a       929     0    31     1    29
  6.5612920586858445E+00 a       930     0    31     1    30
 -2.3999738082774167E+00 a       931     0    32     1     1
  1.1722816981804129E+01 a       932     0    32     1     2
 -1.1273967269926436E+01 a       933     0    32     1     3
  2.1368704082321162E+01 a       934     0    32     1     4
  1.1628181076560244E+01 a       935     0    32     1     5
  2.6485070019461418E+01 a       936     0    32     1     6
  4.3200857527530253E+01 a       937     0    32     1     7
  1.6854119793437228E+01 a       938     0    32     1     8
  2.5330586564510462E+01 a       939     0    32     1     9
  9.8178848969708916E+00 a       940     0    32     1    10
  5.7754818758628765E+00 a       941     0    32     1    11
  1.5514101934658022E+01 a       942     0    32     1    12
 -5.7143581816292965E+01 a       943     0    32     1    13
 -2.0442984829929554E+01 a       944     0    32     1    14
 -4.2851208760605047E+01 a       945     0    32     1    15
  2.5551369406984794E+01 a       946     0    32     1    16
 -1.8767259724185802E+01 a       947     0    32     1    17
  3.1962772961663930E+01 a       948     0    32     1    18
  5.0020119896443305E+00 a       949     0    32     1    19
 -2.8395854408494493E+01 a       950     0    32     1    20
  6.1994321791373480E+01 a       951     0    32     1    21
 -1.9331356264619139E+01 a       952     0    32     1    22
  5.9916638255736236E+00 a       953     0    32     1    23
  3.3470832712511843E+01 a       954     0    32     1    24
  8.0558815025720776E+00 a       955     0    32     1    25
  1.9083436184111161E+01 a       956     0    32     1    26
 -2.3720809667937761E+01 a       957     0    32     1    27
  2.4486338294820882E+01 a       958     0    32     1    28
  9.3149070270530299E+00 a       959     0    32     1    29
  2.7705710452345212E+01 a       960     0    32     1    30
  4.9467257130753850E+01 a       961     0    33     1     1
 -2.2836206774267559E+01 a       962     0    33     1     2
 -2.7772186082555873E+01 a       963     0    33     1     3
  4.1132257401187758E+01 a       964     0    33     1     4
 -1.6809642352013427E+01 a       965     0    33     1     5
  3.2953776363750961E+01 a       966     0    33     1     6
 -1.7652134868527498E+00 a       967     0    33     1     7
  1.7846888476196536E+01 a       968     0    33     1     8
 -8.8322298455822363E+01 a       969     0    33     1     9
  1.1129200050092475E+01 a       970     0    33     1    10
  2.5903055301297478E+01 a       971     0    33     1    11
  1.2035257279903071E+00 a       972     0    33     1    12
  4.1209578821681887E+01 a       973     0    33     1    13
 -6.6141431193213222E+01 a       974     0    33     1    14
  1.0757238128376585E+01 a       975     0    33     1    15
 -1.7000181136227752E+00 a       976     0    33     1    16
  6.2657237407218052E+00 a       977     0    33     1    17
  1.5776562405791168E+01 a       978     0    33     1    18
  1.2378741526651558E+01 a       979     0    33     1    19
 -5.1456090723474304E+01 a       980     0    33     1    20
 -3.8096311445243600E+01 a       981     0    33     1    21
 -1.2872614654538905E+01 a       982     0    33     1    22
 -2.2099334438354550E+00 a       983     0    33     1    23
 -9.3203709394218865E+00 a       984     0    33     1    24
 -5.0179452669928104E-01 a       985     0    33     1    25
 -1.6105257293580028E+01 a       986     0    33     1    26
 -5.7713793819845492E+01 a       987     0    33     1    27
 -3.4305267941545644E+01 a       988     0    33     1    28
 -1.3725258239616712E+01 a       989     0    33     1    29
 -1.0590881041402017E+01 a       990     0    33     1    30
  1.9756764926327445E+01 a       991     0    34     1     1
 -1.0742389029451511E+01 a       992     0    34     1     2
 -3.1110834021461855E+01 a       993     0    34     1     3
  2.5964554533856305E+01 a       994     0    34     1     4
 -3.6786657782456866E+00 a       995     0    34     1     5
  3.5205367718651033E+01 a       996     0    34     1     6
  5.6696551023624153E-01 a       997     0    34     1     7
  4.6248355877989775E+00 a       998     0    34     1     8
 -1.9177195207338428E+01 a       999     0    34     1     9
  3.0437630869202732E+01 a      1000     0    34     1    10
  6.4295258963715325E+00 a      1001     0    34     1    11
 -1.3542654660282928E+01 a      1002     0    34     1    12
 -3.3141088042515520E+01 a      1003     0    34     1    13
 -1.8570713118701207E+01 a      1004     0    34     1    14
  1.6284737068457758E+01 a      1005     0    34     1    15
  2.1793600745237839E+01 a      1006     0    34     1    16
 -1.0215142503357457E+01 a      1007     0    34     1    17
  1.0377381390139813E+00 a      1008     0    34     1    18
 -4.1383721818568175E-01 a      1009     0    34     1    19
 -1.9512308692025961E+01 a      1010     0    34     1    20
 -3.1633918350512655E+01 a      1011     0    34     1    21
  4.0288275742415856E+01 a      1012     0    34     1    22
  6.6348703591409022E+00 a      1013     0    34     1    23
  5.2322321056045247E+01 a      1014     0    34     1    24
 -3.7180806851834340E+01 a      1015     0    34     1    25
 -1.0280813557644013E+01 a      1016     0    34     1    26
  1.3995529581551404E+01 a      1017     0    34     1    27
 -1.7123134770855419E+00 a      1018     0    34     1    28
  3.4908523305279826E+00 a      1019     0    34     1    29
  1.7310530276280252E+00 a      1020     0    34     1    30
 -1.9202352490515935E+00 a      1021     0    35     1     1
  3.0681787988544222E+00 a      1022     0    35     1     2
 -2.6372452495492745E+01 a      1023     0    35     1     3
  3.4025299960386896E+01 a      1024     0    35     1     4
 -3.4862696112300234E-01 a      1025     0    35     1     5
  8.2043977904421350E+00 a      1026     0    35     1     6
 -2.5761824872162961E+01 a      1027     0    35     1     7
 -5.1047737871805108E+00 a      1028     0    35     1     8
  1.9366092959689698E+01 a      1029     0    35     1     9
  4.4697387638619324E-01 a      1030     0    35     1    10
 -3.6164380772490773E+01 a      1031     0    35     1    11
  2.4173604482953039E+00 a      1032     0    35     1    12
  1.5264785713985901E+01 a      1033     0    35     1    13
  9.9194774322150074E+00 a      1034     0    35     1    14
  1.8205427839888910E+00 a      1035     0    35     1    15
 -1.8572870514790512E+00 a      1036     0    35     1    16
  2.7072680231414978E+01 a      1037     0    35     1    17
  5.6671615439497147E+00 a      1038     0    35     1    18
 -9.8255756376180567E+00 a      1039     0    35     1    19
 -8.8425743988072174E+00 a      1040     0    35     1    20
 -1.1117743827412550E+01 a      1041     0    35     1    21
  1.8108234590544909E+00 a      1042     0    35     1    22
  1.6597529231211223E+00 a      1043     0    35     1    23
  1.8669030908917348E+00 a      1044     0    35     1    24
  1.2842955016416660E+01 a      1045     0    35     1    25
  6.9325741436276411E+00 a      1046     0    35     1    26
 -2.8162641276562834E+01 a      1047     0    35     1    27
 -6.3046504157328709E+00 a      1048     0    35     1    28
  4.6044326600220833E+00 a      1049     0    35     1    29
  5.1399200271577987E+00 a      1050     0    35     1    30
 -4.6910800871994480E+00 a      1051     0    36     1     1
  3.1985925221462033E+01 a      1052     0    36     1     2
 -3.0645049041609028E+01 a      1053     0    36     1     3
  3.3430832035803029E+01 a      1054     0    36     1     4
  2.4965269641597732E+01 a      1055     0    36     1     5
  1.9772396872929971E+01 a      1056     0    36     1     6
  3.2159343287831533E+01 a      1057     0    36     1     7
 -4.7318889238289721E+00 a      1058     0    36     1     8
  8.0431342815311851E+01 a      1059     0    36     1     9
 -1.9076897775995622E+01 a      1060     0    36     1    10
 -7.3679612008829238E+01 a      1061     0    36     1    11
  2.6972910832930676E+01 a      1062     0    36     1    12
 -5.8626546373619675E+01 a      1063     0    36     1    13
  8.7168918892535217E+01 a      1064     0    36     1    14
 -3.8054724290731812E+01 a      1065     0    36     1    15
  3.2721710151424070E+01 a      1066     0    36     1    16
 -1.0187600758939146E+01 a      1067     0    36     1    17
  2.2273796325172462E+01 a      1068     0    36     1    18
 -9.4566000327905686E-01 a      1069     0    36     1    19
  2.3499136927100611E+01 a      1070     0    36     1    20
  1.9768854681150525E+01 a      1071     0    36     1    21
 -2.2425903872720831E+01 a      1072     0    36     1    22
  1.1319898974415128E+01 a      1073     0    36     1    23
 -3.6029536942975828E+00 a      1074     0    36     1    24
  1.8319404246275287E+01 a      1075     0    36     1    25
  1.0368279236543984E+01 a      1076     0    36     1    26
 -3.7554166780827934E+01 a      1077     0    36     1    27
  2.6387545090490281E+01 a      1078     0    36     1    28
  1.4110932773327821E+01 a      1079     0    36     1    29
  6.0573290802967419E+00 a      1080     0    36     1    30
 -1.1693624447792653E+01 a      1081     0    37     1     1
 -3.0058410113474104E-01 a      1082     0    37     1     2
  4.2932317819251899E+00 a      1083     0    37     1     3
 -1.1423517083198351E+00 a      1084     0    37     1     4
 -1.2899259267325974E-01 a      1085     0    37     1     5
 -9.5979966673261785E+00 a      1086     0    37     1     6
 -1.6693081588650757E-01 a      1087     0    37     1     7
  3.9512341791309785E-01 a      1088     0    37     1     8
  9.8066558927866723E+00 a      1089     0    37     1     9
  3.8155129266917549E+00 a      1090     0    37     1    10
  2.1896827048796150E+00 a      1091     0    37     1    11
 -7.8053839413199357E+00 a      1092     0    37     1    12
  1.6498754855931093E+01 a      1093     0    37     1    13
  5.6830624092064888E+00 a      1094     0    37     1    14
  2.0535324722528568E+01 a      1095     0    37     1    15
 -8.5898384892603872E+00 a      1096     0    37     1    16
 -1.1412142953503148E+01 a      1097     0    37     1    17
  9.7732565206548170E+00 a      1098     0    37     1    18
 -2.6573417737483207E-01 a      1099     0    37     1    19
 -9.2825491171245638E+00 a      1100     0    37     1    20
 -1.1186953955233738E+01 a      1101     0    37     1    21
 -1.4464150242808197E+01 a      1102     0    37     1    22
  1.2469498719823718E-01 a      1103     0    37     1    23
 -2.3289881789502083E+00 a      1104     0    37     1    24
  4.7157381725095764E+00 a      1105     0    37     1    25
  4.3234571515415112E+00 a      1106     0    37     1    26
  1.1838748801883508E+01 a      1107     0    37     1    27
  3.4049101213634323E+00 a      1108     0    37     1    28
  1.2241203665088063E+00 a      1109     0    37     1    29
 -6.4401589579394889E+00 a      1110     0    37     1    30
  7.3469579228535915E+00 a      1111     0    38     1     1
 -3.2502298137318966E+00 a      1112     0    38     1     2
  1.5514548147614256E+01 a      1113     0    38     1     3
 -1.4275858103833164E+01 a      1114     0    38     1     4
 -6.7349087479402714E+00 a      1115     0    38     1     5
 -1.1331030341948045E+01 a      1116     0    38     1     6
 -9.7012000203916813E+00 a      1117     0    38     1     7
 -6.8391556871044124E+00 a      1118     0    38     1     8
 -9.8157865537090583E+00 a      1119     0    38     1     9
 -9.1703996059318515E-01 a      1120     0    38     1    10
  3.5563881795513805E+00 a      1121     0    38     1    11
 -2.0305709646661889E+01 a      1122     0    38     1    12
  4.3127326486588728E+01 a      1123     0    38     1    13
 -8.7746735587622862E+00 a      1124     0    38     1    14
  1.2573160878698358E+01 a      1125     0    38     1    15
 -1.4770443124697810E+01 a      1126     0    38     1    16
  1.6322893388574794E+01 a      1127     0    38     1    17
 -1.4032620921490906E+01 a      1128     0    38     1    18
 -2.3740143736130066E+00 a      1129     0    38     1    19
  2.6711351086701942E+01 a      1130     0    38     1    20
 -1.2015217710101325E+01 a      1131     0    38     1    21
  5.9612538917786946E+00 a      1132     0    38     1    22
 -2.8948606978631735E+00 a      1133     0    38     1    23
 -2.3468319805747623E+01 a      1134     0    38     1    24
 -8.2697494026401710E+00 a      1135     0    38     1    25
 -2.5378575250814004E+00 a      1136     0    38     1    26
  2.1565992527132398E+01 a      1137     0    38     1    27
 -7.4340008477923512E+00 a      1138     0    38     1    28
 -2.2458881458645719E+00 a      1139     0    38     1    29
 -1.8017706985121816E+01 a      1140     0    38     1    30
 -2.2200382134056692E+01 a      1141     0    39     1     1
  7.0316938324611797E+00 a      1142     0    39     1     2
  1.0710742385876328E+01 a      1143     0    39     1     3
 -1.4560833905748368E+01 a      1144     0    39     1     4
  6.4030051714645353E+00 a      1145     0    39     1     5
 -2.2878598040214307E+01 a      1146     0    39     1     6
  3.1602123965680762E+00 a      1147     0    39     1     7
 -4.6047006398971160E+00 a      1148     0    39     1     8
  2.2555686384767377E+01 a      1149     0    39     1     9
  1.9972573721336868E+01 a      1150     0    39     1    10
 -1.0774370634326987E+01 a      1151     0    39     1    11
  1.3009762448131669E+01 a      1152     0    39     1    12
 -6.4265457683461964E+00 a      1153     0    39     1    13
  2.8666528588972007E+01 a      1154     0    39     1    14
  1.8384165323832800E+00 a      1155     0    39     1    15
 -5.7250261262133249E+00 a      1156     0    39     1    16
 -2.0467952509507814E+01 a      1157     0    39     1    17
 -1.1747316051115657E+01 a      1158     0    39     1    18
 -6.5149909381740247E+00 a      1159     0    39     1    19
  2.5735321838711574E+01 a      1160     0    39     1    20
  1.0236642111871392E+01 a      1161     0    39     1    21
  3.6006331995111669E+00 a      1162     0    39     1    22
 -8.2868626624112149E+00 a      1163     0    39     1    23
 -5.1707063314550998E+00 a      1164     0    39     1    24
  2.3813556425208424E+00 a      1165     0    39     1    25
  1.9303885601017414E+00 a      1166     0    39     1    26
  3.6301573476840289E+01 a      1167     0    39     1    27
  1.3397331170301712E+00 a      1168     0    39     1    28
 -7.8279430711614069E+00 a      1169     0    39     1    29
  1.2283254908455859E+01 a      1170     0    39     1    30
 -3.9953902208602500E+01 a      1171     0    40     1     1
  1.1224919290394487E+01 a      1172     0    40     1     2
  8.4529562005793135E+00 a      1173     0    40     1     3
 -5.7907495769224573E+00 a      1174     0    40     1     4
  1.4850799334263440E+01 a      1175     0    40     1     5
  9.7046343547403762E+00 a      1176     0    40     1     6
 -2.6346952588707087E+01 a      1177     0    40     1     7
 -6.9948263400794364E+00 a      1178     0    40     1     8
  1.8922245722844188E+01 a      1179     0    40     1     9
 -3.4553706944492397E+01 a      1180     0    40     1    10
 -3.3770114764298398E+01 a      1181     0    40     1    11
 -5.1926080639416618E+01 a      1182     0    40     1    12
 -3.4542639701238038E+01 a      1183     0    40     1    13
  1.1331841759560422E+00 a      1184     0    40     1    14
 -5.3168806066115863E+01 a      1185     0    40     1    15
 -4.6756453644700953E+00 a      1186     0    40     1    16
  2.8874608265747831E+01 a      1187     0    40     1    17
 -2.7455250584233401E+01 a      1188     0    40     1    18
  1.6310502975224026E+00 a      1189     0    40     1    19
  1.3356156099830844E+01 a      1190     0    40     1    20
  5.5342458953616553E+00 a      1191     0    40     1    21
 -1.4763609428875746E+00 a      1192     0    40     1    22
  1.8495755552926642E+01 a      1193     0    40     1    23
  1.8718551092561917E+01 a      1194     0    40     1    24
  2.5209753859335797E+00 a      1195     0    40     1    25
  1.4549232714357684E+01 a      1196     0    40     1    26
 -3.6300963984244376E+01 a      1197     0    40     1    27
  2.8205588138493866E+01 a      1198     0    40     1    28
  5.3186018958535570E+01 a      1199     0    40     1    29
 -5.4908303451441514E+00 a      1200     0    40     1    30
 -4.5056851376073537E+00 a      1201     0    41     1     1
 -5.5298124575238872E-01 a      1202     0    41     1     2
  1.2706051346596547E+01 a      1203     0    41     1     3
 -1.2451719633918081E+01 a      1204     0    41     1     4
  9.3199574595825355E-02 a      1205     0    41     1     5
  1.1399276963868541E+01 a      1206     0    41     1     6
  4.7113621265568106E+00 a      1207     0    41     1     7
  5.1678051765872626E+00 a      1208     0    41     1     8
 -4.9247236863150050E+00 a      1209     0    41     1     9
 -4.2627953349493506E+00 a      1210     0    41     1    10
  1.3981274862897736E+01 a      1211     0    41     1    11
  3.7759940836765415E+00 a      1212     0    41     1    12
 -9.8326894857210263E+00 a      1213     0    41     1    13
 -1.5749724718368676E+00 a      1214     0    41     1    14
 -1.0728927170708542E+00 a      1215     0    41     1    15
  9.3158407855724281E+00 a      1216     0    41     1    16
 -8.7799617657647193E+00 a      1217     0    41     1    17
  3.4450455235391266E+00 a      1218     0    41     1    18
  2.5465148365798171E+00 a      1219     0    41     1    19
 -5.6498381968822091E+00 a      1220     0    41     1    20
  3.9128046645962575E+00 a      1221     0    41     1    21
 -3.2709984520319355E+00 a      1222     0    41     1    22
 -2.6538292908592820E+00 a      1223     0    41     1    23
 -5.8596062212437214E+00 a      1224     0    41     1    24
 -4.5751480185183544E+00 a      1225     0    41     1    25
 -5.6927896682067951E+00 a      1226     0    41     1    26
  1.0583592132898303E+01 a      1227     0    41     1    27
  1.0055913648896262E+00 a      1228     0    41     1    28
  6.2411073739658353E-02 a      1229     0    41     1    29
 -6.5382129070179529E+00 a      1230     0    41     1    30
  3.8460000553989374E+01 a      1231     0    42     1     1
 -1.5954923864215589E+01 a      1232     0    42     1     2
  3.1760146889376202E+01 a      1233     0    42     1     3
 -3.4804167969582906E+01 a      1234     0    42     1     4
 -2.7059645083713651E+01 a      1235     0    42     1     5
 -2.4163429068810416E+01 a      1236     0    42     1     6
  1.7678972937697399E+01 a      1237     0    42     1     7
  5.0458000864822923E+00 a      1238     0    42     1     8
 -1.8680716281125200E+01 a      1239     0    42     1     9
  1.4560751220337806E+01 a      1240     0    42     1    10
  6.1234503993420290E+01 a      1241     0    42     1    11
  2.3815504610491921E+01 a      1242     0    42     1    12
  7.2862450095540638E+01 a      1243     0    42     1    13
 -3.9110569441028090E+01 a      1244     0    42     1    14
  7.2451485243138606E+01 a      1245     0    42     1    15
 -3.5339686802669171E+01 a      1246     0    42     1    16
 -1.2913415826411585E+01 a      1247     0    42     1    17
  2.4146615835514655E+01 a      1248     0    42     1    18
  1.5934143144598965E+00 a      1249     0    42     1    19
  5.5882743399514059E+00 a      1250     0    42     1    20
  1.8967017817773271E+00 a      1251     0    42     1    21
 -1.1587842946870255E+01 a      1252     0    42     1    22
 -1.5800938316745762E+01 a      1253     0    42     1    23
 -3.7444184472734946E+01 a      1254     0    42     1    24
  5.5962682990269226E+00 a      1255     0    42     1    25
  1.4972571558456540E+00 a      1256     0    42     1    26
  4.2830689843084429E+01 a      1257     0    42     1    27
 -2.9432106600180205E+01 a      1258     0    42     1    28
 -4.6652331905639194E+01 a      1259     0    42     1    29
 -1.1305978912249664E+01 a      1260     0    42     1    30
  5.7994570261540650E+00 a      1261     0    43     1     1
  2.1444102596536829E-01 a      1262     0    43     1     2
 -2.4795981068059311E-01 a      1263     0    43     1     3
 -1.9672613538497299E+00 a      1264     0    43     1     4
  1.5750289133606604E-01 a      1265     0    43     1     5
  1.5333922168653247E+01 a      1266     0    43     1     6
 -8.0327920895092830E-01 a      1267     0    43     1     7
  2.1353057540705023E+00 a      1268     0    43     1     8
 -1.6153627300936668E+00 a      1269     0    43     1     9
 -2.6080248854464090E+00 a      1270     0    43     1    10
 -2.3796881756376589E+00 a      1271     0    43     1    11
  5.1221782756151697E+00 a      1272     0    43     1    12
 -7.1035117158873851E+00 a      1273     0    43     1    13
  2.6471256983774030E+00 a      1274     0    43     1    14
 -6.9297662467894545E+00 a      1275     0    43     1    15
  8.5353109417150996E+00 a      1276     0    43     1    16
  5.2600839434881239E+00 a      1277     0    43     1    17
 -1.7443583702056213E+00 a      1278     0    43     1    18
  2.6976927702504129E-02 a      1279     0    43     1    19
  7.4302530991139237E+00 a      1280     0    43     1    20
  1.9855557041418368E+00 a      1281     0    43     1    21
  5.4010463414602130E+00 a      1282     0    43     1    22
 -2.5625815142466778E-02 a      1283     0    43     1    23
 -1.2084839194431367E+00 a      1284     0    43     1    24
 -9.9630335039918172E-01 a      1285     0    43     1    25
 -1.9213876140040426E-01 a      1286     0    43     1    26
 -1.2916740437525767E+00 a      1287     0    43     1    27
 -1.1757262027643320E+00 a      1288     0    43     1    28
 -3.7215928109312796E-01 a      1289     0    43     1    29
  5.0288415421989763E+00 a      1290     0    43     1    30
 -7.0431468893741460E+00 a      1291     0    44     1     1
  1.0655748548729607E+00 a      1292     0    44     1     2
 -1.1216568083408244E+01 a      1293     0    44     1     3
  1.5928423694522621E+01 a      1294     0    44     1     4
  6.7219179160062144E+00 a      1295     0    44     1     5
  9.0965787588655918E+00 a      1296     0    44     1     6
  4.0574774256737802E+00 a      1297     0    44     1     7
  4.2129325961587885E+00 a      1298     0    44     1     8
 -8.1371334951700114E-01 a      1299     0    44     1     9
  1.5703377715677846E+00 a      1300     0    44     1    10
 -1.4221293146519098E+00 a      1301     0    44     1    11
  1.2650260147131670E+01 a      1302     0    44     1    12
 -3.0630880269469447E+01 a      1303     0    44     1    13
  1.1378384991212533E+01 a      1304     0    44     1    14
 -1.6691767082057272E+01 a      1305     0    44     1    15
  1.3659323852718149E+01 a      1306     0    44     1    16
 -1.0692874671663454E+01 a      1307     0    44     1    17
  5.5634184403711702E+00 a      1308     0    44     1    18
  2.8645324720040288E-01 a      1309     0    44     1    19
 -2.7452452717213855E+01 a      1310     0    44     1    20
  3.4629836275686783E+00 a      1311     0    44     1    21
  2.9637480246561854E+00 a      1312     0    44     1    22
  3.2496766225752305E+00 a      1313     0    44     1    23
  2.2754668840467119E+01 a      1314     0    44     1    24
  5.9708293818032860E+00 a      1315     0    44     1    25
 -9.0832575586708797E-01 a      1316     0    44     1    26
 -2.0872688983246750E+01 a      1317     0    44     1    27
  6.1181098592270997E+00 a      1318     0    44     1    28
  5.5353317764029839E+00 a      1319     0    44     1    29
  1.8104666444737045E+01 a      1320     0    44     1    30
  1.3204456716462934E+01 a      1321     0    45     1     1
 -8.0252779106599181E-01 a      1322     0    45     1     2
 -1.6993059611953647E+00 a      1323     0    45     1     3
 -1.3223275954561302E+00 a      1324     0    45     1     4
 -3.0158451823985013E+00 a      1325     0    45     1     5
  4.6650877828780759E+00 a      1326     0    45     1     6
  1.6187938321874800E+00 a      1327     0    45     1     7
 -2.0617128609098008E+00 a      1328     0    45     1     8
 -1.0832917845201136E+01 a      1329     0    45     1     9
 -8.5303046414846708E+00 a      1330     0    45     1    10
  7.4112222882452299E+00 a      1331     0    45     1    11
  4.2896778971863787E+00 a      1332     0    45     1    12
 -5.3236632039895460E-01 a      1333     0    45     1    13
  6.3723606007665046E+00 a      1334     0    45     1    14
  8.0398523751258484E+00 a      1335     0    45     1    15
  3.9085639281239630E+00 a      1336     0    45     1    16
  1.5289648502351840E+00 a      1337     0    45     1    17
  3.2899565658246446E+00 a      1338     0    45     1    18
  3.8723714612846196E+00 a      1339     0    45     1    19
  6.3200423869226796E-01 a      1340     0    45     1    20
  2.5729751664857688E-02 a      1341     0    45     1    21
  4.3369511524635740E-01 a      1342     0    45     1    22
 -3.0410440171280597E+00 a      1343     0    45     1    23
  9.5011830482833801E+00 a      1344     0    45     1    24
  9.5798545729026197E-01 a      1345     0    45     1    25
 -4.1091178005041442E+00 a      1346     0    45     1    26
 -5.0202721813327322E+00 a      1347     0    45     1    27
  3.4089529406208134E+00 a      1348     0    45     1    28
  5.7816869087821496E+00 a      1349     0    45     1    29
 -1.0582833928111457E+01 a      1350     0    45     1    30
 -7.1386122141981252E+00 a      1351     0    46     1     1
 -7.7942318282334062E+00 a      1352     0    46     1     2
 -5.6821142845351194E+00 a      1353     0    46     1     3
  1.6545783840228065E+01 a      1354     0    46     1     4
 -1.0598924706346047E+00 a      1355     0    46     1     5
 -1.8580593251881197E+01 a      1356     0    46     1     6
  3.4842655029798979E+00 a      1357     0    46     1     7
  6.9609366644297346E+00 a      1358     0    46     1     8
  2.4920096825400918E+01 a      1359     0    46     1     9
 -4.4880806325071916E+00 a      1360     0    46     1    10
 -9.4095960304546065E+00 a      1361     0    46     1    11
  2.3433277652236011E+01 a      1362     0    46     1    12
  1.5650969571844289E+01 a      1363     0    46     1    13
 -1.6605217725374207E+01 a      1364     0    46     1    14
 -7.9898600226203582E+00 a      1365     0    46     1    15
 -5.6825264701413438E+00 a      1366     0    46     1    16
  3.5254491435357331E+00 a      1367     0    46     1    17
  1.7391569207457021E+01 a      1368     0    46     1    18
 -6.6099519280372343E+00 a      1369     0    46     1    19
 -1.9191399869979701E+01 a      1370     0    46     1    20
 -4.9760311003886298E-01 a      1371     0    46     1    21
 -1.0062413291476306E+01 a      1372     0    46     1    22
  5.8026358403540490E+00 a      1373     0    46     1    23
 -5.5055693003551546E+01 a      1374     0    46     1    24
  2.4678754356572350E+00 a      1375     0    46     1    25
 -1.8785627792920959E-01 a      1376     0    46     1    26
 -7.1613483624362884E+00 a      1377     0    46     1    27
 -2.1546019802145715E+01 a      1378     0    46     1    28
 -3.2281484621690275E+01 a      1379     0    46     1    29
  6.9718102241094480E+00 a      1380     0    46     1    30
  1.0796061919252722E+00 a      1381     0    47     1     1
 -1.7653240698973463E-01 a      1382     0    47     1     2
 -4.5109969457928081E+00 a      1383     0    47     1     3
  3.9098082614278367E+00 a      1384     0    47     1     4
 -2.0564188874338696E-01 a      1385     0    47     1     5
 -8.0658839539487097E+00 a      1386     0    47     1     6
  7.0726078937969783E-01 a      1387     0    47     1     7
 -1.5404835159289136E+00 a      1388     0    47     1     8
 -2.7537231096129811E-01 a      1389     0    47     1     9
  1.5253228074788652E+00 a      1390     0    47     1    10
 -3.4242592331322426E+00 a      1391     0    47     1    11
 -2.8609622610922045E+00 a      1392     0    47     1    12
  6.2448286544696501E+00 a      1393     0    47     1    13
 -1.1177433871406777E+00 a      1394     0    47     1    14
  5.8978417572159103E-01 a      1395     0    47     1    15
 -1.9302387322282639E+00 a      1396     0    47     1    16
  2.0957553794006443E+00 a      1397     0    47     1    17
 -3.1400068750112564E+00 a      1398     0    47     1    18
 -8.1301519757716501E-01 a      1399     0    47     1    19
  3.9157711742500498E+00 a      1400     0    47     1    20
 -1.5284649099468506E+00 a      1401     0    47     1    21
  1.1715939110783473E+00 a      1402     0    47     1    22
  2.2719109217874536E+00 a      1403     0    47     1    23
  1.8967730689989344E+00 a      1404     0    47     1    24
  9.9874566030548462E-01 a      1405     0    47     1    25
  1.9275671906439986E+00 a      1406     0    47     1    26
 -3.6644841053094632E+00 a      1407     0    47     1    27
 -4.3903753750855351E-01 a      1408     0    47     1    28
 -1.0492441263203797E-02 a      1409     0    47     1    29
  4.0667188314557823E+00 a      1410     0    47     1    30
 -6.5600972597459482E+00 a      1411     0    48     1     1
  7.2477853466518765E+00 a      1412     0    48     1     2
 -1.1566761477257913E+01 a      1413     0    48     1     3
  3.9636515729764406E+00 a      1414     0    48     1     4
  6.8889494798426325E+00 a      1415     0    48     1     5
  1.6688898223325875E+01 a      1416     0    48     1     6
 -4.6454713291439456E+00 a      1417     0    48     1     7
 -9.3726443973894435E-01 a      1418     0    48     1     8
 -2.2324342130334468E+01 a      1419     0    48     1     9
  1.2184990328592187E+01 a      1420     0    48     1    10
 -5.5655099871932148E+00 a      1421     0    48     1    11
 -1.8978128225312609E+01 a      1422     0    48     1    12
 -2.9190945147847120E+01 a      1423     0    48     1    13
  1.8634354598245690E+01 a      1424     0    48     1    14
 -1.1835237058741237E+01 a      1425     0    48     1    15
  2.0307527369618345E+01 a      1426     0    48     1    16
 -1.7185033469060120E+00 a      1427     0    48     1    17
 -1.6961833446087841E+01 a      1428     0    48     1    18
  2.7464721668032417E+00 a      1429     0    48     1    19
 -1.5130622988514846E+00 a      1430     0    48     1    20
 -1.5953222771217836E+00 a      1431     0    48     1    21
  1.4362136702710670E+01 a      1432     0    48     1    22
 -1.7506484391021637E+00 a      1433     0    48     1    23
  4.8932232101390227E+01 a      1434     0    48     1    24
 -8.5154745324696641E+00 a      1435     0    48     1    25
 -8.2755729019752806E+00 a      1436     0    48     1    26
 -2.6699982450035038E+00 a      1437     0    48     1    27
  1.9510193079200327E+01 a      1438     0    48     1    28
  2.7191117177349902E+01 a      1439     0    48     1    29
  5.1477563869695233E+00 a      1440     0    48     1    30
 -2.1468768337393267E+00 a      1441     0    49     1     1
 -6.8344501350023332E-02 a      1442     0    49     1     2
 -6.4184704808914217E-01 a      1443     0    49     1     3
 -8.1066976090985599E-01 a      1444     0    49     1     4
 -2.6174301158059635E-02 a      1445     0    49     1     5
 -9.8823599795253205E+00 a      1446     0    49     1     6
  6.3874328144235859E-01 a      1447     0    49     1     7
 -2.4366479724172518E+00 a      1448     0    49     1     8
  1.2454692619578518E+00 a      1449     0    49     1     9
  1.6540078074149840E+00 a      1450     0    49     1    10
  2.4372111536517589E+00 a      1451     0    49     1    11
 -2.9678586597820802E+00 a      1452     0    49     1    12
  1.0069350166392192E+00 a      1453     0    49     1    13
 -9.2021961055351509E-01 a      1454     0    49     1    14
  1.2412838606224650E+00 a      1455     0    49     1    15
 -3.3828059247389004E+00 a      1456     0    49     1    16
 -8.9487314474658441E-01 a      1457     0    49     1    17
 -1.5622188812532389E+00 a      1458     0    49     1    18
 -1.5912203014651412E-02 a      1459     0    49     1    19
 -2.9435468922335821E+00 a      1460     0    49     1    20
 -3.3313398769572489E-01 a      1461     0    49     1    21
 -1.8625463784311695E+00 a      1462     0    49     1    22
 -1.0249181615057676E-01 a      1463     0    49     1    23
  1.0399739124710992E+00 a      1464     0    49     1    24
  4.9262884339430724E-01 a      1465     0    49     1    25
 -5.7222459445660034E-01 a      1466     0    49     1    26
 -2.5223239719214208E+00 a      1467     0    49     1    27
 -4.0077792465844836E-01 a      1468     0    49     1    28
  8.6569228033592516E-02 a      1469     0    49     1    29
 -2.7423229934571483E+00 a      1470     0    49     1    30
  6.2795657565611194E+00 a      1471     0    50     1     1
 -4.2552332349849231E-01 a      1472     0    50     1     2
  5.5622101783594893E+00 a      1473     0    50     1     3
 -6.1378254885038217E+00 a      1474     0    50     1     4
 -8.0834889256998075E+00 a      1475     0    50     1     5
 -8.9927087556829299E+00 a      1476     0    50     1     6
 -3.1892504457853335E+00 a      1477     0    50     1     7
 -9.0603554419867773E+00 a      1478     0    50     1     8
  1.4128509865859044E+01 a      1479     0    50     1     9
 -8.2329840024450878E+00 a      1480     0    50     1    10
 -1.7090946953586488E+00 a      1481     0    50     1    11
 -1.1264307827288351E+00 a      1482     0    50     1    12
  2.7004856398244570E+01 a      1483     0    50     1    13
 -9.4086807522299338E+00 a      1484     0    50     1    14
  2.2412556242003600E+01 a      1485     0    50     1    15
 -1.9514217387272133E+01 a      1486     0    50     1    16
  6.9582994918208296E+00 a      1487     0    50     1    17
 -2.7636665521701889E+00 a      1488     0    50     1    18
  1.0535327332029467E+00 a      1489     0    50     1    19
  3.2074489421937933E+01 a      1490     0    50     1    20
 -1.1014240283140269E+00 a      1491     0    50     1    21
 -1.2467014666719086E+01 a      1492     0    50     1    22
 -4.3445073662183917E+00 a      1493     0    50     1    23
 -2.8766886650513559E+01 a      1494     0    50     1    24
 -1.4368173331553173E+00 a      1495     0    50     1    25
  3.5126949046171920E+00 a      1496     0    50     1    26
  2.0680724026498790E+01 a      1497     0    50     1    27
 -1.0022061620979159E+01 a      1498     0    50     1    28
 -1.1360056214707612E+01 a      1499     0    50     1    29
 -2.5333762210947146E+01 a      1500     0    50     1    30
 -1.3651912545144624E+01 a      1501     0    51     1     1
 -9.6019043737766563E-01 a      1502     0    51     1     2
 -3.6305984335647818E+00 a      1503     0    51     1     3
  6.6802202439662128E+00 a      1504     0    51     1     4
 -4.7276756020886679E-01 a      1505     0    51     1     5
 -3.0401836606528989E+00 a      1506     0    51     1     6
 -1.9767118462696858E+00 a      1507     0    51     1     7
 -3.0386119783984462E+00 a      1508     0    51     1     8
  2.8539202444273308E+00 a      1509     0    51     1     9
  3.4900442584588420E+00 a      1510     0    51     1    10
  2.6215207084001269E+00 a      1511     0    51     1    11
 -3.6095234349688718E+00 a      1512     0    51     1    12
  8.0551992976934024E+00 a      1513     0    51     1    13
 -4.4153534600449316E+00 a      1514     0    51     1    14
 -5.0786493393436754E+00 a      1515     0    51     1    15
  8.9335137994523919E+00 a      1516     0    51     1    16
  7.1767012023134633E+00 a      1517     0    51     1    17
  5.3796336450333735E+00 a      1518     0    51     1    18
 -3.1030950753365056E+00 a      1519     0    51     1    19
 -8.1425616866833863E+00 a      1520     0    51     1    20
 -2.8448490334553189E+00 a      1521     0    51     1    21
  2.5298951871789757E+00 a      1522     0    51     1    22
  9.6752623466065557E-01 a      1523     0    51     1    23
 -8.4437371193879454E+00 a      1524     0    51     1    24
 -7.0729487675098435E-01 a      1525     0    51     1    25
  2.2963675912364856E+00 a      1526     0    51     1    26
  6.9182856128527330E+00 a      1527     0    51     1    27
 -2.1979164314225788E+00 a      1528     0    51     1    28
 -2.3640254805101377E+00 a      1529     0    51     1    29
  3.7297667321843959E+00 a      1530     0    51     1    30
  2.6500679039911116E+01 a      1531     0    52     1     1
  4.0979122372966410E+00 a      1532     0    52     1     2
  1.1359161947400541E+01 a      1533     0    52     1     3
 -1.6598894167089952E+01 a      1534     0    52     1     4
  1.7339480841020518E+00 a      1535     0    52     1     5
  4.2987370074689096E-01 a      1536     0    52     1     6
  1.4549102171239416E+00 a      1537     0    52     1     7
  9.0618982527954408E+00 a      1538     0    52     1     8
 -1.0106221257668313E+01 a      1539     0    52     1     9
 -2.3713274526578769E+00 a      1540     0    52     1    10
  2.0978926335093155E+00 a      1541     0    52     1    11
 -5.8760481836831842E+00 a      1542     0    52     1    12
 -9.7300276790299023E+00 a      1543     0    52     1    13
  4.1381797890151111E+00 a      1544     0    52     1    14
  1.2402721034777548E+01 a      1545     0    52     1    15
 -5.6869343290977996E+00 a      1546     0    52     1    16
 -1.8037338904585202E+01 a      1547     0    52     1    17
 -1.6858708077720657E+01 a      1548     0    52     1    18
  7.6273225103411022E+00 a      1549     0    52     1    19
  1.3967869964785576E+01 a      1550     0    52     1    20
  1.1049014699108024E+01 a      1551     0    52     1    21
 -2.4910271978967868E+00 a      1552     0    52     1    22
 -7.2655578966265377E-01 a      1553     0    52     1    23
  3.2153961989666257E+01 a      1554     0    52     1    24
 -1.8457211613069224E+00 a      1555     0    52     1    25
 -7.2115635868738233E+00 a      1556     0    52     1    26
 -3.2818235457099871E+00 a      1557     0    52     1    27
  1.0869416466499420E+01 a      1558     0    52     1    28
  9.9700613330883670E+00 a      1559     0    52     1    29
  4.8248859455214053E+00 a      1560     0    52     1    30
  1.1984177874780471E+00 a      1561     0    53     1     1
  2.7121731647382685E-01 a      1562     0    53     1     2
  1.7333726378622198E+00 a      1563     0    53     1     3
 -3.4686400064239393E+00 a      1564     0    53     1     4
  2.1742371273074709E-02 a      1565     0    53     1     5
  7.9223615587632690E+00 a      1566     0    53     1     6
 -1.6864674679304079E+00 a      1567     0    53     1     7
  2.0926852132595711E-01 a      1568     0    53     1     8
 -1.6514193188023261E+00 a      1569     0    53     1     9
 -8.2428165772808637E-01 a      1570     0    53     1    10
 -1.0934191085323994E+00 a      1571     0    53     1    11
  3.9734865838628386E-01 a      1572     0    53     1    12
 -3.0605912274142941E+00 a      1573     0    53     1    13
  1.3521548947538353E+00 a      1574     0    53     1    14
  4.8885607599947473E-01 a      1575     0    53     1    15
 -1.2575611576580650E+00 a      1576     0    53     1    16
 -1.7594722391685127E+00 a      1577     0    53     1    17
  3.0654808050764375E+00 a      1578     0    53     1    18
  3.9601652825529909E-01 a      1579     0    53     1    19
  1.6012013785328461E+00 a      1580     0    53     1    20
  9.9198026146235729E-01 a      1581     0    53     1    21
 -1.0395376948131703E+00 a      1582     0    53     1    22
 -6.8899754903292876E-01 a      1583     0    53     1    23
 -6.8626545200156253E-01 a      1584     0    53     1    24
 -4.9248269978780662E-01 a      1585     0    53     1    25
 -1.4136184853806741E+00 a      1586     0    53     1    26
  2.0920247059424302E+00 a      1587     0    53     1    27
  7.2732970886592618E-01 a      1588     0    53     1    28
 -8.1235357383680623E-02 a      1589     0    53     1    29
 -2.0392085758180709E+00 a      1590     0    53     1    30
 -1.3513929954046125E+01 a      1591     0    54     1     1
 -3.2971063532396472E+00 a      1592     0    54     1     2
 -2.4944548377476883E+00 a      1593     0    54     1     3
  4.6981276870804551E+00 a      1594     0    54     1     4
 -2.7272433556137483E+00 a      1595     0    54     1     5
 -6.9355450972175059E-01 a      1596     0    54     1     6
 -1.6782230678456898E+00 a      1597     0    54     1     7
 -8.7176114963086082E+00 a      1598     0    54     1     8
  9.3582753727067693E+00 a      1599     0    54     1     9
 -4.3702412411437654E+00 a      1600     0    54     1    10
  1.7654138234450664E-01 a      1601     0    54     1    11
  5.6938309843596393E+00 a      1602     0    54     1    12
  1.2979447591835951E+01 a      1603     0    54     1    13
 -2.4764720704963388E+00 a      1604     0    54     1    14
 -5.3648953649984064E+00 a      1605     0    54     1    15
 -3.3303906782076913E+00 a      1606     0    54     1    16
  1.1302275022186434E+01 a      1607     0    54     1    17
  1.1055143739012234E+01 a      1608     0    54     1    18
 -4.9553019417751907E+00 a      1609     0    54     1    19
 -2.0545393914227699E+00 a      1610     0    54     1    20
 -5.8316940996455289E+00 a      1611     0    54     1    21
 -1.7796793227298295E+00 a      1612     0    54     1    22
 -9.9512403576376796E-01 a      1613     0    54     1    23
 -2.5824709971118242E+01 a      1614     0    54     1    24
  3.8947031959139333E+00 a      1615     0    54     1    25
  7.2092710163321616E+00 a      1616     0    54     1    26
  3.3170864273272800E+00 a      1617     0    54     1    27
 -9.4202648430058034E+00 a      1618     0    54     1    28
 -8.6290369971748273E+00 a      1619     0    54     1    29
 -8.1998068487428011E+00 a      1620     0    54     1    30
  2.7195227549871431E-01 a      1621     0    55     1     1
  1.7618098418159013E-02 a      1622     0    55     1     2
  1.1058566472268719E-01 a      1623     0    55     1     3
