################################################################################
# Neural network connection values (weights and biases).
################################################################################
# Col  Name       Description
################################################################################
# 1    connection Neural network connection value.
# 2    t          Connection type (a = weight, b = bias).
# 3    index      Index enumerating weights.
# 4    l_s        Starting point layer (end point layer for biases).
# 5    n_s        Starting point neuron in starting layer (end point neuron for biases).
# 6    l_e        End point layer.
# 7    n_e        End point neuron in end layer.
################################################################################
#                      1 2         3     4     5     6     7
#             connection t     index   l_s   n_s   l_e   n_e
############################################################
  7.4129888223934959E-01 a         1     0     1     1     1
  7.5749921470419501E+00 a         2     0     1     1     2
 -4.7826836734125443E+01 a         3     0     1     1     3
 -2.3110506290145548E+01 a         4     0     1     1     4
 -6.5111150335387435E+01 a         5     0     1     1     5
  5.8230519972651116E+01 a         6     0     1     1     6
 -8.3049347930233907E+01 a         7     0     1     1     7
 -4.4966135921139099E+01 a         8     0     1     1     8
 -5.2029587949053898E+01 a         9     0     1     1     9
  1.2255244642827243E+01 a        10     0     1     1    10
 -2.0429660214911891E+01 a        11     0     1     1    11
  1.4642070207439200E+01 a        12     0     1     1    12
  3.7301654256267028E+01 a        13     0     1     1    13
 -7.2672300565420954E+01 a        14     0     1     1    14
 -3.7431513768351209E+01 a        15     0     1     1    15
  4.7907462426651747E+01 a        16     0     1     1    16
  2.2743134893377864E+01 a        17     0     1     1    17
 -1.1574926391478886E+01 a        18     0     1     1    18
  2.9962766426042350E+01 a        19     0     1     1    19
 -4.6659806042055352E-01 a        20     0     1     1    20
 -1.5483868684779114E+01 a        21     0     1     1    21
  1.5297720227025865E+01 a        22     0     1     1    22
 -3.2913842675374610E+01 a        23     0     1     1    23
  5.5043502420177205E+01 a        24     0     1     1    24
  1.1369721361109345E+01 a        25     0     1     1    25
  4.5050431817517790E+01 a        26     0     1     1    26
  1.9267187808899450E+01 a        27     0     1     1    27
 -1.8542199578079249E+01 a        28     0     1     1    28
  2.1712384743263570E+01 a        29     0     1     1    29
 -2.6354659675343996E+01 a        30     0     1     1    30
  7.4767714019547304E-01 a        31     0     2     1     1
 -1.9633319955495264E+01 a        32     0     2     1     2
 -1.0239299758880710E+01 a        33     0     2     1     3
  4.4907734807286763E+00 a        34     0     2     1     4
 -2.3615496762867171E+01 a        35     0     2     1     5
 -5.5642090382877415E-02 a        36     0     2     1     6
 -2.6888124443238770E+01 a        37     0     2     1     7
  8.6231385573727737E-01 a        38     0     2     1     8
 -3.7713549119424701E+00 a        39     0     2     1     9
 -4.2961266934923730E+00 a        40     0     2     1    10
 -4.8324817017057553E+00 a        41     0     2     1    11
  1.1247919858046927E+01 a        42     0     2     1    12
  1.7762513450760352E+01 a        43     0     2     1    13
 -1.8657598350333270E+01 a        44     0     2     1    14
 -1.8851980224880410E+01 a        45     0     2     1    15
  1.9266109192740366E+01 a        46     0     2     1    16
  1.0579103710703317E+01 a        47     0     2     1    17
 -3.5626695836462008E+00 a        48     0     2     1    18
  1.2840935182737130E+01 a        49     0     2     1    19
  1.9768208060666574E+01 a        50     0     2     1    20
 -9.2095488735461153E+00 a        51     0     2     1    21
  2.0548494306525167E+00 a        52     0     2     1    22
 -1.4207093195097720E+00 a        53     0     2     1    23
  1.3059681482408314E+01 a        54     0     2     1    24
  1.5983139087313374E+01 a        55     0     2     1    25
  9.0385514561133230E-04 a        56     0     2     1    26
  5.6492211929342515E+00 a        57     0     2     1    27
  4.4432406524988597E+00 a        58     0     2     1    28
 -8.3410833898641386E+00 a        59     0     2     1    29
 -1.7741036991205718E+01 a        60     0     2     1    30
 -1.3572359184563585E+00 a        61     0     3     1     1
 -4.2271990174275977E+01 a        62     0     3     1     2
  1.8426769800560418E+01 a        63     0     3     1     3
  2.7472745500119416E+01 a        64     0     3     1     4
  4.8864564299343840E+00 a        65     0     3     1     5
 -4.6814023622665154E+01 a        66     0     3     1     6
  1.0210590549226026E+01 a        67     0     3     1     7
  3.7202674625053547E+01 a        68     0     3     1     8
  2.9949997486502703E+01 a        69     0     3     1     9
 -1.7290477488146401E+01 a        70     0     3     1    10
  1.1231219197205828E+01 a        71     0     3     1    11
  1.2538266874307787E+01 a        72     0     3     1    12
  1.1452412848482414E+01 a        73     0     3     1    13
  2.0743363737149512E+01 a        74     0     3     1    14
 -1.0473047024887540E+01 a        75     0     3     1    15
 -1.7941032824391849E+00 a        76     0     3     1    16
  9.0922813867388967E+00 a        77     0     3     1    17
  2.6478843035331390E+00 a        78     0     3     1    18
  1.8054797561475595E+00 a        79     0     3     1    19
  3.9950378910497747E+01 a        80     0     3     1    20
 -3.8523129780318142E+00 a        81     0     3     1    21
 -6.6460159739481375E+00 a        82     0     3     1    22
  2.3104362309868502E+01 a        83     0     3     1    23
 -1.7323234027197145E+01 a        84     0     3     1    24
  2.8000144992768142E+01 a        85     0     3     1    25
 -3.8354821710486803E+01 a        86     0     3     1    26
 -2.5103834886401266E+00 a        87     0     3     1    27
  2.1480642680499201E+01 a        88     0     3     1    28
 -3.3773174181458387E+01 a        89     0     3     1    29
 -1.0446470815157282E+01 a        90     0     3     1    30
 -1.9069577340554651E+00 a        91     0     4     1     1
  6.5971844474983143E-01 a        92     0     4     1     2
  2.7986111473109364E+01 a        93     0     4     1     3
  3.8658901164238834E+01 a        94     0     4     1     4
 -2.6301738300942553E+01 a        95     0     4     1     5
 -6.5876720382706793E+01 a        96     0     4     1     6
  9.0477503575800995E+00 a        97     0     4     1     7
  3.4413709904027165E+01 a        98     0     4     1     8
  2.8010492496930230E+01 a        99     0     4     1     9
 -3.0606613821903156E+01 a       100     0     4     1    10
  2.4363666509002933E+01 a       101     0     4     1    11
  3.6324143405754690E+01 a       102     0     4     1    12
 -1.2887151996013227E+01 a       103     0     4     1    13
  3.3184013557149768E+01 a       104     0     4     1    14
 -2.5693228965335305E+01 a       105     0     4     1    15
 -1.9714046652379025E+00 a       106     0     4     1    16
  1.9863461588561389E+01 a       107     0     4     1    17
  5.4578866016561873E+00 a       108     0     4     1    18
 -3.7302423055556888E+00 a       109     0     4     1    19
  2.4220220410658115E+01 a       110     0     4     1    20
  5.0240945615877264E+00 a       111     0     4     1    21
 -7.4516019215611031E+00 a       112     0     4     1    22
  2.2473511751865438E+01 a       113     0     4     1    23
 -3.8539934936066471E+00 a       114     0     4     1    24
  4.0926674645977265E+01 a       115     0     4     1    25
 -4.8557593682173533E+01 a       116     0     4     1    26
  3.1803245519137113E+00 a       117     0     4     1    27
  3.7909428171883945E+01 a       118     0     4     1    28
 -5.2206922402580112E+01 a       119     0     4     1    29
 -9.2412784507598307E+00 a       120     0     4     1    30
 -9.6193550338944833E-01 a       121     0     5     1     1
  3.9007019269127952E+01 a       122     0     5     1     2
  2.9186772749599532E+00 a       123     0     5     1     3
  1.8064478067781064E+01 a       124     0     5     1     4
 -4.3055515095976276E+01 a       125     0     5     1     5
 -3.7122195610184342E+01 a       126     0     5     1     6
 -2.7481741315314734E+00 a       127     0     5     1     7
  6.8605258036416963E+00 a       128     0     5     1     8
  3.2635700940853174E+00 a       129     0     5     1     9
 -1.8129558838026064E+01 a       130     0     5     1    10
  1.6591324274424952E+01 a       131     0     5     1    11
  3.2097064370968553E+01 a       132     0     5     1    12
 -3.0253492904907120E+01 a       133     0     5     1    13
  3.5128531634653633E+01 a       134     0     5     1    14
 -2.6903767702825863E+01 a       135     0     5     1    15
  4.2653551768423652E+00 a       136     0     5     1    16
  1.3208446731351229E+01 a       137     0     5     1    17
 -2.5330616664265393E+00 a       138     0     5     1    18
 -7.4384047300665141E+00 a       139     0     5     1    19
 -5.9208233236951333E+00 a       140     0     5     1    20
  1.5889703425912634E+01 a       141     0     5     1    21
  1.0356530837079583E+00 a       142     0     5     1    22
  1.3035664775587492E+00 a       143     0     5     1    23
  2.1513359835902921E+01 a       144     0     5     1    24
  3.4862976500572252E+01 a       145     0     5     1    25
 -1.7369743390677225E+01 a       146     0     5     1    26
  5.3888816305945886E+00 a       147     0     5     1    27
  2.0267819776731894E+01 a       148     0     5     1    28
 -2.7216074778044419E+01 a       149     0     5     1    29
  4.4533001056966244E+00 a       150     0     5     1    30
 -2.3497682274902010E+00 a       151     0     6     1     1
  7.4689086891176544E+00 a       152     0     6     1     2
  1.4180029863151637E+01 a       153     0     6     1     3
  2.5169319266817092E+00 a       154     0     6     1     4
  1.8502392506803240E+01 a       155     0     6     1     5
 -1.2687045983020466E+01 a       156     0     6     1     6
  2.0182989489648790E+01 a       157     0     6     1     7
  8.9022496973993341E+00 a       158     0     6     1     8
  9.3213038031226993E+00 a       159     0     6     1     9
 -2.8658937979410304E+00 a       160     0     6     1    10
  7.2627698803078520E+00 a       161     0     6     1    11
 -3.0880775214984797E+00 a       162     0     6     1    12
 -1.1705006585429278E+01 a       163     0     6     1    13
  2.1687257228053198E+01 a       164     0     6     1    14
  1.3069276472347083E+01 a       165     0     6     1    15
 -1.4822145924593247E+01 a       166     0     6     1    16
 -9.1205138512859474E+00 a       167     0     6     1    17
  2.6935488200928126E+00 a       168     0     6     1    18
 -1.1823676208287473E+01 a       169     0     6     1    19
 -9.6289772147043937E+00 a       170     0     6     1    20
  2.8683809020366509E+00 a       171     0     6     1    21
 -4.8413489420385671E+00 a       172     0     6     1    22
  4.7887570369837489E+00 a       173     0     6     1    23
 -1.4694864699722130E+01 a       174     0     6     1    24
 -1.7055437798628148E+01 a       175     0     6     1    25
 -5.8669604315380592E+00 a       176     0     6     1    26
 -7.7942544648963601E+00 a       177     0     6     1    27
  4.4776423025101515E+00 a       178     0     6     1    28
 -1.5857127556454587E+00 a       179     0     6     1    29
  1.3993341988608082E+01 a       180     0     6     1    30
 -8.1522366051005490E-01 a       181     0     7     1     1
 -2.0646782400391007E+01 a       182     0     7     1     2
 -5.3544004097612934E+01 a       183     0     7     1     3
 -3.7714800448244297E+01 a       184     0     7     1     4
  2.7300026911770342E+01 a       185     0     7     1     5
  4.0397707371382694E+01 a       186     0     7     1     6
  1.9385646435501498E+00 a       187     0     7     1     7
 -1.3025622859113577E+01 a       188     0     7     1     8
 -1.9647820313936428E+01 a       189     0     7     1     9
  3.4113762930762121E+01 a       190     0     7     1    10
 -2.1247987549999650E+01 a       191     0     7     1    11
 -3.9260178454115582E+01 a       192     0     7     1    12
  7.7960770565447444E+00 a       193     0     7     1    13
  3.5429388284004418E+01 a       194     0     7     1    14
  1.5656081572565213E+01 a       195     0     7     1    15
 -7.3720042306971628E-02 a       196     0     7     1    16
 -2.7186792146947671E+01 a       197     0     7     1    17
 -2.3633943259177364E+01 a       198     0     7     1    18
 -7.3859170492544850E+00 a       199     0     7     1    19
 -4.9042442440121681E+00 a       200     0     7     1    20
  1.7610539457936678E+01 a       201     0     7     1    21
  1.3597371238219219E+01 a       202     0     7     1    22
 -2.1592963493559839E+01 a       203     0     7     1    23
  1.3354118307976407E+01 a       204     0     7     1    24
  1.5457266458890573E+00 a       205     0     7     1    25
  4.3756743369466172E+01 a       206     0     7     1    26
 -9.0283985477263915E+00 a       207     0     7     1    27
 -5.0921945656797064E+01 a       208     0     7     1    28
  5.6401669945105283E+01 a       209     0     7     1    29
  3.7120986236223409E+01 a       210     0     7     1    30
  4.9421454183175362E+00 a       211     0     8     1     1
  1.1952172639523992E+01 a       212     0     8     1     2
  1.0985397754319042E+00 a       213     0     8     1     3
 -1.6687922509292715E+01 a       214     0     8     1     4
  3.6398294920493761E+01 a       215     0     8     1     5
  3.0798291134018129E+01 a       216     0     8     1     6
  3.0746202574304714E+01 a       217     0     8     1     7
 -8.2314056289724338E+00 a       218     0     8     1     8
 -2.2280852938386930E-01 a       219     0     8     1     9
  1.5041750529450994E+01 a       220     0     8     1    10
 -6.6827425370087346E+00 a       221     0     8     1    11
 -2.7670219923247906E+01 a       222     0     8     1    12
 -1.4912147875730547E+01 a       223     0     8     1    13
  9.6738081460083620E+00 a       224     0     8     1    14
  3.2200913367561263E+01 a       225     0     8     1    15
 -1.7917888139256995E+01 a       226     0     8     1    16
 -1.9211444928083438E+01 a       227     0     8     1    17
  1.9254987336795950E+00 a       228     0     8     1    18
 -1.1910112547619327E+01 a       229     0     8     1    19
 -2.4350424184369146E+01 a       230     0     8     1    20
  5.3629103992916578E+00 a       231     0     8     1    21
 -1.5592177547268762E+00 a       232     0     8     1    22
 -3.8585349136976910E+00 a       233     0     8     1    23
 -1.4653054766734563E+01 a       234     0     8     1    24
 -2.0109201469374113E+01 a       235     0     8     1    25
  1.2775911766987512E+01 a       236     0     8     1    26
 -6.2404661746314609E+00 a       237     0     8     1    27
 -1.5597992251109057E+01 a       238     0     8     1    28
  2.5477882607307897E+01 a       239     0     8     1    29
  1.9138070690454899E+01 a       240     0     8     1    30
 -1.4922477904911258E+00 a       241     0     9     1     1
  2.2014208030744151E+00 a       242     0     9     1     2
  8.9504517449398513E+00 a       243     0     9     1     3
  4.9716842833628396E+00 a       244     0     9     1     4
 -1.1367928207679105E+01 a       245     0     9     1     5
 -8.3383402036845222E+00 a       246     0     9     1     6
  4.1673750554257358E+00 a       247     0     9     1     7
  6.8429300214881046E+00 a       248     0     9     1     8
  3.7648593093942329E+00 a       249     0     9     1     9
  4.1507672538151003E-01 a       250     0     9     1    10
  7.3377924115512769E+00 a       251     0     9     1    11
  7.4193686472294935E+00 a       252     0     9     1    12
 -1.3746649412549583E+00 a       253     0     9     1    13
  4.2306948351419944E+00 a       254     0     9     1    14
 -9.8213167734326134E+00 a       255     0     9     1    15
 -1.4375416121688676E+00 a       256     0     9     1    16
  6.5880541721521748E+00 a       257     0     9     1    17
 -1.8268444694159656E+00 a       258     0     9     1    18
 -6.2808296050801093E-01 a       259     0     9     1    19
 -2.6459681464911511E+00 a       260     0     9     1    20
 -2.5051229168064824E+00 a       261     0     9     1    21
 -2.9211240093644806E+00 a       262     0     9     1    22
  2.3234710552462383E+00 a       263     0     9     1    23
  1.8281233986029570E+00 a       264     0     9     1    24
 -4.6084476733406827E+00 a       265     0     9     1    25
 -1.0726942795882601E+00 a       266     0     9     1    26
  1.3465538384073559E+00 a       267     0     9     1    27
  7.2797870756670138E+00 a       268     0     9     1    28
 -6.9961676471096679E+00 a       269     0     9     1    29
 -3.0097739345122225E+01 a       270     0     9     1    30
  2.7980076965510992E+00 a       271     0    10     1     1
 -1.0109618489076078E+00 a       272     0    10     1     2
 -2.4050863175845736E+00 a       273     0    10     1     3
  8.0407506958748279E-02 a       274     0    10     1     4
 -1.8568601177560173E+00 a       275     0    10     1     5
  8.9667170309687894E+00 a       276     0    10     1     6
 -1.1202944745355712E+00 a       277     0    10     1     7
 -2.5972833763932052E-01 a       278     0    10     1     8
  5.5067242427274199E-01 a       279     0    10     1     9
  3.7011768870124988E+00 a       280     0    10     1    10
 -1.9901910068029030E+00 a       281     0    10     1    11
 -5.8528037836426494E-01 a       282     0    10     1    12
 -5.1870215468313019E-01 a       283     0    10     1    13
  6.1049946299287301E+00 a       284     0    10     1    14
  3.4738649505547814E-01 a       285     0    10     1    15
  6.8588612707208474E-01 a       286     0    10     1    16
 -1.7667877227110094E+00 a       287     0    10     1    17
 -2.5380675587655449E-01 a       288     0    10     1    18
 -7.9521345259726051E-01 a       289     0    10     1    19
  2.2916892164827742E+00 a       290     0    10     1    20
 -1.3140397332618590E+00 a       291     0    10     1    21
  2.1843053576068905E+00 a       292     0    10     1    22
  8.0141535935295244E-02 a       293     0    10     1    23
  1.8516292718371339E+00 a       294     0    10     1    24
 -3.6820047769376618E-01 a       295     0    10     1    25
  3.8317408323826183E+00 a       296     0    10     1    26
 -7.4707126734367635E-01 a       297     0    10     1    27
 -2.3098579956416581E+00 a       298     0    10     1    28
  7.3385616399705245E-01 a       299     0    10     1    29
  5.2269994871612901E+00 a       300     0    10     1    30
  1.7120722117485849E+00 a       301     0    11     1     1
  8.1270650911697082E+00 a       302     0    11     1     2
  1.4784994048019961E+01 a       303     0    11     1     3
 -1.9739326820788779E+01 a       304     0    11     1     4
  5.0419045798315764E+01 a       305     0    11     1     5
  2.0003904208247274E+01 a       306     0    11     1     6
  2.8706296863297759E+01 a       307     0    11     1     7
 -1.6678014160905168E+01 a       308     0    11     1     8
 -6.1329484527342870E-01 a       309     0    11     1     9
  1.7538945065474241E+01 a       310     0    11     1    10
 -8.3384080491310488E+00 a       311     0    11     1    11
 -3.4141996697309125E+01 a       312     0    11     1    12
 -2.2748475487444071E+00 a       313     0    11     1    13
 -2.6599491856494819E+01 a       314     0    11     1    14
  4.3089362370112980E+01 a       315     0    11     1    15
 -2.3421170907020691E+01 a       316     0    11     1    16
 -2.1614756575107702E+01 a       317     0    11     1    17
  1.2271409423103671E+01 a       318     0    11     1    18
 -7.9352939725070701E+00 a       319     0    11     1    19
 -3.0369996018432303E+01 a       320     0    11     1    20
 -1.1111508198822881E+01 a       321     0    11     1    21
 -5.3807528775674855E+00 a       322     0    11     1    22
 -1.4022596578074817E+00 a       323     0    11     1    23
 -3.0099210368997927E+01 a       324     0    11     1    24
 -7.0886966913456774E+01 a       325     0    11     1    25
  1.5243426589852335E+01 a       326     0    11     1    26
 -1.0166620635442637E+01 a       327     0    11     1    27
 -1.4678793086423285E+01 a       328     0    11     1    28
  2.6612290768387364E+01 a       329     0    11     1    29
 -8.4551033366959096E+00 a       330     0    11     1    30
  1.8639516839661445E+00 a       331     0    12     1     1
  5.1966988567216221E+00 a       332     0    12     1     2
  2.0781038809686621E+01 a       333     0    12     1     3
  2.9926900732080192E-01 a       334     0    12     1     4
  2.7612278929952332E+01 a       335     0    12     1     5
  3.0886540324443889E+01 a       336     0    12     1     6
  5.7295410840325802E+00 a       337     0    12     1     7
 -1.1455708373420631E+01 a       338     0    12     1     8
  1.8447839895559985E+00 a       339     0    12     1     9
 -9.3782937753198041E+00 a       340     0    12     1    10
 -4.7256954011009134E+00 a       341     0    12     1    11
 -9.0563324277243442E+00 a       342     0    12     1    12
  2.2996234105727216E+00 a       343     0    12     1    13
 -4.6678232763277208E+01 a       344     0    12     1    14
  2.5749904510518640E+01 a       345     0    12     1    15
 -8.6518067112439851E+00 a       346     0    12     1    16
 -4.5832888870563036E+00 a       347     0    12     1    17
  1.9419469871379427E+01 a       348     0    12     1    18
  3.6665619314404068E+00 a       349     0    12     1    19
 -7.6666412569872815E+00 a       350     0    12     1    20
 -1.1803917354381730E+01 a       351     0    12     1    21
 -6.4026643140102184E+00 a       352     0    12     1    22
  4.5974687006206674E+00 a       353     0    12     1    23
 -2.3947635629901590E+01 a       354     0    12     1    24
 -2.5954364702469704E+01 a       355     0    12     1    25
 -9.8594470132167338E+00 a       356     0    12     1    26
 -5.9322425519573352E-01 a       357     0    12     1    27
  7.4380431069808557E+00 a       358     0    12     1    28
 -3.0915810137854216E-01 a       359     0    12     1    29
  2.5004429036434779E+01 a       360     0    12     1    30
 -1.5123512940699007E+00 a       361     0    13     1     1
  1.0233555974096857E+00 a       362     0    13     1     2
  2.5092523193260208E+00 a       363     0    13     1     3
 -3.2367251215757376E-01 a       364     0    13     1     4
  3.6103630546925696E+00 a       365     0    13     1     5
 -1.2556913015213234E+00 a       366     0    13     1     6
  2.1338171433282693E-01 a       367     0    13     1     7
 -1.1109372924882022E+00 a       368     0    13     1     8
 -3.7451919680912071E-01 a       369     0    13     1     9
 -3.9077936069974140E+00 a       370     0    13     1    10
  4.9613003380683635E-01 a       371     0    13     1    11
 -3.4201995358976545E-01 a       372     0    13     1    12
  5.9689422370023182E-01 a       373     0    13     1    13
 -9.0134095963718810E+00 a       374     0    13     1    14
  2.1260923370545788E+00 a       375     0    13     1    15
 -4.7041065489160561E-01 a       376     0    13     1    16
  7.4734223274201550E-01 a       377     0    13     1    17
  1.7566761260456547E+00 a       378     0    13     1    18
  1.1196514013186609E+00 a       379     0    13     1    19
 -1.2829831269724146E+00 a       380     0    13     1    20
  1.1783893789985421E-01 a       381     0    13     1    21
 -1.5258274470955955E+00 a       382     0    13     1    22
  3.6272305773925922E-01 a       383     0    13     1    23
 -3.0830192713601741E+00 a       384     0    13     1    24
  7.0451490289707308E-01 a       385     0    13     1    25
 -3.8025680630936542E+00 a       386     0    13     1    26
  4.5308177383756026E-01 a       387     0    13     1    27
  1.4747589756520751E+00 a       388     0    13     1    28
 -8.5622760060189884E-01 a       389     0    13     1    29
 -6.4113803184814044E-01 a       390     0    13     1    30
 -8.7568518988992861E-01 a       391     0    14     1     1
  3.5121143482352135E-01 a       392     0    14     1     2
  1.6287692964219183E-01 a       393     0    14     1     3
 -1.3171209162648459E-01 a       394     0    14     1     4
  9.0827748745700987E-01 a       395     0    14     1     5
 -2.9281021327988741E+00 a       396     0    14     1     6
  3.5911730400637426E-01 a       397     0    14     1     7
  3.0215153153898894E-01 a       398     0    14     1     8
 -1.1120642517589009E-01 a       399     0    14     1     9
 -1.1296926181254234E+00 a       400     0    14     1    10
  5.9512464772553553E-01 a       401     0    14     1    11
  4.4975268848718761E-02 a       402     0    14     1    12
  2.1526486096047157E-01 a       403     0    14     1    13
 -2.2746063066517861E+00 a       404     0    14     1    14
  9.5339530944166737E-02 a       405     0    14     1    15
 -4.4805574129928960E-01 a       406     0    14     1    16
  5.0203853975401480E-01 a       407     0    14     1    17
  2.6305172279375066E-01 a       408     0    14     1    18
  4.0547984997273145E-01 a       409     0    14     1    19
 -6.1945088278662408E-01 a       410     0    14     1    20
  4.8353029517741719E-01 a       411     0    14     1    21
 -8.2109114099480252E-01 a       412     0    14     1    22
  2.0524707597041877E-01 a       413     0    14     1    23
 -7.1456301274189993E-01 a       414     0    14     1    24
  5.0093918345703270E-01 a       415     0    14     1    25
 -1.4395307062844496E+00 a       416     0    14     1    26
  3.3738857486584006E-01 a       417     0    14     1    27
  5.3106329276935149E-01 a       418     0    14     1    28
 -3.3351322298916874E-01 a       419     0    14     1    29
 -4.6973771454588598E-01 a       420     0    14     1    30
 -4.4670080534878558E+00 a       421     0    15     1     1
  1.8497496161280409E+01 a       422     0    15     1     2
 -4.2761594906869597E+01 a       423     0    15     1     3
  5.5950855000930160E+00 a       424     0    15     1     4
  4.1724397218339114E+01 a       425     0    15     1     5
 -3.3755781558353455E+01 a       426     0    15     1     6
  1.2422458873878101E+01 a       427     0    15     1     7
  2.0555452318737260E+01 a       428     0    15     1     8
 -3.9179488315115528E+01 a       429     0    15     1     9
 -7.3208465689156892E+00 a       430     0    15     1    10
  1.4591467315932976E+01 a       431     0    15     1    11
  2.3794260036939303E+01 a       432     0    15     1    12
 -8.2745371951242941E+00 a       433     0    15     1    13
 -8.7864285936468391E+00 a       434     0    15     1    14
  6.2083665252661546E-01 a       435     0    15     1    15
 -2.0415728155053515E+01 a       436     0    15     1    16
  1.4169123788045940E+01 a       437     0    15     1    17
 -3.1152239789554725E+00 a       438     0    15     1    18
 -1.0306307598765754E+01 a       439     0    15     1    19
 -2.2367934571558841E+01 a       440     0    15     1    20
 -4.5833698826170375E+00 a       441     0    15     1    21
  1.0208760561618032E+01 a       442     0    15     1    22
  2.8290318524995648E+01 a       443     0    15     1    23
 -1.0532870276425591E+01 a       444     0    15     1    24
  3.2706246739883220E+01 a       445     0    15     1    25
 -1.7150371405805387E+01 a       446     0    15     1    26
  1.6499736316862830E+01 a       447     0    15     1    27
  1.4452919766075828E+01 a       448     0    15     1    28
  1.3996627336442891E+01 a       449     0    15     1    29
  2.3807381316130616E+01 a       450     0    15     1    30
 -5.2002382572323391E+01 a       451     0    16     1     1
 -5.4713850520987304E+00 a       452     0    16     1     2
 -6.2792415394709291E+00 a       453     0    16     1     3
 -3.3617112495474821E+01 a       454     0    16     1     4
 -3.4484647502465997E+01 a       455     0    16     1     5
 -1.1178179973444698E+02 a       456     0    16     1     6
 -3.0822538023624709E+01 a       457     0    16     1     7
 -3.7411212083726461E+01 a       458     0    16     1     8
  1.6880727174415071E+00 a       459     0    16     1     9
 -2.6009982118495227E+01 a       460     0    16     1    10
  8.9830260415520033E+00 a       461     0    16     1    11
 -1.1330007317908628E+01 a       462     0    16     1    12
 -1.0853582704506676E+01 a       463     0    16     1    13
 -5.8350060619796196E+01 a       464     0    16     1    14
  1.0712348601745898E+01 a       465     0    16     1    15
  1.4687882473635502E+01 a       466     0    16     1    16
 -2.7637912195119469E+01 a       467     0    16     1    17
 -3.5540891707203341E+00 a       468     0    16     1    18
 -2.1009946320224767E+01 a       469     0    16     1    19
 -8.9953524043199220E+00 a       470     0    16     1    20
  2.0106825602652485E+01 a       471     0    16     1    21
 -1.2142202079482173E+01 a       472     0    16     1    22
 -3.9113709435722683E+01 a       473     0    16     1    23
  1.2921406096082329E+01 a       474     0    16     1    24
  9.9214029229692802E+00 a       475     0    16     1    25
 -4.5628782162580634E+01 a       476     0    16     1    26
  4.9004711687177647E+00 a       477     0    16     1    27
 -6.7615462228008152E+00 a       478     0    16     1    28
 -1.3088989550622655E+01 a       479     0    16     1    29
 -2.8949068129573931E+01 a       480     0    16     1    30
 -2.9059165346097160E+01 a       481     0    17     1     1
 -1.0332232602849935E+01 a       482     0    17     1     2
  2.1685533336088476E+01 a       483     0    17     1     3
 -1.3485257260128664E+01 a       484     0    17     1     4
  1.5533040259901127E+00 a       485     0    17     1     5
  6.7282124458557426E+00 a       486     0    17     1     6
 -8.4896665540091902E+00 a       487     0    17     1     7
  2.2681887322525153E+01 a       488     0    17     1     8
  2.4440630571918284E+01 a       489     0    17     1     9
  2.8425609305809556E+00 a       490     0    17     1    10
 -8.5873560387030512E+00 a       491     0    17     1    11
 -1.8344075828505456E+01 a       492     0    17     1    12
 -1.4196717018067781E-02 a       493     0    17     1    13
 -6.8269262491718550E+00 a       494     0    17     1    14
  4.4949946928531554E+00 a       495     0    17     1    15
 -9.7795060250270041E+00 a       496     0    17     1    16
  4.2391453085139972E+00 a       497     0    17     1    17
  6.4772461166940349E+00 a       498     0    17     1    18
  2.4244868572017118E+00 a       499     0    17     1    19
  7.4705223879415543E+00 a       500     0    17     1    20
  1.2435050082396533E+01 a       501     0    17     1    21
  6.4916223595999245E+00 a       502     0    17     1    22
  2.2729586769403880E+01 a       503     0    17     1    23
  6.7325840103934387E-01 a       504     0    17     1    24
 -3.7673376491507668E+01 a       505     0    17     1    25
 -7.9639557410808393E-01 a       506     0    17     1    26
 -3.9723341010065527E-01 a       507     0    17     1    27
 -2.6303687573971064E+01 a       508     0    17     1    28
 -1.9988480758964791E+00 a       509     0    17     1    29
 -1.0779685998391157E+02 a       510     0    17     1    30
  2.3712529176204665E+01 a       511     0    18     1     1
 -7.0735552597250599E+00 a       512     0    18     1     2
  1.9828310507328272E+01 a       513     0    18     1     3
  5.4182971455017901E+00 a       514     0    18     1     4
  2.1597642762905531E+00 a       515     0    18     1     5
 -5.2660462732582275E+01 a       516     0    18     1     6
  5.4854737115928110E+01 a       517     0    18     1     7
 -3.5943829417217422E+01 a       518     0    18     1     8
  8.9478407920127808E+01 a       519     0    18     1     9
  3.5074458879932404E+00 a       520     0    18     1    10
 -3.6191502421227305E+01 a       521     0    18     1    11
 -2.4121213620600205E+01 a       522     0    18     1    12
 -1.1279812436393506E+02 a       523     0    18     1    13
  2.8629837649907792E+01 a       524     0    18     1    14
  6.8370615630495564E+01 a       525     0    18     1    15
  1.3824995398442720E+01 a       526     0    18     1    16
  1.3901388939564779E+01 a       527     0    18     1    17
  1.6180798793351830E+01 a       528     0    18     1    18
  7.2469582709866831E-01 a       529     0    18     1    19
  3.2711907155113870E+01 a       530     0    18     1    20
 -2.1166395826840471E+01 a       531     0    18     1    21
 -1.3797245848415196E+00 a       532     0    18     1    22
  1.4162297151000473E+01 a       533     0    18     1    23
  3.6698292059388002E+01 a       534     0    18     1    24
  3.8647001194460731E+00 a       535     0    18     1    25
  2.5190159279144400E+01 a       536     0    18     1    26
  3.6508104960363163E+01 a       537     0    18     1    27
 -3.9267544663982550E+00 a       538     0    18     1    28
 -6.1114551020505248E+00 a       539     0    18     1    29
 -3.3298071422329144E+01 a       540     0    18     1    30
  1.9735192233385519E+01 a       541     0    19     1     1
  1.7585012261022101E+01 a       542     0    19     1     2
  1.3810003344452790E+01 a       543     0    19     1     3
  1.7845431423767160E+01 a       544     0    19     1     4
 -2.3507211447203744E+01 a       545     0    19     1     5
 -2.2513213181273567E+01 a       546     0    19     1     6
 -8.5833170971785098E+00 a       547     0    19     1     7
 -7.1956907088342374E+00 a       548     0    19     1     8
 -1.7966720540837873E+01 a       549     0    19     1     9
 -9.2527813835400696E+00 a       550     0    19     1    10
 -1.8606838431732127E+00 a       551     0    19     1    11
  1.2447561550026769E+01 a       552     0    19     1    12
 -5.6803475891965505E+00 a       553     0    19     1    13
  1.8331148301819976E+01 a       554     0    19     1    14
 -1.1886165318936288E+00 a       555     0    19     1    15
  2.5603541944994824E+01 a       556     0    19     1    16
  4.3503729382514509E+00 a       557     0    19     1    17
 -1.0493627025726504E+01 a       558     0    19     1    18
 -6.4238260834221119E+00 a       559     0    19     1    19
  1.7994413702534267E+01 a       560     0    19     1    20
  2.3226112937465313E+01 a       561     0    19     1    21
 -1.0467222756924308E+01 a       562     0    19     1    22
  4.4570402392515600E+00 a       563     0    19     1    23
  1.2446354697845734E+01 a       564     0    19     1    24
  2.9991838597854223E+01 a       565     0    19     1    25
 -1.0629655296937488E+01 a       566     0    19     1    26
  1.4107750995326754E+01 a       567     0    19     1    27
  1.8667680606157795E+01 a       568     0    19     1    28
  9.1079055671770472E+00 a       569     0    19     1    29
 -3.3262150926913485E+01 a       570     0    19     1    30
  2.5964590151669125E+01 a       571     0    20     1     1
  9.7923662473990287E+00 a       572     0    20     1     2
  1.0988624833405514E+00 a       573     0    20     1     3
 -8.2654574912512970E+00 a       574     0    20     1     4
  3.9241462968523635E+01 a       575     0    20     1     5
  8.8236273576649040E+01 a       576     0    20     1     6
  2.1227136779996020E+01 a       577     0    20     1     7
  5.9865241512796485E+00 a       578     0    20     1     8
  1.4250698030014098E+01 a       579     0    20     1     9
  2.9722905511857963E+01 a       580     0    20     1    10
  1.3920091479669352E+01 a       581     0    20     1    11
  1.8925745606274094E+00 a       582     0    20     1    12
 -4.0474164904853801E+01 a       583     0    20     1    13
  2.6364525013126364E+01 a       584     0    20     1    14
  2.6198962351066488E+01 a       585     0    20     1    15
 -2.7224237145305953E+01 a       586     0    20     1    16
 -1.4041395703983451E+01 a       587     0    20     1    17
  5.7318496651689355E+00 a       588     0    20     1    18
 -1.1564102662358350E+01 a       589     0    20     1    19
 -2.7584127745078057E+01 a       590     0    20     1    20
  2.9650610808630585E+01 a       591     0    20     1    21
  1.4165996983115603E+01 a       592     0    20     1    22
 -4.4951314556301698E+00 a       593     0    20     1    23
 -2.8628882556246452E+01 a       594     0    20     1    24
  7.1644498398192162E+00 a       595     0    20     1    25
  2.1112336523307249E+01 a       596     0    20     1    26
  1.8513530497827513E+00 a       597     0    20     1    27
 -1.0830421086780833E+01 a       598     0    20     1    28
  9.7754832223932890E+00 a       599     0    20     1    29
  3.1995990349468919E+01 a       600     0    20     1    30
  2.3330611401445381E+01 a       601     0    21     1     1
 -1.4978005949678000E+01 a       602     0    21     1     2
  1.9859464436526441E+01 a       603     0    21     1     3
 -9.9876851033269247E+00 a       604     0    21     1     4
 -1.4720977638236151E+01 a       605     0    21     1     5
  4.8134320325247828E+01 a       606     0    21     1     6
  4.2777859865736794E+00 a       607     0    21     1     7
 -9.4741542680098974E+00 a       608     0    21     1     8
  3.3136171826943105E+01 a       609     0    21     1     9
  3.8357051377084544E-01 a       610     0    21     1    10
 -2.2217567957349054E+01 a       611     0    21     1    11
 -1.9931670521426394E+01 a       612     0    21     1    12
  1.5623374920697007E+01 a       613     0    21     1    13
  3.1873452294447450E+01 a       614     0    21     1    14
 -2.0858826583038659E+00 a       615     0    21     1    15
 -1.1481691140715697E+00 a       616     0    21     1    16
 -1.5569807903966167E+01 a       617     0    21     1    17
 -8.6734910044737497E+00 a       618     0    21     1    18
  3.1865749128807554E+01 a       619     0    21     1    19
  1.8784303792506954E+01 a       620     0    21     1    20
 -6.7795569943063390E+00 a       621     0    21     1    21
 -1.6035564704167449E+00 a       622     0    21     1    22
 -3.3505136052958653E+00 a       623     0    21     1    23
  2.2032401734067498E+01 a       624     0    21     1    24
 -3.3513619370684566E+01 a       625     0    21     1    25
  3.6488892826691682E+01 a       626     0    21     1    26
 -1.0632878634345550E+01 a       627     0    21     1    27
 -1.8458516314638878E+01 a       628     0    21     1    28
  7.2414498803745184E+00 a       629     0    21     1    29
  1.0903136914009560E+01 a       630     0    21     1    30
 -1.4228778418765092E+01 a       631     0    22     1     1
 -8.5779010925281973E+00 a       632     0    22     1     2
 -1.1205729185457742E+00 a       633     0    22     1     3
  2.5207266907801895E+01 a       634     0    22     1     4
 -3.4325317919546016E+01 a       635     0    22     1     5
  3.1224773164791886E-01 a       636     0    22     1     6
 -3.3263906255221521E+01 a       637     0    22     1     7
  1.8084344231191942E+01 a       638     0    22     1     8
 -2.6369871919338717E+01 a       639     0    22     1     9
  1.6213974354641486E-01 a       640     0    22     1    10
 -5.4154405707710502E+00 a       641     0    22     1    11
  2.7861883393224698E+01 a       642     0    22     1    12
  7.0780558836746323E+01 a       643     0    22     1    13
 -1.2938467528010218E+01 a       644     0    22     1    14
 -5.4277913034536127E+01 a       645     0    22     1    15
  9.9278902734375585E+00 a       646     0    22     1    16
 -1.0898630824064456E+01 a       647     0    22     1    17
  2.0254836162431449E+01 a       648     0    22     1    18
  3.0568993572658671E+00 a       649     0    22     1    19
  6.4846792816197123E+00 a       650     0    22     1    20
  2.3475320838437355E+01 a       651     0    22     1    21
  4.3486685553326136E+00 a       652     0    22     1    22
 -1.8294260145550954E+01 a       653     0    22     1    23
 -8.9283752856076060E+00 a       654     0    22     1    24
 -1.5790775214260890E+01 a       655     0    22     1    25
 -1.1616755637005436E+01 a       656     0    22     1    26
 -1.8783965596700366E+01 a       657     0    22     1    27
 -7.4389997710766753E+00 a       658     0    22     1    28
 -1.2992548378923843E+00 a       659     0    22     1    29
 -1.3346677272984254E+01 a       660     0    22     1    30
  1.9859423797314751E+01 a       661     0    23     1     1
  2.2114507517324625E+01 a       662     0    23     1     2
 -8.3243167417557782E+00 a       663     0    23     1     3
  5.8220035919981372E+00 a       664     0    23     1     4
 -1.8429221621457792E+01 a       665     0    23     1     5
 -3.6814262285026885E+01 a       666     0    23     1     6
  1.3918459076242304E+00 a       667     0    23     1     7
 -3.1861693772152528E+01 a       668     0    23     1     8
 -9.3192891964307556E+00 a       669     0    23     1     9
  5.3833149309287176E+00 a       670     0    23     1    10
  1.4450596398499787E+01 a       671     0    23     1    11
  2.0398212517284438E+01 a       672     0    23     1    12
 -8.0357924640884768E+00 a       673     0    23     1    13
  1.8251813969960999E+01 a       674     0    23     1    14
 -7.2530777112741929E-01 a       675     0    23     1    15
  6.4246682215356676E+00 a       676     0    23     1    16
 -7.4304999388275608E+00 a       677     0    23     1    17
 -3.6491542032279431E+00 a       678     0    23     1    18
 -1.7002382351408025E+00 a       679     0    23     1    19
 -1.2713397449585933E+01 a       680     0    23     1    20
  6.1726061117027058E+00 a       681     0    23     1    21
 -7.5337057046079119E+00 a       682     0    23     1    22
 -2.2335295416490098E+01 a       683     0    23     1    23
  1.7610951233133265E+00 a       684     0    23     1    24
  2.9483696057686647E+01 a       685     0    23     1    25
 -1.4211639268912739E+01 a       686     0    23     1    26
  2.9324964044152106E+00 a       687     0    23     1    27
  4.0044795934107469E+01 a       688     0    23     1    28
 -1.1697971582544465E+01 a       689     0    23     1    29
  3.2250736472447947E+01 a       690     0    23     1    30
  2.7841306209135237E+01 a       691     0    24     1     1
 -5.4936330495183743E+00 a       692     0    24     1     2
 -1.5986701889452965E+01 a       693     0    24     1     3
  2.5171865112985838E+01 a       694     0    24     1     4
  2.9271107414357644E+01 a       695     0    24     1     5
  2.1618091941796905E+01 a       696     0    24     1     6
 -1.2072010506475839E+00 a       697     0    24     1     7
  5.7011418585511954E+01 a       698     0    24     1     8
 -3.9543793083701665E+01 a       699     0    24     1     9
  2.3263796299723023E+01 a       700     0    24     1    10
  1.0075256433127048E+01 a       701     0    24     1    11
 -1.0884470359262878E+01 a       702     0    24     1    12
  1.0455171329068942E+02 a       703     0    24     1    13
  1.4068814546898803E+01 a       704     0    24     1    14
 -3.6633319237176003E+01 a       705     0    24     1    15
 -1.5809319513908264E+01 a       706     0    24     1    16
  2.2435715303177055E+01 a       707     0    24     1    17
  9.5690737039609157E+00 a       708     0    24     1    18
  1.6466983885979051E+01 a       709     0    24     1    19
  6.9909781896147374E+00 a       710     0    24     1    20
 -1.0159322159116543E+01 a       711     0    24     1    21
  6.8161180403951596E+00 a       712     0    24     1    22
  3.7667760628245048E+01 a       713     0    24     1    23
 -3.8481167194223296E+01 a       714     0    24     1    24
  6.5292931336191833E+00 a       715     0    24     1    25
  3.5101074335499831E+00 a       716     0    24     1    26
 -2.2025354867431275E+01 a       717     0    24     1    27
  1.6333072653742995E+01 a       718     0    24     1    28
  1.3681302695481222E+01 a       719     0    24     1    29
  2.9733903948700693E+00 a       720     0    24     1    30
 -6.4687721767957278E+00 a       721     0    25     1     1
 -3.8057989083105319E+01 a       722     0    25     1     2
 -6.7794625524363186E+00 a       723     0    25     1     3
 -7.1303728737569090E+00 a       724     0    25     1     4
  1.5007048043388629E+01 a       725     0    25     1     5
  2.2557348379457991E+01 a       726     0    25     1     6
  4.4586741844372106E+00 a       727     0    25     1     7
  1.0286414708922788E+01 a       728     0    25     1     8
  1.1217238372777095E+01 a       729     0    25     1     9
  5.6370728125837806E+00 a       730     0    25     1    10
  1.1391380051274464E+01 a       731     0    25     1    11
 -6.1264774362348362E+00 a       732     0    25     1    12
  1.5636082452149324E+01 a       733     0    25     1    13
 -3.5293419795857073E+00 a       734     0    25     1    14
 -5.1131994237549661E+00 a       735     0    25     1    15
 -6.6088431759440791E+00 a       736     0    25     1    16
 -9.6267073607049465E+00 a       737     0    25     1    17
  1.5078389590079265E+01 a       738     0    25     1    18
  1.3661772731494230E+01 a       739     0    25     1    19
 -1.9865106394368443E+01 a       740     0    25     1    20
 -1.7178548455722492E+01 a       741     0    25     1    21
 -4.5243926159563452E+00 a       742     0    25     1    22
 -5.7702009420745659E+00 a       743     0    25     1    23
 -9.9390544327796029E+00 a       744     0    25     1    24
 -2.3714402982077548E+01 a       745     0    25     1    25
  1.1924170146585961E+01 a       746     0    25     1    26
 -1.5327821504607304E+01 a       747     0    25     1    27
 -1.6317352922216518E+01 a       748     0    25     1    28
 -6.1189026408377263E+00 a       749     0    25     1    29
  4.3164688485340989E+01 a       750     0    25     1    30
 -2.2041310269538695E+01 a       751     0    26     1     1
 -1.2267565553906465E+01 a       752     0    26     1     2
  6.9823215650035051E+00 a       753     0    26     1     3
  2.7697061017704648E+01 a       754     0    26     1     4
 -3.2035782941423172E+01 a       755     0    26     1     5
 -5.5751773302521535E+01 a       756     0    26     1     6
 -2.7200382821431308E+01 a       757     0    26     1     7
  1.8436181781257574E+01 a       758     0    26     1     8
 -3.2253879123476132E+01 a       759     0    26     1     9
 -3.1502566601390775E+01 a       760     0    26     1    10
 -2.4106099535972405E+01 a       761     0    26     1    11
  2.3322099468592099E+00 a       762     0    26     1    12
  1.1526924500180756E+02 a       763     0    26     1    13
 -1.3720902917208717E+01 a       764     0    26     1    14
 -4.9626876018179679E+01 a       765     0    26     1    15
  1.6285829637065603E+01 a       766     0    26     1    16
  1.5044839363045678E+01 a       767     0    26     1    17
  1.5404450300087442E+01 a       768     0    26     1    18
  1.3953364548520279E+01 a       769     0    26     1    19
  2.2870945623716818E+01 a       770     0    26     1    20
 -1.3740007481392954E+01 a       771     0    26     1    21
 -2.8549287767209929E+01 a       772     0    26     1    22
  1.2477424643423337E+01 a       773     0    26     1    23
  9.5010112867400345E+00 a       774     0    26     1    24
  2.1147658019849047E+01 a       775     0    26     1    25
 -3.7247577292837072E+01 a       776     0    26     1    26
 -3.8118945160072286E+01 a       777     0    26     1    27
  1.2555990321706036E+01 a       778     0    26     1    28
 -6.2363157574888053E+00 a       779     0    26     1    29
 -2.3389893019921999E+01 a       780     0    26     1    30
  1.6540513057995366E+01 a       781     0    27     1     1
 -2.4039217629057261E+00 a       782     0    27     1     2
  5.5487622080643156E+01 a       783     0    27     1     3
 -7.4652936836293113E+00 a       784     0    27     1     4
 -1.5328784361490966E+01 a       785     0    27     1     5
  5.7483375924503733E+01 a       786     0    27     1     6
  7.4934968988742134E-01 a       787     0    27     1     7
 -2.6916375622798412E+01 a       788     0    27     1     8
  3.2173363673571806E+01 a       789     0    27     1     9
 -6.0791653211783170E-01 a       790     0    27     1    10
  1.2982810306202861E+00 a       791     0    27     1    11
 -3.5886464445096742E+01 a       792     0    27     1    12
 -2.1048542209807891E+01 a       793     0    27     1    13
  2.3189882314768148E+01 a       794     0    27     1    14
  1.2155865057842201E+01 a       795     0    27     1    15
 -2.5975640700109111E+00 a       796     0    27     1    16
 -5.2078599446593932E-01 a       797     0    27     1    17
 -1.1336667084219107E+01 a       798     0    27     1    18
  2.5419989644610311E+01 a       799     0    27     1    19
  1.0080478793050363E+01 a       800     0    27     1    20
 -9.2134754099986846E+00 a       801     0    27     1    21
 -2.7477767174962286E+00 a       802     0    27     1    22
 -7.9507872388452201E+00 a       803     0    27     1    23
  2.8247897891246829E+00 a       804     0    27     1    24
 -2.4846071994952613E+01 a       805     0    27     1    25
  3.8714578550668072E+01 a       806     0    27     1    26
 -1.3622513759744102E+01 a       807     0    27     1    27
 -1.0963531740309133E+01 a       808     0    27     1    28
 -2.1135043051135824E+01 a       809     0    27     1    29
 -6.7265875327261559E+00 a       810     0    27     1    30
  6.0096204112318556E+00 a       811     0    28     1     1
  2.6686665624445709E+01 a       812     0    28     1     2
  3.9374935278147700E+00 a       813     0    28     1     3
  3.0038816946330368E+01 a       814     0    28     1     4
  1.3139343176807428E+00 a       815     0    28     1     5
  7.0879408729955529E+01 a       816     0    28     1     6
 -1.5183146224876682E+00 a       817     0    28     1     7
  2.2339346838670675E+00 a       818     0    28     1     8
 -2.2462128099789400E+01 a       819     0    28     1     9
  1.1024449496244678E+01 a       820     0    28     1    10
  1.2827796322912842E+01 a       821     0    28     1    11
  6.3033095534725817E+01 a       822     0    28     1    12
 -3.3723553776963463E+01 a       823     0    28     1    13
  5.6093434316727366E+00 a       824     0    28     1    14
 -3.8386214670982554E+01 a       825     0    28     1    15
  1.3854063290909698E+01 a       826     0    28     1    16
  1.3165470060565497E+01 a       827     0    28     1    17
  8.4125136495665984E+00 a       828     0    28     1    18
 -2.8353985732291171E+00 a       829     0    28     1    19
 -2.4804017284274341E+01 a       830     0    28     1    20
  1.7041582344435067E+01 a       831     0    28     1    21
  2.3717221806516314E+01 a       832     0    28     1    22
 -5.0076223859923017E+00 a       833     0    28     1    23
 -1.4363409181215379E+01 a       834     0    28     1    24
 -1.2290740356582317E+01 a       835     0    28     1    25
  2.2167813362909254E+01 a       836     0    28     1    26
 -7.2503098125120484E+00 a       837     0    28     1    27
 -8.8480768562718630E+00 a       838     0    28     1    28
 -1.1151256533101590E+01 a       839     0    28     1    29
  1.7631659524617337E+01 a       840     0    28     1    30
  2.5087065162716549E+01 a       841     0    29     1     1
 -1.5653896170940220E+01 a       842     0    29     1     2
 -2.4878605340496438E+01 a       843     0    29     1     3
  2.3484435575084433E+01 a       844     0    29     1     4
  2.0088904923243152E+00 a       845     0    29     1     5
 -2.5985579606532255E+01 a       846     0    29     1     6
  7.5628591190580927E+00 a       847     0    29     1     7
 -9.3513125869260030E+00 a       848     0    29     1     8
 -1.9297574514084150E+01 a       849     0    29     1     9
 -3.2177781747940735E+00 a       850     0    29     1    10
 -4.8510734207867818E+00 a       851     0    29     1    11
  1.0422636987243539E+01 a       852     0    29     1    12
  9.8624617891222943E+00 a       853     0    29     1    13
 -2.8176912707152764E+00 a       854     0    29     1    14
 -5.1201388624342323E+00 a       855     0    29     1    15
  2.4162292014383244E+01 a       856     0    29     1    16
 -7.5690379657333793E+00 a       857     0    29     1    17
 -3.3545955842641328E+00 a       858     0    29     1    18
 -6.4023100296357720E+00 a       859     0    29     1    19
  1.1543547710682249E+01 a       860     0    29     1    20
 -1.1615500042292247E+01 a       861     0    29     1    21
 -5.1353606980909507E+00 a       862     0    29     1    22
 -2.9534727676237519E+01 a       863     0    29     1    23
 -2.3390168023882234E+00 a       864     0    29     1    24
  3.4964452597614518E+01 a       865     0    29     1    25
  5.6733483763213644E-01 a       866     0    29     1    26
 -1.1873345599818734E+01 a       867     0    29     1    27
  1.1774531337195745E+01 a       868     0    29     1    28
 -2.2504479928929935E+00 a       869     0    29     1    29
  7.9432015634552371E+01 a       870     0    29     1    30
  2.8754071352631572E+00 a       871     0    30     1     1
  2.3189997070631136E+01 a       872     0    30     1     2
 -1.3144978974346661E-01 a       873     0    30     1     3
 -2.7054434321404145E+01 a       874     0    30     1     4
  3.8154009935848258E+01 a       875     0    30     1     5
  6.9284505111597056E+01 a       876     0    30     1     6
 -2.3839062266709693E+01 a       877     0    30     1     7
  2.3184761664605922E+01 a       878     0    30     1     8
 -7.4881928847448734E+01 a       879     0    30     1     9
  1.2272268045077452E+01 a       880     0    30     1    10
  6.0860489317058573E+01 a       881     0    30     1    11
 -1.7040666963961183E+01 a       882     0    30     1    12
  2.8808140518941240E+01 a       883     0    30     1    13
 -1.4573469028374200E+01 a       884     0    30     1    14
 -3.3987721210236494E+01 a       885     0    30     1    15
 -3.4618965398936695E+01 a       886     0    30     1    16
  8.6800970892156446E+00 a       887     0    30     1    17
 -4.2793866076897601E+01 a       888     0    30     1    18
  1.2617166144929197E+00 a       889     0    30     1    19
 -4.6220727992689078E+01 a       890     0    30     1    20
  1.4284270485087241E+01 a       891     0    30     1    21
  5.6640748534228758E+00 a       892     0    30     1    22
  6.1402326909439724E+00 a       893     0    30     1    23
 -4.5318757854221701E+01 a       894     0    30     1    24
 -2.5718260407277356E+00 a       895     0    30     1    25
 -3.0088696084126734E+00 a       896     0    30     1    26
 -2.7006258033835518E+01 a       897     0    30     1    27
 -1.3099589180348925E+00 a       898     0    30     1    28
 -4.8585372909402400E+00 a       899     0    30     1    29
  5.2637578101133109E+01 a       900     0    30     1    30
 -3.2862481001120067E+01 a       901     0    31     1     1
  2.6659093670153588E+01 a       902     0    31     1     2
 -4.3843547683626793E+00 a       903     0    31     1     3
 -2.8624420865541314E+01 a       904     0    31     1     4
  2.3284875020056404E+01 a       905     0    31     1     5
  1.7869470389521979E+01 a       906     0    31     1     6
  1.2519670255327352E+01 a       907     0    31     1     7
 -4.2042383693943384E+00 a       908     0    31     1     8
  2.0834193905373656E+01 a       909     0    31     1     9
  5.1856234851150083E+00 a       910     0    31     1    10
 -1.5131255510705504E+01 a       911     0    31     1    11
 -1.4117325143153611E+01 a       912     0    31     1    12
 -1.3355396507782496E+01 a       913     0    31     1    13
 -2.9542889047486266E+01 a       914     0    31     1    14
  1.2674426543052947E+01 a       915     0    31     1    15
 -3.8890902695819754E+01 a       916     0    31     1    16
  7.4901531682478328E+00 a       917     0    31     1    17
  2.9181553080286959E+00 a       918     0    31     1    18
 -3.2527071208627487E+00 a       919     0    31     1    19
 -7.4874888922823599E+00 a       920     0    31     1    20
 -2.6073939792667367E+01 a       921     0    31     1    21
  2.3051887089406964E+01 a       922     0    31     1    22
  1.6263779102690015E-01 a       923     0    31     1    23
 -1.3585837410131830E+01 a       924     0    31     1    24
 -1.7284123936299668E+01 a       925     0    31     1    25
  5.4832110852214564E+00 a       926     0    31     1    26
 -3.9904809908683823E+00 a       927     0    31     1    27
 -9.5636542671011426E+00 a       928     0    31     1    28
 -7.9254888650808981E+00 a       929     0    31     1    29
  7.0650495352023157E+01 a       930     0    31     1    30
 -2.4651108036869552E+01 a       931     0    32     1     1
  1.6166782182478985E+00 a       932     0    32     1     2
 -7.5285464177359378E+00 a       933     0    32     1     3
 -4.4619919348440710E+01 a       934     0    32     1     4
 -9.3048971916460825E+00 a       935     0    32     1     5
 -2.0545429520134078E+01 a       936     0    32     1     6
  5.3381676926649790E+00 a       937     0    32     1     7
 -3.8986439683849902E+01 a       938     0    32     1     8
  1.5739520272852022E+01 a       939     0    32     1     9
 -1.5635767469234388E+01 a       940     0    32     1    10
  1.0066376932245289E+01 a       941     0    32     1    11
 -1.6842856473588995E+01 a       942     0    32     1    12
 -1.0569721328908955E+02 a       943     0    32     1    13
 -3.2598770689000624E+01 a       944     0    32     1    14
  2.6084565627745228E+01 a       945     0    32     1    15
  1.9717765547252935E+01 a       946     0    32     1    16
 -4.5614740921625749E+00 a       947     0    32     1    17
 -5.5782781551692082E+01 a       948     0    32     1    18
  8.2989770546338748E-01 a       949     0    32     1    19
  1.5694844723255390E+01 a       950     0    32     1    20
 -2.6957698049500632E+01 a       951     0    32     1    21
  1.5493540794592491E+01 a       952     0    32     1    22
 -1.4340737845378678E+01 a       953     0    32     1    23
  4.4455025719842141E+01 a       954     0    32     1    24
 -3.1420703226440114E+01 a       955     0    32     1    25
  6.2190054848217731E+00 a       956     0    32     1    26
  6.3648413765826355E+01 a       957     0    32     1    27
 -1.4513256981462108E+01 a       958     0    32     1    28
  1.5435526431625084E+00 a       959     0    32     1    29
 -1.1705495226371927E+01 a       960     0    32     1    30
 -1.5986999608298964E+01 a       961     0    33     1     1
  6.7702940364301500E-01 a       962     0    33     1     2
 -2.9255805458288023E+01 a       963     0    33     1     3
  1.4251292450147655E+01 a       964     0    33     1     4
  1.5754394400731508E+01 a       965     0    33     1     5
 -4.0736114292146880E+01 a       966     0    33     1     6
  3.7698810483286156E+00 a       967     0    33     1     7
  4.2509570740653110E+01 a       968     0    33     1     8
 -3.5422863652850310E+01 a       969     0    33     1     9
  8.1147804871394484E+00 a       970     0    33     1    10
  1.1731404872863761E+01 a       971     0    33     1    11
 -1.6196257702223807E+01 a       972     0    33     1    12
  9.2518786407028362E+00 a       973     0    33     1    13
 -2.1375759161711105E+01 a       974     0    33     1    14
  2.8383390186284835E+01 a       975     0    33     1    15
 -1.1210200607436272E+01 a       976     0    33     1    16
  2.1047418781050062E+01 a       977     0    33     1    17
  1.3003831882453701E+01 a       978     0    33     1    18
 -3.1524885449526785E+01 a       979     0    33     1    19
 -7.7476371165159490E+00 a       980     0    33     1    20
 -2.1284175993378220E+01 a       981     0    33     1    21
  5.7837623719306797E-01 a       982     0    33     1    22
  6.6639523906278502E+00 a       983     0    33     1    23
 -2.2438486749590339E+01 a       984     0    33     1    24
  5.5277692276604618E+01 a       985     0    33     1    25
 -3.2666679003367157E+01 a       986     0    33     1    26
  1.6329938609338498E+01 a       987     0    33     1    27
  3.7535271522578590E+01 a       988     0    33     1    28
  2.1980442343919036E+00 a       989     0    33     1    29
 -2.3321343662741665E+01 a       990     0    33     1    30
  3.1154527037257944E+00 a       991     0    34     1     1
 -1.2125495449232655E+01 a       992     0    34     1     2
 -4.0787880612965139E+01 a       993     0    34     1     3
 -1.4206831294024767E+00 a       994     0    34     1     4
  4.8497248124837938E+01 a       995     0    34     1     5
  8.0122434801680509E+00 a       996     0    34     1     6
  4.8166008072328118E+01 a       997     0    34     1     7
 -1.3584858440359120E+00 a       998     0    34     1     8
  4.8747801491095871E+01 a       999     0    34     1     9
  9.9091333107917841E+00 a      1000     0    34     1    10
 -4.2222552521554327E+01 a      1001     0    34     1    11
  3.7626413606969969E+01 a      1002     0    34     1    12
 -4.3420813217103358E+01 a      1003     0    34     1    13
  1.1582774054996868E+01 a      1004     0    34     1    14
  5.3976302522499878E+01 a      1005     0    34     1    15
  4.3228654876283962E+01 a      1006     0    34     1    16
 -6.2403201287301844E+00 a      1007     0    34     1    17
  5.1490919789728133E+00 a      1008     0    34     1    18
 -9.3476193490144830E+00 a      1009     0    34     1    19
  1.8750705099997109E+01 a      1010     0    34     1    20
 -3.2860156805345881E+01 a      1011     0    34     1    21
  5.8491697360995722E+00 a      1012     0    34     1    22
  2.6868176825636180E+01 a      1013     0    34     1    23
  2.8940915335568697E+01 a      1014     0    34     1    24
  1.0337325772324572E+01 a      1015     0    34     1    25
  1.9628146424203731E+01 a      1016     0    34     1    26
  3.6585761679607096E+01 a      1017     0    34     1    27
  5.1746760130726921E+00 a      1018     0    34     1    28
  4.4706718868801147E+01 a      1019     0    34     1    29
  1.6864392206009118E+01 a      1020     0    34     1    30
 -2.7889827603872305E+01 a      1021     0    35     1     1
  3.3502112352169893E+00 a      1022     0    35     1     2
  2.0638157591931037E+01 a      1023     0    35     1     3
 -2.0093548585678203E+01 a      1024     0    35     1     4
  1.4838540710380693E+01 a      1025     0    35     1     5
  5.8198762685912342E+01 a      1026     0    35     1     6
 -3.6582065754354218E+00 a      1027     0    35     1     7
  2.5360494076728948E+01 a      1028     0    35     1     8
  1.3371168895799803E+00 a      1029     0    35     1     9
 -6.5569246875578102E+00 a      1030     0    35     1    10
 -3.0004860254001633E+00 a      1031     0    35     1    11
 -1.4089280416091574E+01 a      1032     0    35     1    12
 -2.3856024353987748E+00 a      1033     0    35     1    13
 -2.3387635731525691E+01 a      1034     0    35     1    14
 -5.1926622269261529E+00 a      1035     0    35     1    15
 -2.4510379336141792E+01 a      1036     0    35     1    16
  1.6230836966691733E+01 a      1037     0    35     1    17
  1.7780278194482595E+00 a      1038     0    35     1    18
 -1.3303637016291527E+00 a      1039     0    35     1    19
 -7.0896327534484120E+00 a      1040     0    35     1    20
 -6.8174948477293407E-01 a      1041     0    35     1    21
  1.5524938686593424E+00 a      1042     0    35     1    22
  2.8371773255309435E+01 a      1043     0    35     1    23
 -4.1811692236539386E+00 a      1044     0    35     1    24
 -3.2387425998407593E+01 a      1045     0    35     1    25
  6.2633482384683683E+00 a      1046     0    35     1    26
  1.0909782363872445E+01 a      1047     0    35     1    27
 -3.6883165716423704E+01 a      1048     0    35     1    28
  1.9260421434486812E+01 a      1049     0    35     1    29
  3.3372783241489410E+00 a      1050     0    35     1    30
 -3.6466532362180708E+01 a      1051     0    36     1     1
 -2.2410039733557070E+01 a      1052     0    36     1     2
  3.1675816626594852E+01 a      1053     0    36     1     3
 -3.9738329556462894E+01 a      1054     0    36     1     4
 -3.4834427929414410E+01 a      1055     0    36     1     5
 -3.5299388440232271E+01 a      1056     0    36     1     6
 -6.5641369207685294E+00 a      1057     0    36     1     7
 -5.2238058219957033E+01 a      1058     0    36     1     8
  4.2578097834089156E+01 a      1059     0    36     1     9
 -4.0440610112732962E+01 a      1060     0    36     1    10
 -3.4016296600374247E+01 a      1061     0    36     1    11
 -3.1369257640715833E+01 a      1062     0    36     1    12
 -3.7328954086427913E+01 a      1063     0    36     1    13
 -3.8137015311470028E+00 a      1064     0    36     1    14
  4.3388975504219935E+01 a      1065     0    36     1    15
 -7.6071495712935038E+00 a      1066     0    36     1    16
 -3.8552476705063988E+01 a      1067     0    36     1    17
 -1.9346046856115631E+01 a      1068     0    36     1    18
 -1.5331888372608560E+01 a      1069     0    36     1    19
  3.4062894587644671E+01 a      1070     0    36     1    20
  7.6959017667170215E+00 a      1071     0    36     1    21
 -4.9454377319083839E+01 a      1072     0    36     1    22
 -4.3930888859477164E+01 a      1073     0    36     1    23
  4.9139660165334121E+01 a      1074     0    36     1    24
 -1.0516784174036633E+01 a      1075     0    36     1    25
 -2.6322064818133420E+01 a      1076     0    36     1    26
  1.2071507061831550E+01 a      1077     0    36     1    27
 -1.1438567446140977E+01 a      1078     0    36     1    28
  6.5520033963228030E+00 a      1079     0    36     1    29
  3.0933009197893405E+01 a      1080     0    36     1    30
  2.3892542851616490E+01 a      1081     0    37     1     1
 -7.1071700536015108E+00 a      1082     0    37     1     2
 -2.3522073174779656E+00 a      1083     0    37     1     3
  2.2554816323809046E+01 a      1084     0    37     1     4
 -1.8284153588416594E+01 a      1085     0    37     1     5
 -5.3433679364358566E+00 a      1086     0    37     1     6
 -1.0622634120943816E+01 a      1087     0    37     1     7
  2.0247811104276634E+00 a      1088     0    37     1     8
 -1.7530406488628135E+01 a      1089     0    37     1     9
 -3.7803138419761301E-01 a      1090     0    37     1    10
  6.4412663100316241E+00 a      1091     0    37     1    11
  1.0203425038073540E+01 a      1092     0    37     1    12
  4.0307401701345178E+00 a      1093     0    37     1    13
  1.6867899913893524E+01 a      1094     0    37     1    14
 -7.1821143159967447E+00 a      1095     0    37     1    15
  2.5391366959395633E+01 a      1096     0    37     1    16
 -2.8612719735448855E+00 a      1097     0    37     1    17
 -9.8440716679306295E+00 a      1098     0    37     1    18
 -3.2878250948084577E+00 a      1099     0    37     1    19
  1.1356243724220610E+01 a      1100     0    37     1    20
  2.3199598809087369E+01 a      1101     0    37     1    21
 -8.0652911854410103E+00 a      1102     0    37     1    22
  2.3980627686700169E+00 a      1103     0    37     1    23
  1.4796112918704770E+01 a      1104     0    37     1    24
  1.6110509557038529E+01 a      1105     0    37     1    25
 -8.2948814550070029E+00 a      1106     0    37     1    26
  6.1988221698100050E+00 a      1107     0    37     1    27
  7.2639839027003186E+00 a      1108     0    37     1    28
  6.7007640112464077E+00 a      1109     0    37     1    29
 -8.7888065508682558E+01 a      1110     0    37     1    30
  2.8021152924276763E+01 a      1111     0    38     1     1
  2.9153862419388958E+00 a      1112     0    38     1     2
 -2.9802245214717291E+00 a      1113     0    38     1     3
  3.4732969477681500E+01 a      1114     0    38     1     4
 -5.7216460516012617E+00 a      1115     0    38     1     5
  7.2810985913332882E+00 a      1116     0    38     1     6
  4.4409102977793202E-01 a      1117     0    38     1     7
  1.5194338481525156E+01 a      1118     0    38     1     8
  3.9685127043373263E+00 a      1119     0    38     1     9
  2.1900517028369055E+01 a      1120     0    38     1    10
 -1.6461119432559945E+00 a      1121     0    38     1    11
  2.7512812424501611E+01 a      1122     0    38     1    12
  3.6960633833789757E+01 a      1123     0    38     1    13
  2.7608298783805804E+01 a      1124     0    38     1    14
 -1.8105169018616383E+00 a      1125     0    38     1    15
 -1.1643125874312668E+01 a      1126     0    38     1    16
 -9.3320423976756439E-02 a      1127     0    38     1    17
  4.7033879012862435E+01 a      1128     0    38     1    18
 -3.1224104784864406E+00 a      1129     0    38     1    19
 -1.8343414505187496E+01 a      1130     0    38     1    20
  1.4861851039829848E+01 a      1131     0    38     1    21
  2.7138236346667846E+00 a      1132     0    38     1    22
  3.9375203294743648E+00 a      1133     0    38     1    23
 -2.9504667340662927E+01 a      1134     0    38     1    24
  2.5405826873663191E+00 a      1135     0    38     1    25
  1.7929039844275401E+01 a      1136     0    38     1    26
 -3.4832849920250297E+01 a      1137     0    38     1    27
  2.0201850594447269E+01 a      1138     0    38     1    28
 -7.8286467861956091E+00 a      1139     0    38     1    29
  8.9669451830538272E-01 a      1140     0    38     1    30
 -4.4795662888986039E+00 a      1141     0    39     1     1
  5.3777883102181905E+00 a      1142     0    39     1     2
  2.0473929970737533E+01 a      1143     0    39     1     3
 -4.0601886366737955E-01 a      1144     0    39     1     4
 -4.1343998596542228E+01 a      1145     0    39     1     5
 -2.6723987205771014E+00 a      1146     0    39     1     6
 -1.7220458062734373E+01 a      1147     0    39     1     7
 -1.9114545158067386E+01 a      1148     0    39     1     8
 -1.3196361997504141E+01 a      1149     0    39     1     9
 -1.5805995841969887E+01 a      1150     0    39     1    10
  8.6883654422603502E+00 a      1151     0    39     1    11
  1.1567861932543462E+01 a      1152     0    39     1    12
  9.4422490457044770E+00 a      1153     0    39     1    13
 -5.9946243663711281E+00 a      1154     0    39     1    14
 -5.1527283307559138E+01 a      1155     0    39     1    15
 -1.6129446206747133E+01 a      1156     0    39     1    16
 -5.4244444981062792E+00 a      1157     0    39     1    17
  1.8902950591718246E+00 a      1158     0    39     1    18
 -1.1628364777921712E+01 a      1159     0    39     1    19
  6.0414286104517678E-01 a      1160     0    39     1    20
  4.5841970559680099E+01 a      1161     0    39     1    21
 -2.8372945158314550E+01 a      1162     0    39     1    22
 -3.3266597649842538E+01 a      1163     0    39     1    23
  7.4745429642350842E+00 a      1164     0    39     1    24
 -2.3739370768406012E+01 a      1165     0    39     1    25
 -1.1234709462873905E+01 a      1166     0    39     1    26
 -1.5742538159355734E+01 a      1167     0    39     1    27
 -2.4927056419064261E+01 a      1168     0    39     1    28
 -2.2452924652318842E+01 a      1169     0    39     1    29
 -4.0409636639651367E+00 a      1170     0    39     1    30
  1.6989857684215053E+01 a      1171     0    40     1     1
 -4.9780695821550163E+00 a      1172     0    40     1     2
  3.7716501648063532E+00 a      1173     0    40     1     3
 -4.1703288818412126E+01 a      1174     0    40     1     4
  7.5336709358776318E+01 a      1175     0    40     1     5
  2.5651557911330514E+01 a      1176     0    40     1     6
  7.1569683927869523E+00 a      1177     0    40     1     7
  6.4805533328765685E+00 a      1178     0    40     1     8
  1.6024534346759154E+01 a      1179     0    40     1     9
  2.5318617512801502E+01 a      1180     0    40     1    10
  6.7352210910311001E+00 a      1181     0    40     1    11
 -4.4338340242579086E+01 a      1182     0    40     1    12
  1.7761318064612745E+01 a      1183     0    40     1    13
  6.9684843304739204E+00 a      1184     0    40     1    14
  4.0106162854630469E+01 a      1185     0    40     1    15
  1.1120054703969885E+01 a      1186     0    40     1    16
 -3.9511483149542177E+00 a      1187     0    40     1    17
 -3.3387642757679842E+01 a      1188     0    40     1    18
  3.5501878504597826E+01 a      1189     0    40     1    19
 -3.9419991823853953E+00 a      1190     0    40     1    20
 -1.2706348202626517E+01 a      1191     0    40     1    21
  1.0259385045322921E+01 a      1192     0    40     1    22
  6.6958130450141383E+01 a      1193     0    40     1    23
 -5.0996112715000521E+00 a      1194     0    40     1    24
 -7.7827597232338306E+00 a      1195     0    40     1    25
  1.4041468542738736E+01 a      1196     0    40     1    26
  1.0354414466060422E+01 a      1197     0    40     1    27
 -6.7847924820826631E+00 a      1198     0    40     1    28
  3.1343191358485875E+01 a      1199     0    40     1    29
  8.1614602252725952E+00 a      1200     0    40     1    30
  9.1162261283473089E+00 a      1201     0    41     1     1
  2.3767539209218164E-01 a      1202     0    41     1     2
 -9.3251488131630467E+00 a      1203     0    41     1     3
  4.7985599943781283E+00 a      1204     0    41     1     4
 -4.8702568335428218E+00 a      1205     0    41     1     5
 -2.6634532270647089E+01 a      1206     0    41     1     6
 -3.2563009453720260E-01 a      1207     0    41     1     7
 -1.2192448425639567E+01 a      1208     0    41     1     8
  9.5343825696767333E+00 a      1209     0    41     1     9
  5.8583384264624421E+00 a      1210     0    41     1    10
  1.8029831826268437E+00 a      1211     0    41     1    11
  1.3435255884929239E+01 a      1212     0    41     1    12
 -3.1930149068340380E-01 a      1213     0    41     1    13
  1.2141698874122305E+01 a      1214     0    41     1    14
  4.3424534058326474E+00 a      1215     0    41     1    15
  1.2093887709331693E+01 a      1216     0    41     1    16
 -8.3891624504292164E+00 a      1217     0    41     1    17
  2.2866615494096707E+00 a      1218     0    41     1    18
  3.9837172827572287E+00 a      1219     0    41     1    19
  1.4562023949940213E+00 a      1220     0    41     1    20
  2.0750487096668304E+00 a      1221     0    41     1    21
  1.6854769601564248E+00 a      1222     0    41     1    22
 -4.2536984631195800E+00 a      1223     0    41     1    23
  2.8971734601942010E+00 a      1224     0    41     1    24
  5.9681949819334736E+00 a      1225     0    41     1    25
 -1.2006027955622713E+00 a      1226     0    41     1    26
 -3.5043187157095987E+00 a      1227     0    41     1    27
  1.6850814068184871E+01 a      1228     0    41     1    28
 -7.6545853314445145E+00 a      1229     0    41     1    29
 -2.8696209840829614E+01 a      1230     0    41     1    30
  1.5587782039282173E+01 a      1231     0    42     1     1
  1.1028791196261652E+01 a      1232     0    42     1     2
 -1.5440837843636636E+01 a      1233     0    42     1     3
  5.9973788133208991E+01 a      1234     0    42     1     4
 -7.5904325816376883E+01 a      1235     0    42     1     5
 -1.6160193188676370E+01 a      1236     0    42     1     6
 -1.0996831644877867E+01 a      1237     0    42     1     7
  1.3891473131578506E+01 a      1238     0    42     1     8
 -1.8021939917504451E+01 a      1239     0    42     1     9
 -7.5281713045466558E+00 a      1240     0    42     1    10
  1.0426429778132849E+01 a      1241     0    42     1    11
  3.3516022453975289E+01 a      1242     0    42     1    12
  1.6595156504142604E+01 a      1243     0    42     1    13
  9.6195172910492897E+00 a      1244     0    42     1    14
 -4.6016956107941645E+01 a      1245     0    42     1    15
 -8.2749960022062421E+00 a      1246     0    42     1    16
  2.5121563230518387E+01 a      1247     0    42     1    17
  5.4985614574986180E+01 a      1248     0    42     1    18
 -7.9924084457503346E+00 a      1249     0    42     1    19
 -1.2409387008741929E+01 a      1250     0    42     1    20
 -2.1290965236533124E+00 a      1251     0    42     1    21
  3.3808844519506593E+01 a      1252     0    42     1    22
 -2.6728173469502586E+01 a      1253     0    42     1    23
 -1.7141456940021207E+01 a      1254     0    42     1    24
  1.0479265530639776E+01 a      1255     0    42     1    25
  3.7551013911387171E-01 a      1256     0    42     1    26
 -1.9554659866794982E+01 a      1257     0    42     1    27
  2.1358916424193275E+01 a      1258     0    42     1    28
 -4.1955177825869612E+01 a      1259     0    42     1    29
 -4.6959133969579980E+01 a      1260     0    42     1    30
 -5.4862997390604251E+00 a      1261     0    43     1     1
  7.1112882701626356E-01 a      1262     0    43     1     2
  1.6625846811981606E+00 a      1263     0    43     1     3
 -5.7442825024749862E+00 a      1264     0    43     1     4
  3.9029448623129208E+00 a      1265     0    43     1     5
 -4.3509955037145804E+00 a      1266     0    43     1     6
  2.7507081834000102E+00 a      1267     0    43     1     7
 -1.1466702175044980E+00 a      1268     0    43     1     8
  3.8478416098468280E+00 a      1269     0    43     1     9
 -1.6819970390011094E+00 a      1270     0    43     1    10
 -8.6232499401650675E-01 a      1271     0    43     1    11
 -2.9745019778781132E+00 a      1272     0    43     1    12
 -4.2017125105150099E-01 a      1273     0    43     1    13
 -1.4697339039858828E+00 a      1274     0    43     1    14
  1.1775051442531739E+00 a      1275     0    43     1    15
 -5.3013899803668760E+00 a      1276     0    43     1    16
  4.5274091399056166E-01 a      1277     0    43     1    17
  3.7862245548540376E+00 a      1278     0    43     1    18
  1.5323046309981458E+00 a      1279     0    43     1    19
 -2.8423542253169067E+00 a      1280     0    43     1    20
 -5.4321617994793305E+00 a      1281     0    43     1    21
 -3.2585937854159081E-01 a      1282     0    43     1    22
 -9.6198153995757296E-01 a      1283     0    43     1    23
 -4.4263000693296659E+00 a      1284     0    43     1    24
 -4.0538164028441441E+00 a      1285     0    43     1    25
  2.7613680808039023E+00 a      1286     0    43     1    26
 -1.2874042667507097E+00 a      1287     0    43     1    27
 -4.4085811039469242E-01 a      1288     0    43     1    28
 -1.6997073386056964E+00 a      1289     0    43     1    29
  2.0814564730931380E+01 a      1290     0    43     1    30
 -9.3070667928996418E+00 a      1291     0    44     1     1
 -1.0099578572459527E+00 a      1292     0    44     1     2
  2.4017117674616588E+00 a      1293     0    44     1     3
 -1.1795601703938020E+01 a      1294     0    44     1     4
  1.0235744258249392E+01 a      1295     0    44     1     5
  2.4019043060050640E+00 a      1296     0    44     1     6
 -1.6144353312063142E+00 a      1297     0    44     1     7
  4.3969661989983450E-01 a      1298     0    44     1     8
 -2.3260187226680178E+00 a      1299     0    44     1     9
 -5.1021527719173481E+00 a      1300     0    44     1    10
  9.3179571810338502E-01 a      1301     0    44     1    11
 -1.2447690233675790E+01 a      1302     0    44     1    12
 -4.8024681722483260E+00 a      1303     0    44     1    13
 -6.8080039947842872E+00 a      1304     0    44     1    14
 -2.1284423283155101E+00 a      1305     0    44     1    15
  1.5259831077447665E+00 a      1306     0    44     1    16
  3.5683352394499862E-01 a      1307     0    44     1    17
 -1.5765329286460528E+01 a      1308     0    44     1    18
  1.5819572253796357E+00 a      1309     0    44     1    19
  4.6045610226704925E+00 a      1310     0    44     1    20
 -1.7306608648408144E+00 a      1311     0    44     1    21
 -4.1763159816607454E+00 a      1312     0    44     1    22
  1.9999772959640314E+00 a      1313     0    44     1    23
  5.7591146797506685E+00 a      1314     0    44     1    24
  5.6934426576327812E+00 a      1315     0    44     1    25
 -8.5504211999623951E+00 a      1316     0    44     1    26
  9.0888657167046976E+00 a      1317     0    44     1    27
 -1.0468397379952465E+01 a      1318     0    44     1    28
  4.1987401927624912E+00 a      1319     0    44     1    29
 -2.3128964115751577E-01 a      1320     0    44     1    30
  5.5150571933141022E+00 a      1321     0    45     1     1
 -9.1809860374711871E-01 a      1322     0    45     1     2
 -2.4921397636670203E+01 a      1323     0    45     1     3
 -3.6167427873090090E+00 a      1324     0    45     1     4
 -1.2242234034902754E+01 a      1325     0    45     1     5
  9.7561276216124089E+00 a      1326     0    45     1     6
  4.5675177142906094E+00 a      1327     0    45     1     7
 -2.5189777757571878E+01 a      1328     0    45     1     8
  1.5677929157857978E+01 a      1329     0    45     1     9
 -2.4264073786443685E-01 a      1330     0    45     1    10
 -6.9078232477956494E+00 a      1331     0    45     1    11
  4.7587315673107739E+01 a      1332     0    45     1    12
 -1.2604556556345483E+00 a      1333     0    45     1    13
  1.2773022419976725E+01 a      1334     0    45     1    14
  6.1756154631982634E+00 a      1335     0    45     1    15
  1.8957394037188532E+01 a      1336     0    45     1    16
 -9.0831311375186168E+00 a      1337     0    45     1    17
  3.5448231401298931E+00 a      1338     0    45     1    18
  7.1188055269102324E-01 a      1339     0    45     1    19
 -7.9649121906604199E+00 a      1340     0    45     1    20
 -3.4799867078519590E+01 a      1341     0    45     1    21
  4.4266757892894315E+00 a      1342     0    45     1    22
  3.5472209940873571E+00 a      1343     0    45     1    23
  6.7293229098372509E-01 a      1344     0    45     1    24
 -1.1835835019550352E+01 a      1345     0    45     1    25
  2.1429904681278991E+01 a      1346     0    45     1    26
  1.6298487882515094E+01 a      1347     0    45     1    27
  2.6552014484016784E+01 a      1348     0    45     1    28
 -1.3202028441203344E+01 a      1349     0    45     1    29
 -5.8498698158481428E+00 a      1350     0    45     1    30
 -1.9225519906198727E+01 a      1351     0    46     1     1
  5.4028550322124469E-01 a      1352     0    46     1     2
  3.9906129192941755E+01 a      1353     0    46     1     3
  1.9034612354653316E+01 a      1354     0    46     1     4
  1.5889075889543991E+01 a      1355     0    46     1     5
 -2.0973219566642666E+01 a      1356     0    46     1     6
 -1.0733217235832589E+01 a      1357     0    46     1     7
  5.4072150518711510E+01 a      1358     0    46     1     8
 -1.8427942916324067E+01 a      1359     0    46     1     9
 -2.3415149347577766E+00 a      1360     0    46     1    10
  5.6117574814861575E+00 a      1361     0    46     1    11
 -9.4342513567098408E+01 a      1362     0    46     1    12
 -8.0129463331896353E+00 a      1363     0    46     1    13
 -2.4069980735497897E+01 a      1364     0    46     1    14
  2.2929296068620961E-02 a      1365     0    46     1    15
 -3.5341155277844500E+01 a      1366     0    46     1    16
  2.0213512702510219E+01 a      1367     0    46     1    17
 -1.6970017712277181E+00 a      1368     0    46     1    18
  5.9802146316124922E+00 a      1369     0    46     1    19
  1.3442828129440938E+01 a      1370     0    46     1    20
  3.3756503312745160E+01 a      1371     0    46     1    21
  1.5454982727264682E+01 a      1372     0    46     1    22
 -1.3814751933589198E+01 a      1373     0    46     1    23
 -7.6517230082619987E+00 a      1374     0    46     1    24
  4.3751391991926340E+01 a      1375     0    46     1    25
 -4.4459744744715209E+01 a      1376     0    46     1    26
 -3.7070939704263694E+01 a      1377     0    46     1    27
 -3.2219887887220679E+01 a      1378     0    46     1    28
  2.1754439771391770E+01 a      1379     0    46     1    29
  2.7428382890251743E+01 a      1380     0    46     1    30
 -1.2124098485170958E+00 a      1381     0    47     1     1
 -3.8750816798744331E-01 a      1382     0    47     1     2
  2.3440104535685493E+00 a      1383     0    47     1     3
  9.6472392268100171E-02 a      1384     0    47     1     4
  3.1401703084638704E+00 a      1385     0    47     1     5
 -1.2485445146949399E+01 a      1386     0    47     1     6
  2.5780466745117175E-01 a      1387     0    47     1     7
  4.0192824571386057E+00 a      1388     0    47     1     8
 -3.6358860455278283E+00 a      1389     0    47     1     9
 -1.0526285747939457E+00 a      1390     0    47     1    10
 -1.2877189939264404E+00 a      1391     0    47     1    11
 -7.7097408741541429E+00 a      1392     0    47     1    12
  1.1852929585900840E-01 a      1393     0    47     1    13
 -1.9907254242963957E+00 a      1394     0    47     1    14
  7.6582511050619106E-01 a      1395     0    47     1    15
 -2.2431377641476580E+00 a      1396     0    47     1    16
  1.7094944952431730E+00 a      1397     0    47     1    17
 -1.2602453279843389E+00 a      1398     0    47     1    18
  2.5568103616722088E-02 a      1399     0    47     1    19
  8.3794998181304603E-01 a      1400     0    47     1    20
  8.2452512600281125E-01 a      1401     0    47     1    21
  1.5865602393188920E+00 a      1402     0    47     1    22
  8.7691570359970161E-01 a      1403     0    47     1    23
 -6.5907200661036280E-01 a      1404     0    47     1    24
 -2.3237940101587684E+00 a      1405     0    47     1    25
 -2.2039810858616216E+00 a      1406     0    47     1    26
  2.6463806288172537E-01 a      1407     0    47     1    27
 -4.3416585237825265E+00 a      1408     0    47     1    28
  3.0800009205202952E+00 a      1409     0    47     1    29
  4.8911405248294582E+00 a      1410     0    47     1    30
  7.1456349508124122E+00 a      1411     0    48     1     1
 -8.0534167985025229E-01 a      1412     0    48     1     2
 -1.5562851278455627E+01 a      1413     0    48     1     3
 -1.9572393686230367E+01 a      1414     0    48     1     4
  4.1237748217509109E+00 a      1415     0    48     1     5
  1.5804592590761832E+00 a      1416     0    48     1     6
  9.0685184620107222E+00 a      1417     0    48     1     7
 -3.1520736878166350E+01 a      1418     0    48     1     8
  5.2524815399940001E+00 a      1419     0    48     1     9
  5.0650914671929206E+00 a      1420     0    48     1    10
 -3.0811672085993869E+00 a      1421     0    48     1    11
  5.0648295124748088E+01 a      1422     0    48     1    12
  5.3719100408520709E-02 a      1423     0    48     1    13
  8.0181309079370795E+00 a      1424     0    48     1    14
  1.6273728170949648E+00 a      1425     0    48     1    15
  1.9855571647341705E+01 a      1426     0    48     1    16
 -1.6133332315644719E+01 a      1427     0    48     1    17
 -1.1591669368407924E+01 a      1428     0    48     1    18
 -6.7064222964324571E+00 a      1429     0    48     1    19
 -4.2430292854313709E+00 a      1430     0    48     1    20
 -8.5783995238209751E+00 a      1431     0    48     1    21
 -2.2121126719039673E+01 a      1432     0    48     1    22
  6.8813123542835317E+00 a      1433     0    48     1    23
  7.7571832460440442E+00 a      1434     0    48     1    24
 -2.7543715106759549E+01 a      1435     0    48     1    25
  2.5358357674084630E+01 a      1436     0    48     1    26
  2.4798958740997620E+01 a      1437     0    48     1    27
  9.1770219303031908E+00 a      1438     0    48     1    28
 -5.3154375205541431E+00 a      1439     0    48     1    29
 -1.7271759184558750E+01 a      1440     0    48     1    30
  1.9544476865756939E+00 a      1441     0    49     1     1
 -5.3792215094539145E-02 a      1442     0    49     1     2
 -3.3684165221790718E-01 a      1443     0    49     1     3
  1.8953007772511132E+00 a      1444     0    49     1     4
 -1.2621492657930944E+00 a      1445     0    49     1     5
  3.2361795648409690E+00 a      1446     0    49     1     6
 -7.8328788508102243E-01 a      1447     0    49     1     7
  5.7245212167942472E-01 a      1448     0    49     1     8
 -1.0537463992279172E+00 a      1449     0    49     1     9
  8.1829422013043140E-01 a      1450     0    49     1    10
  2.5842745274364868E-02 a      1451     0    49     1    11
  1.1425308244774963E+00 a      1452     0    49     1    12
 -1.1226541138518977E-02 a      1453     0    49     1    13
 -9.8009924699780454E-02 a      1454     0    49     1    14
 -2.8720591146886842E-01 a      1455     0    49     1    15
  1.8134890176454646E+00 a      1456     0    49     1    16
 -1.4062835913583937E-02 a      1457     0    49     1    17
 -1.4531895793745719E+00 a      1458     0    49     1    18
 -6.1121711005447010E-01 a      1459     0    49     1    19
  7.5039373757076566E-01 a      1460     0    49     1    20
  1.2275952382095026E+00 a      1461     0    49     1    21
  4.2398697183989570E-01 a      1462     0    49     1    22
  3.7205910557024574E-01 a      1463     0    49     1    23
  2.3248796297338914E+00 a      1464     0    49     1    24
  1.1840670488388074E+00 a      1465     0    49     1    25
 -9.9376075036116041E-01 a      1466     0    49     1    26
  1.7051091204838717E-01 a      1467     0    49     1    27
 -5.2824088181876416E-01 a      1468     0    49     1    28
  6.0399321829206554E-01 a      1469     0    49     1    29
 -2.9094925284690167E+00 a      1470     0    49     1    30
  2.6892255881906570E+00 a      1471     0    50     1     1
  5.3655276575892885E-01 a      1472     0    50     1     2
 -7.3050527872026191E-02 a      1473     0    50     1     3
  4.4652999926197587E+00 a      1474     0    50     1     4
 -3.8938446007420362E+00 a      1475     0    50     1     5
 -2.2248082618160918E+00 a      1476     0    50     1     6
  8.2072394849805086E-01 a      1477     0    50     1     7
  1.3417518141454814E+00 a      1478     0    50     1     8
  1.3004641406989519E+00 a      1479     0    50     1     9
  1.3333743975167042E-01 a      1480     0    50     1    10
 -9.0677717046365780E-01 a      1481     0    50     1    11
  1.5410558649456298E+00 a      1482     0    50     1    12
  4.4286645683801018E-01 a      1483     0    50     1    13
  2.5569421191743658E-01 a      1484     0    50     1    14
  2.3395649666235450E+00 a      1485     0    50     1    15
 -3.5874935352507731E-01 a      1486     0    50     1    16
  7.1816742627706087E-01 a      1487     0    50     1    17
  4.9391660914425755E+00 a      1488     0    50     1    18
  9.0756381610461301E-01 a      1489     0    50     1    19
 -1.8710852753307909E+00 a      1490     0    50     1    20
 -1.1393344838144284E+00 a      1491     0    50     1    21
  3.0857198652820919E+00 a      1492     0    50     1    22
 -9.6542060750310976E-01 a      1493     0    50     1    23
 -2.0133712456687016E+00 a      1494     0    50     1    24
  6.6705832773148255E-01 a      1495     0    50     1    25
  1.4720207365641789E+00 a      1496     0    50     1    26
 -4.2937653677203445E+00 a      1497     0    50     1    27
  4.5887651043154252E+00 a      1498     0    50     1    28
 -1.3912571416429131E+00 a      1499     0    50     1    29
  5.1766956543612785E+00 a      1500     0    50     1    30
  6.8900624006994464E+00 a      1501     0    51     1     1
  3.5106437072607616E-01 a      1502     0    51     1     2
  1.3180789427930921E+00 a      1503     0    51     1     3
 -2.6736247992231075E+00 a      1504     0    51     1     4
  1.9530882235785454E+00 a      1505     0    51     1     5
  5.4449235344432712E-01 a      1506     0    51     1     6
  1.1812592087345790E+00 a      1507     0    51     1     7
  2.2410851583545208E-02 a      1508     0    51     1     8
 -6.4537740550024756E+00 a      1509     0    51     1     9
 -3.2442568056168399E+00 a      1510     0    51     1    10
  1.7500852798647784E-01 a      1511     0    51     1    11
 -1.2702872045692493E+01 a      1512     0    51     1    12
 -1.0394006508162368E+00 a      1513     0    51     1    13
 -4.4459895568048511E+00 a      1514     0    51     1    14
  1.6356020578153521E+00 a      1515     0    51     1    15
  5.5127601604672165E+00 a      1516     0    51     1    16
  3.3806437250993432E-01 a      1517     0    51     1    17
 -4.9804799100578458E+00 a      1518     0    51     1    18
 -4.6871376471845050E+00 a      1519     0    51     1    19
  6.1063404851063146E+00 a      1520     0    51     1    20
  2.1693775772209452E+01 a      1521     0    51     1    21
  1.2786979814016625E-01 a      1522     0    51     1    22
  3.6872573575599303E+00 a      1523     0    51     1    23
  5.2374159694924431E+00 a      1524     0    51     1    24
 -4.3258101753128453E-01 a      1525     0    51     1    25
  1.8758956106400089E+00 a      1526     0    51     1    26
  5.6840216204836813E-01 a      1527     0    51     1    27
 -1.1686835918153017E+01 a      1528     0    51     1    28
  2.4210217833897345E+00 a      1529     0    51     1    29
 -3.3943659233938170E+00 a      1530     0    51     1    30
 -1.4670278496311964E+01 a      1531     0    52     1     1
 -7.8036395384643009E-01 a      1532     0    52     1     2
 -5.2852379719822355E+00 a      1533     0    52     1     3
  7.2989329796347553E+00 a      1534     0    52     1     4
 -6.3095239400383765E+00 a      1535     0    52     1     5
 -2.1871441176116977E+00 a      1536     0    52     1     6
 -1.6015376069257929E+00 a      1537     0    52     1     7
  1.4750650681724400E-01 a      1538     0    52     1     8
  1.4578128601339575E+01 a      1539     0    52     1     9
  8.1390875140947276E+00 a      1540     0    52     1    10
  9.4552143003801048E-02 a      1541     0    52     1    11
  3.3040280646936900E+01 a      1542     0    52     1    12
  4.0618658873474560E+00 a      1543     0    52     1    13
  8.7934439945324314E+00 a      1544     0    52     1    14
 -3.9113639017988167E+00 a      1545     0    52     1    15
 -1.4395165823039735E+01 a      1546     0    52     1    16
  7.2828204732615098E-01 a      1547     0    52     1    17
  1.5056095048409881E+01 a      1548     0    52     1    18
  9.1855177545849109E+00 a      1549     0    52     1    19
 -1.5133059616235379E+01 a      1550     0    52     1    20
 -5.0249330053671088E+01 a      1551     0    52     1    21
 -2.6664448302677077E+00 a      1552     0    52     1    22
 -8.3842398760845018E+00 a      1553     0    52     1    23
 -1.1341811266077388E+01 a      1554     0    52     1    24
  1.3587070668348940E+00 a      1555     0    52     1    25
 -5.6973998435365898E+00 a      1556     0    52     1    26
 -3.0176473793496450E-01 a      1557     0    52     1    27
  2.7312044831481362E+01 a      1558     0    52     1    28
 -5.8554937772063260E+00 a      1559     0    52     1    29
  9.6394086505222791E+00 a      1560     0    52     1    30
 -4.2034470160882720E-01 a      1561     0    53     1     1
  1.2336327604699016E-02 a      1562     0    53     1     2
  3.2957830269258159E-01 a      1563     0    53     1     3
  1.1677872927290081E-01 a      1564     0    53     1     4
 -3.7999607538619438E-02 a      1565     0    53     1     5
  2.0839470724638152E+00 a      1566     0    53     1     6
  3.9128781980517696E-02 a      1567     0    53     1     7
 -8.5902699949318012E-02 a      1568     0    53     1     8
  4.9173847363097761E-01 a      1569     0    53     1     9
  3.5659915498204470E-01 a      1570     0    53     1    10
  4.1644189394085362E-01 a      1571     0    53     1    11
  1.4636155656103373E+00 a      1572     0    53     1    12
  2.5257027111424021E-02 a      1573     0    53     1    13
  8.0702902269720989E-01 a      1574     0    53     1    14
 -3.1760319737944431E-01 a      1575     0    53     1    15
 -1.9864069871220705E-01 a      1576     0    53     1    16
 -4.3844609001072049E-01 a      1577     0    53     1    17
  4.1935349248250514E-01 a      1578     0    53     1    18
  2.5629745861610281E-01 a      1579     0    53     1    19
 -5.2710548708189853E-01 a      1580     0    53     1    20
 -1.1796867930687875E+00 a      1581     0    53     1    21
 -6.7311639058165651E-01 a      1582     0    53     1    22
 -2.2903267321768847E-01 a      1583     0    53     1    23
 -4.3774597273973753E-01 a      1584     0    53     1    24
  1.7459965209058828E-01 a      1585     0    53     1    25
  3.1960838546313808E-01 a      1586     0    53     1    26
 -2.5448036650134187E-01 a      1587     0    53     1    27
  9.9526025689925346E-01 a      1588     0    53     1    28
 -1.3636745828837996E-01 a      1589     0    53     1    29
  1.6296060488286637E+00 a      1590     0    53     1    30
  1.0668356922236789E+01 a      1591     0    54     1     1
  5.7790531742158990E-01 a      1592     0    54     1     2
  3.6889197244277612E+00 a      1593     0    54     1     3
 -5.3616498977992775E+00 a      1594     0    54     1     4
  4.6751505836585334E+00 a      1595     0    54     1     5
  3.9569895288308219E+00 a      1596     0    54     1     6
 -4.0062591466112507E-01 a      1597     0    54     1     7
 -7.3803330278616269E-02 a      1598     0    54     1     8
 -9.9779258295838709E+00 a      1599     0    54     1     9
 -7.4874299649099578E+00 a      1600     0    54     1    10
 -2.0581313646562721E-01 a      1601     0    54     1    11
 -2.6534998676167469E+01 a      1602     0    54     1    12
 -2.6934153165634016E+00 a      1603     0    54     1    13
 -4.6842254634693239E+00 a      1604     0    54     1    14
  2.7073542869480471E+00 a      1605     0    54     1    15
  1.0901126032265623E+01 a      1606     0    54     1    16
 -6.5133117236241678E-01 a      1607     0    54     1    17
 -1.0485264117927738E+01 a      1608     0    54     1    18
 -5.8584688491481183E+00 a      1609     0    54     1    19
  1.1482384647679829E+01 a      1610     0    54     1    20
  3.6968597593187788E+01 a      1611     0    54     1    21
  4.1343257025402256E+00 a      1612     0    54     1    22
  6.7276774856997896E+00 a      1613     0    54     1    23
  7.7791398957062690E+00 a      1614     0    54     1    24
 -2.8239390134882063E+00 a      1615     0    54     1    25
  3.7920480245944481E+00 a      1616     0    54     1    26
 -5.8638205324252435E-01 a      1617     0    54     1    27
 -2.0133800623483545E+01 a      1618     0    54     1    28
  3.9830311757208450E+00 a      1619     0    54     1    29
 -9.7921418191819996E+00 a      1620     0    54     1    30
 -4.2152648119440833E-01 a      1621     0    55     1     1
 -2.1636938937973093E-02 a      1622     0    55     1     2
  2.9817590856990785E-02 a      1623     0    55     1     3
